svm_type l2r_rank
kernel_type linear
nr_class 2
total_sv 40554
SV
0.0003746069154442594 1:0.000456872 2:0.2 3:0.142857 4:0.470835 5:0.210227 6:0.73364 7:0.37307 
0.000439219335204206 1:0.000456872 2:0.2 3:0.142857 4:0.175862 5:0.0113636 6:0.731093 7:0.155632 
0.0002166728430426749 1:4.25879e-09 2:0.2 3:0.142857 4:0.000784583 5:0.0113636 6:0.434191 
0.0001776564196040224 1:0.000456872 2:0.2 3:0.142857 4:0.00101423 5:0.0227273 6:0.386069 
0.000149840935095526 1:0.000456872 2:0.2 3:0.142857 4:0.000351088 5:0.0454545 6:0.361886 
0.0001495763120341846 1:0.000456872 2:0.2 3:0.142857 4:0.000832264 5:0.0454545 6:0.361406 
0.0001612252065968572 1:4.25879e-09 2:0.2 3:0.142857 4:0.000549462 5:0.0113636 6:0.356307 7:0.0124942 
4.672051348586985e-05 1:4.25879e-09 2:0.2 3:0.142857 4:0.000181526 5:0.272727 6:0.36881 
0.000131443031854971 1:0.000456872 2:0.2 3:0.142857 4:0.000521069 5:0.00568182 6:0.309201 7:0.00601448 
0.0001051708382910283 1:1.95365e-07 3:0.142857 4:0.00108927 5:0.0454545 6:0.361406 
0.0001140334215213568 1:1.95365e-07 3:0.142857 4:0.000751937 5:0.0113636 6:0.351012 
-8.248386953099419e-05 1:1.95365e-07 3:0.142857 4:0.00859421 5:0.420455 6:0.350995 7:0.0473743 
7.05433283904196e-05 1:1.95365e-07 3:0.142857 4:0.00819835 5:0.0227273 6:0.307799 7:0.124039 
6.624310641256865e-05 1:4.25879e-09 2:0.2 3:0.142857 4:0.000674445 5:0.00568182 6:0.215429 
4.768960796261238e-05 1:1.95365e-07 3:0.142857 4:0.00664445 5:0.00568182 6:0.258596 7:0.0725017 
7.41103188013887e-06 1:1.95365e-07 3:0.142857 4:0.00613496 5:0.0227273 6:0.218034 7:0.124039 
-0.0001379406282609322 1:2.19363e-05 2:0.4 3:0.285714 4:0.153627 5:1 6:0.740793 7:0.560966 
0.0001817172956188434 1:2.19363e-05 2:0.4 3:0.285714 4:0.117594 5:0.181818 6:0.632602 7:0.391591 
-8.868281578129639e-05 1:7.04752e-09 2:0.4 3:0.142857 4:0.0660898 5:1 6:0.64918 7:0.560966 
-0.0001331005182437283 1:1.16239e-08 2:0.2 3:0.142857 4:0.0660898 5:1 6:0.64918 7:0.560966 
0.0001776167416140623 1:2.19363e-05 2:0.4 3:0.285714 4:0.00218998 5:0.0340909 6:0.510916 7:0.00327429 
-0.0001802566413291304 1:7.04752e-09 2:0.4 3:0.142857 4:0.00867373 5:1 6:0.530502 7:0.560966 
0.000281670815051553 1:7.04752e-09 2:0.4 3:0.142857 4:0.00356067 5:0.00568182 6:0.459153 
0.0001255805380481545 1:2.19363e-05 2:0.4 3:0.285714 4:0.000693349 5:0.0113636 6:0.421447 7:0.00308957 
-0.0003768021492273193 1:2.19363e-05 2:0.4 3:0.285714 4:0.000575832 5:1 6:0.431929 7:0.560966 
9.411764641427064e-05 1:2.19363e-05 2:0.4 3:0.285714 4:0.00371615 5:0.00568182 6:0.37168 
0.0002209674208363056 1:7.04752e-09 2:0.4 3:0.142857 4:0.0639057 5:0.0113636 6:0.363495 
-0.0002246743437915631 1:1.16239e-08 2:0.2 3:0.142857 4:0.00867373 5:1 6:0.530502 7:0.560966 
0.0002318800215453316 1:7.04752e-09 2:0.4 3:0.142857 4:0.00253919 5:0.00568182 6:0.388298 7:0.000665476 
0.0002189453342321948 1:7.04752e-09 2:0.4 3:0.142857 4:0.00117107 5:0.0113636 6:0.373893 
0.0001765497183738737 1:1.16239e-08 2:0.2 3:0.142857 4:0.0639057 5:0.0113636 6:0.363495 
0.0001874623190828998 1:1.16239e-08 2:0.2 3:0.142857 4:0.00253919 5:0.00568182 6:0.388298 7:0.000665476 
0.0001745276317697627 1:1.16239e-08 2:0.2 3:0.142857 4:0.00117107 5:0.0113636 6:0.373893 
0.0001400011956448013 1:1.16239e-08 2:0.2 3:0.142857 4:0.0010722 5:0.0454545 6:0.348358 7:0.0062692 
0.0002937554986739011 1:0.000578782 2:0.2 3:0.142857 4:0.647011 5:0.380682 6:0.760233 7:0.991641 
-6.211240296832988e-06 1:0.000578782 2:0.2 3:0.142857 4:0.008193 5:0.380682 6:0.466948 7:0.991641 
0.0001697953880302818 1:0.000578782 2:0.2 3:0.142857 4:0.0024109 5:0.0340909 6:0.382241 
0.0001625995432318053 1:1.15597e-08 2:0.2 3:0.142857 4:0.000353086 5:0.00568182 6:0.353169 
0.0001601521833133028 1:1.15597e-08 2:0.2 3:0.142857 4:0.000321294 5:0.00568182 6:0.349679 
0.0001471094771805111 1:1.15597e-08 2:0.2 3:0.142857 4:4.09304e-05 5:0.0284091 6:0.346522 
8.144045918503088e-05 1:0.000578782 2:0.2 3:0.142857 4:0.0195793 5:0.159091 6:0.337291 7:0.00118924 
1.448480414702675e-05 1:0.000578782 2:0.2 3:0.142857 4:0.0323523 5:0.295455 6:0.331311 
0.0001425914356129209 1:1.15597e-08 2:0.2 3:0.142857 4:0.000421642 5:0.0113636 6:0.328422 
0.0001442243949394597 1:1.15597e-08 2:0.2 3:0.142857 4:2.25654e-05 5:0.00568182 6:0.326985 
-8.329955110297348e-05 1:0.000578782 2:0.2 3:0.142857 4:0.00419898 5:0.414773 6:0.27851 
-0.0001404633294173557 1:0.000214066 2:0.4 3:0.285714 4:0.3833 5:1 6:0.731096 7:0.973712 
-0.0002652140087722685 1:1.17108e-07 2:0.4 3:0.285714 4:0.0094276 5:1 6:0.632058 7:0.973712 
9.531939529686836e-05 1:0.000214066 2:0.4 3:0.285714 4:0.0234368 5:0.181818 6:0.489697 7:0.00966905 
9.530727590707549e-05 1:1.17108e-07 2:0.4 3:0.285714 4:0.0234368 5:0.181818 6:0.489697 7:0.00966905 
0.0001476638952216079 1:0.000214066 2:0.4 3:0.285714 4:0.019814 5:0.0113636 6:0.448954 7:0.00328416 
0.0001274260477050572 1:0.000214066 2:0.4 3:0.285714 4:0.00458535 5:0.0113636 6:0.422963 7:0.00036537 
0.0001274139283152644 1:1.17108e-07 2:0.4 3:0.285714 4:0.00458535 5:0.0113636 6:0.422963 7:0.00036537 
-0.0004080393812139483 1:0.000214066 2:0.4 3:0.285714 4:0.0057258 5:1 6:0.428759 7:0.973712 
-0.0004080515006037413 1:1.17108e-07 2:0.4 3:0.285714 4:0.0057258 5:1 6:0.428759 7:0.973712 
9.753372088092352e-05 1:1.17108e-07 2:0.4 3:0.285714 4:0.0059899 5:0.00568182 6:0.376081 
9.17893561030109e-05 1:0.000214066 2:0.4 3:0.285714 4:0.00226526 5:0.00568182 6:0.368667 7:0.000211989 
5.999226879973427e-05 1:1.17108e-07 2:0.4 3:0.285714 4:0.0344413 5:0.0113636 6:0.32061 7:0.00328416 
-0.0002957983284897531 1:3.52596e-09 2:0.2 3:0.142857 4:0.0165633 5:1 6:0.469778 7:0.973712 
-0.000326114007037637 1:3.52596e-09 2:0.2 3:0.142857 4:0.0057258 5:1 6:0.428759 7:0.973712 
0.000179471214447028 1:3.52596e-09 2:0.2 3:0.142857 4:0.0059899 5:0.00568182 6:0.376081 
0.0002143384929854663 1:9.27183e-09 2:0.2 3:0.142857 4:0.0342843 5:0.414773 6:0.731186 7:0.327178 
0.0003559123750034119 1:0.000223106 2:0.2 4:0.0477599 5:0.414773 6:0.731186 7:0.14419 
0.0004765252701979472 1:1.29468e-06 2:0.2 4:0.04471 5:0.0227273 6:0.660907 7:0.364311 
0.0001699207956770893 1:1.04835e-07 3:0.142857 4:0.0342843 5:0.414773 6:0.731186 7:0.327178 
0.0002106289130746199 1:9.27183e-09 2:0.2 3:0.142857 4:0.00244061 5:0.153409 6:0.522861 7:0.0124992 
5.13767813727014e-05 1:1.05847e-06 2:0.2 3:0.142857 4:0.00137966 5:0.414773 6:0.505319 7:0.327178 
0.000199448504599925 1:0.00240555 2:0.2 3:0.142857 4:0.0563141 5:0.0568182 6:0.428463 
6.755168145360671e-06 1:2.32541e-07 3:0.142857 4:0.0979854 5:0.414773 6:0.505319 7:0.528398 
0.0001526670697760531 1:0.00240555 2:0.2 3:0.142857 4:0.00442145 5:0.159091 6:0.442401 7:0.00390844 
0.0001525308050565922 1:9.27183e-09 2:0.2 3:0.142857 4:0.00442145 5:0.159091 6:0.442401 7:0.00390844 
0.0001662112157662432 1:1.04835e-07 3:0.142857 4:0.00244061 5:0.153409 6:0.522861 7:0.0124992 
0.000205891456397177 1:2.45487e-08 2:0.2 3:0.142857 4:0.000475487 5:0.0170455 6:0.422707 
0.0001986996074780478 1:0.00240555 2:0.2 3:0.142857 4:0.00428738 5:0.00568182 6:0.40372 
0.0002787142043207409 1:0.000223106 2:0.2 4:0.00127407 5:0.159091 6:0.442401 
0.0002787016395543501 1:1.29468e-06 2:0.2 4:0.00127407 5:0.159091 6:0.442401 
0.0001663286498808428 1:0.00240555 2:0.2 3:0.142857 4:0.0075844 5:0.0568182 6:0.391805 7:0.00331639 
0.0001661923851613819 1:9.27183e-09 2:0.2 3:0.142857 4:0.0075844 5:0.0568182 6:0.391805 7:0.00331639 
6.959024631244641e-06 1:1.04835e-07 3:0.142857 4:0.00137966 5:0.414773 6:0.505319 7:0.327178 
0.0002693291446494949 1:1.29468e-06 2:0.2 4:0.00335304 5:0.142045 6:0.422801 7:0.0561994 
0.0001226626481709293 1:1.05847e-06 2:0.2 3:0.142857 4:0.00348949 5:0.142045 6:0.391833 7:0.0375942 
0.0001785220924821445 1:9.27183e-09 2:0.2 3:0.142857 4:0.00138135 5:0.00568182 6:0.375701 
0.0001020379608980652 1:0.00240555 2:0.2 3:0.142857 4:0.00522058 5:0.164773 6:0.373671 7:0.00315399 
0.0002933658863253976 1:0.000223106 2:0.2 4:0.0130015 5:0.0568182 6:0.391805 7:0.00327978 
9.304424496324093e-05 1:1.05847e-06 2:0.2 3:0.142857 4:0.00864009 5:0.176136 6:0.367675 
9.3044185530161e-05 1:9.27183e-09 2:0.2 3:0.142857 4:0.00864009 5:0.176136 6:0.367675 
0.0001567319028376342 1:1.05847e-06 2:0.2 3:0.142857 4:0.00124082 5:0.0113636 6:0.348452 
0.0001489482035824543 1:1.05847e-06 2:0.2 3:0.142857 4:0.00103738 5:0.0284091 6:0.348938 
0.0003049042999786621 1:0.000223106 2:0.2 4:0.00147827 5:0.00568182 6:0.375701 
0.0001081131077482154 1:1.04835e-07 3:0.142857 4:0.00442145 5:0.159091 6:0.442401 7:0.00390844 
0.0001428646051861197 1:2.45487e-08 2:0.2 3:0.142857 4:0.000356718 5:0.0284091 6:0.341321 7:0.00902593 
0.0002960381554455331 1:0.000223106 2:0.2 4:0.00113006 5:0.00568182 6:0.363107 
7.481006804435452e-05 1:0.00240555 2:0.2 3:0.142857 4:0.0133562 5:0.164773 6:0.33272 
0.0002185912012456831 1:0.000223106 2:0.2 4:0.00310287 5:0.176136 6:0.367675 
0.0002185786364792922 1:1.29468e-06 2:0.2 4:0.00310287 5:0.176136 6:0.367675 
0.0001278711133072949 1:1.05847e-06 2:0.2 3:0.142857 4:0.00151671 5:0.0284091 6:0.318722 
0.000121774687853005 1:1.04835e-07 3:0.142857 4:0.0075844 5:0.0568182 6:0.391805 7:0.00331639 
0.0002543207894169577 1:1.29468e-06 2:0.2 4:0.00215393 5:0.0284091 6:0.318722 
4.862648822178417e-05 1:1.04835e-07 3:0.142857 4:0.00864009 5:0.176136 6:0.367675 
3.17277106918646e-05 1:1.29468e-06 2:0.2 4:0.00138144 5:0.414773 6:0.277839 7:0.14419 
0.0004278050570480762 1:5.08375e-05 2:0.2 3:0.142857 4:0.945409 5:0.164773 6:0.731036 7:0.884124 
0.0004471925051073598 1:1.92658e-09 4:0.238438 5:0.164773 6:0.731036 7:0.298763 
0.0002081776062339309 1:5.08375e-05 2:0.2 3:0.142857 4:0.00158907 5:0.164773 6:0.617137 7:0.884124 
9.627089464592451e-05 1:1.43935e-07 2:0.2 3:0.142857 4:6.3436e-05 5:0.414773 6:0.535999 
0.0002901122266211397 1:2.43348e-09 4:0.00158907 5:0.164773 6:0.617137 7:0.884124 
0.0001168040625146766 1:5.08375e-05 2:0.2 3:0.142857 4:0.00260426 5:0.289773 6:0.479991 
-1.191082126092201e-05 1:5.08375e-05 2:0.2 3:0.142857 4:0.000659586 5:0.414773 6:0.381301 
0.0001987386829018852 1:2.43348e-09 4:0.00260426 5:0.289773 6:0.479991 
0.0001485899783236408 1:5.08375e-05 2:0.2 3:0.142857 4:0.00147573 5:0.0113636 6:0.336938 7:0.00167536 
0.0002936173374050561 1:2.43348e-09 4:0.000416966 5:0.0397727 6:0.446658 7:0.00242019 
0.0002516193324468551 1:2.43348e-09 4:0.000221421 5:0.0397727 6:0.386444 
-6.447780861387108e-06 1:5.08375e-05 2:0.2 3:0.142857 4:0.000374351 5:0.244318 6:0.273526 
0.0002632346578086595 1:2.43348e-09 4:0.00102146 5:0.00568182 6:0.380366 7:0.00604878 
0.0002243308425555818 1:2.43348e-09 4:0.000302172 5:0.0113636 6:0.328326 7:0.00156815 
0.0002165521606190735 1:0.000293863 2:0.2 3:0.142857 4:0.00940162 5:0.176136 6:0.545586 7:0.015811 
0.000198602402836508 1:0.000293863 2:0.2 3:0.142857 4:0.0136452 5:0.176136 6:0.519041 7:0.015811 
0.0001174324922711155 1:0.000293863 2:0.2 3:0.142857 4:0.0695282 5:0.164773 6:0.397989 7:0.156084 
0.0001851787148681753 1:0.000293863 2:0.2 3:0.142857 4:0.021025 5:0.00568182 6:0.393041 7:0.116486 
0.0001242902573653612 1:0.000293863 2:0.2 3:0.142857 4:0.00902239 5:0.164773 6:0.404505 
0.0001191802330155011 1:0.000293863 2:0.2 3:0.142857 4:0.0197944 5:0.0397727 6:0.312612 7:0.0241717 
0.0002577691344446015 1:0.000562202 2:0.2 3:0.142857 4:0.509616 5:0.380682 6:0.731194 7:0.926444 
-7.420537076888035e-05 1:1.95756e-08 2:0.2 3:0.428571 4:0.000418403 5:0.0340909 6:0.395154 
0.0002128444965283784 1:0.000562202 2:0.2 3:0.142857 4:0.00390384 5:0.0113636 6:0.428134 7:0.00115398 
-2.506344865719545e-05 1:0.000562202 2:0.2 3:0.142857 4:0.00302687 5:0.380682 6:0.434384 7:0.926444 
-0.0001128821799126957 1:1.95756e-08 2:0.2 3:0.428571 4:0.000390132 5:0.00568182 6:0.320626 
-5.67912709492716e-05 1:0.000562202 2:0.2 3:0.142857 4:0.00756416 5:0.380682 6:0.388091 7:0.926444 
0.0001598225816787525 1:0.000562202 2:0.2 3:0.142857 4:0.00572734 5:0.0340909 6:0.367291 
-0.0001329157699117114 1:1.95756e-08 2:0.2 3:0.428571 4:0.00028367 5:0.00568182 6:0.292025 
2.337276669367361e-05 1:0.000562202 2:0.2 3:0.142857 4:0.00548842 5:0.295455 6:0.349701 
-0.0001446956311111827 1:1.95756e-08 2:0.2 3:0.428571 4:0.000259382 5:0.0113636 6:0.279054 
-0.0001581055667844872 1:1.95756e-08 2:0.2 3:0.428571 4:0.000312593 5:0.0284091 6:0.271447 
0.0001409258123091637 1:6.10073e-07 3:0.142857 4:0.00106233 5:0.0568182 6:0.420207 
0.0001409257808122217 1:5.40437e-08 3:0.142857 4:0.00106233 5:0.0568182 6:0.420207 
-2.075989603340165e-05 1:6.10073e-07 3:0.142857 4:0.000653594 5:0.414773 6:0.432126 
-2.075992753034348e-05 1:5.40437e-08 3:0.142857 4:0.000653594 5:0.414773 6:0.432126 
-9.557174900107717e-05 1:6.10073e-07 3:0.142857 4:2.79329e-05 5:0.414773 6:0.325369 
6.335016353602357e-06 1:6.10073e-07 3:0.142857 4:0.000112385 5:0.176136 6:0.309056 
-0.0001139090372422349 1:6.10073e-07 3:0.142857 4:2.79605e-08 5:0.414773 6:0.299175 
-0.0001139090687391769 1:5.40437e-08 3:0.142857 4:2.79605e-08 5:0.414773 6:0.299175 
-0.0002066329902500231 1:6.10073e-07 3:0.142857 4:1.45466e-05 5:0.414773 6:0.16669 
-7.288977101352836e-05 1:0.00193086 2:0.6 3:0.428571 4:0.999331 5:1 6:0.775244 7:0.596947 
-0.0002062828673283468 1:0.000269901 4:0.00362467 5:1 6:0.47643 7:0.906868 
0.0002567129470651253 1:0.000269901 4:0.00273968 5:0.0113636 6:0.373893 
0.0002380844553749035 1:0.000269901 4:0.000479821 5:0.00568182 6:0.343901 
0.0002355442078066515 1:0.000269901 4:0.000421042 5:0.00568182 6:0.340284 
0.0001464947104265315 1:0.000269901 4:0.00323594 5:0.181818 6:0.331951 
0.0001900345880709389 1:0.000269901 4:0.000623432 5:0.00568182 6:0.275218 
0.0002044955398571326 1:0.000487989 2:0.4 3:0.285714 4:0.0186139 5:0.0397727 6:0.600653 7:0.497735 
0.0001868672093984849 1:0.000487989 2:0.4 3:0.285714 4:0.00820298 5:0.0795455 6:0.554128 7:0.00782068 
-8.782244899618663e-06 1:0.000487989 2:0.4 3:0.285714 4:0.0685313 5:0.414773 6:0.488431 
3.486897145533689e-05 1:0.000487989 2:0.4 3:0.285714 4:0.0400651 5:0.215909 6:0.424672 7:0.0267449 
4.189821615636028e-05 1:2.44426e-09 2:0.4 3:0.285714 4:0.000647024 5:0.142045 6:0.390234 
9.120136058689675e-05 1:0.000487989 2:0.4 3:0.285714 4:0.00893477 5:0.00568182 6:0.366781 7:0.00398267 
8.247871567564882e-05 1:2.44426e-09 2:0.4 3:0.285714 4:0.000833905 5:0.0113636 6:0.361567 7:0.0198731 
6.797460229881183e-05 1:2.44426e-09 2:0.4 3:0.285714 4:0.000915967 5:0.0284091 6:0.354888 7:0.0440891 
4.840147609062507e-05 1:2.44426e-09 2:0.4 3:0.285714 4:0.00778221 5:0.0113636 6:0.309357 
-2.264004550539542e-05 1:2.44426e-09 2:0.4 3:0.285714 4:0.000601422 5:0.176136 6:0.321161 
-1.984825450627648e-05 1:2.44426e-09 2:0.4 3:0.285714 4:0.00264494 5:0.0909091 6:0.266897 
-0.0001959986950874708 1:0.000487989 2:0.4 3:0.285714 4:0.00629434 5:0.414773 6:0.234122 
0.0003839378499450193 1:1.01693e-08 4:0.734771 5:0.414773 6:0.731035 7:0.549823 
9.414197415251802e-05 1:0.000423937 2:0.2 3:0.285714 4:0.224927 5:0.414773 6:0.731035 7:0.632241 
-8.268478126543898e-05 1:1.62199e-08 2:0.2 3:0.285714 4:0.0119428 5:0.414773 6:0.515033 7:0.549823 
4.910227152652097e-05 1:0.000423937 2:0.2 3:0.285714 4:0.00230491 5:0.159091 6:0.475169 
1.337700082090491e-05 1:0.000423937 2:0.2 3:0.285714 4:0.00365119 5:0.142045 6:0.425142 7:0.124753 
-0.0001758699232554508 1:0.000423937 2:0.2 3:0.285714 4:0.00220134 5:0.414773 6:0.392421 7:0.632241 
-5.153271088966619e-07 1:1.62199e-08 2:0.2 3:0.285714 4:0.000144333 5:0.0568182 6:0.335384 
1.918812353686039e-06 1:0.000423937 2:0.2 3:0.285714 4:0.00620562 5:0.0340909 6:0.322125 
-6.563714989285698e-05 1:0.000423937 2:0.2 3:0.285714 4:0.0206418 5:0.164773 6:0.311486 7:0.00274461 
0.0001338438823869013 1:0.000446026 2:0.4 3:0.285714 4:6.84731e-05 5:0.0284091 6:0.444895 7:0.00288987 
0.0001825650155479394 1:0.000222185 2:0.4 3:0.428571 4:0.863167 5:0.215909 6:0.731072 7:0.89119 
-4.977967438118945e-05 1:0.000222185 2:0.4 3:0.428571 4:0.033194 5:0.414773 6:0.618125 7:0.00223793 
-1.624934313714196e-05 1:0.000222185 2:0.4 3:0.428571 4:0.00135192 5:0.289773 6:0.588209 7:0.00452223 
0.0001505188347904196 2:0.4 3:0.285714 4:0.000220031 5:0.0284091 6:0.468851 7:0.00412323 
-5.722280078857114e-05 1:0.000222185 2:0.4 3:0.428571 4:0.0016873 5:0.00568182 6:0.336595 7:0.00193792 
-8.84415700217528e-05 1:0.000222185 2:0.4 3:0.428571 4:0.00289059 5:0.0170455 6:0.299245 
-0.0003399994024325352 1:0.000222185 2:0.4 3:0.428571 4:0.000892088 5:0.414773 6:0.210307 7:0.00223793 
0.000373557289664483 1:4.00724e-09 2:0.4 3:0.142857 4:0.208912 5:0.181818 6:0.731019 7:0.626174 
0.0003930692104552977 1:4.00724e-09 2:0.4 3:0.142857 4:0.00693481 5:0.0284091 6:0.634308 7:0.0124824 
0.0001829847985242749 1:4.00724e-09 2:0.4 3:0.142857 4:0.045102 5:0.181818 6:0.493428 7:0.626174 
-0.0001814694749445071 1:4.00724e-09 2:0.4 3:0.142857 4:0.00146229 5:1 6:0.47689 7:0.0431205 
0.0001344184363806848 1:4.38541e-08 3:0.142857 4:0.00893875 5:0.00568182 6:0.375349 7:0.00775653 
0.0001225664885343964 1:4.38541e-08 3:0.142857 4:0.000464224 5:0.00568182 6:0.359816 7:0.00393528 
0.0002607736774814238 1:7.21375e-07 4:0.00893875 5:0.00568182 6:0.375349 7:0.00775653 
0.0002598592407883924 1:7.21375e-07 4:0.000993402 5:0.0113636 6:0.37878 
9.401191007368084e-05 1:4.38541e-08 3:0.142857 4:0.021123 5:0.0113636 6:0.322437 7:0.0421386 
6.500435452966519e-05 1:4.38541e-08 3:0.142857 4:0.000687854 5:0.0852273 6:0.332075 7:0.00960029 
0.0002203671511744197 1:7.21375e-07 4:0.021123 5:0.0113636 6:0.322437 7:0.0421386 
0.0002299016208528898 1:7.21375e-07 4:0.0037156 5:0.00568182 6:0.331546 
0.0002078135724175588 1:7.21375e-07 4:0.00479562 5:0.0113636 6:0.303613 
5.346970096002737e-05 1:4.38541e-08 3:0.142857 4:0.00053434 5:0.0113636 6:0.264526 
5.13694278450337e-05 1:4.38541e-08 3:0.142857 4:0.00052573 5:0.0113636 6:0.261527 
-0.0002595279850440905 1:7.21375e-07 4:0.000825945 5:1 6:0.311889 7:0.0431205 
0.0001141378491420614 1:0.000980124 2:0.4 3:0.285714 4:0.000334577 5:0.00568182 6:0.406922 7:0.0581673 
4.934888897149166e-05 1:0.000980124 2:0.4 3:0.285714 4:0.000406014 5:0.0227273 6:0.319903 
0.0001694335342886177 1:0.000308222 2:0.2 3:0.142857 4:0.462802 5:0.545455 6:0.730934 7:0.967461 
0.0001384232024458693 1:0.000308222 2:0.2 3:0.142857 4:0.464101 5:0.545455 6:0.686352 7:0.967461 
0.0001249983745318797 1:4.53199e-08 3:0.142857 4:0.462802 5:0.545455 6:0.730934 7:0.967461 
0.0002513535771483801 1:4.34617e-08 4:0.462802 5:0.545455 6:0.730934 7:0.967461 
0.0002513535768336992 1:3.79065e-08 4:0.462802 5:0.545455 6:0.730934 7:0.967461 
9.398804268913091e-05 1:4.53199e-08 3:0.142857 4:0.464101 5:0.545455 6:0.686352 7:0.967461 
0.0002203432453056319 1:4.34617e-08 4:0.464101 5:0.545455 6:0.686352 7:0.967461 
0.0002203432449909511 1:3.79065e-08 4:0.464101 5:0.545455 6:0.686352 7:0.967461 
0.0001755369953592586 1:0.000308222 2:0.2 3:0.142857 4:0.000828346 5:0.153409 6:0.471803 7:0.000514791 
0.0002291054998782993 1:0.000308222 2:0.2 3:0.142857 4:0.00117723 5:0.00568182 6:0.448099 7:0.00104006 
0.000149568755109501 1:4.53199e-08 3:0.142857 4:0.00120492 5:0.164773 6:0.506009 7:0.00236693 
4.368454781168334e-05 1:4.53199e-08 3:0.142857 4:0.000463127 5:0.380682 6:0.501115 
0.0001488165507321571 1:0.000308222 2:0.2 3:0.142857 4:0.000921059 5:0.0795455 6:0.383548 7:0.00102906 
0.0002759239577260017 1:4.34617e-08 4:0.00120492 5:0.164773 6:0.506009 7:0.00236693 
0.0002759239574113209 1:3.79065e-08 4:0.00120492 5:0.164773 6:0.506009 7:0.00236693 
0.000257457038219021 1:4.34617e-08 4:0.000828346 5:0.153409 6:0.471803 7:0.000514791 
0.0003110255427380619 1:4.34617e-08 4:0.00117723 5:0.00568182 6:0.448099 7:0.00104006 
0.0001194268011697411 1:3.79065e-08 4:0.000606388 5:0.380682 6:0.42877 
0.0001119222406629035 1:0.000308222 2:0.2 3:0.142857 4:0.000808768 5:0.0170455 6:0.288394 7:0.000423351 
0.0001208888575950901 1:4.53199e-08 3:0.142857 4:0.000520146 5:0.0113636 6:0.360856 
0.0002307365935919197 1:4.34617e-08 4:0.000921059 5:0.0795455 6:0.383548 7:0.00102906 
0.0002307365932772387 1:3.79065e-08 4:0.000921059 5:0.0795455 6:0.383548 7:0.00102906 
6.748708090616528e-05 1:4.53199e-08 3:0.142857 4:0.000808768 5:0.0170455 6:0.288394 7:0.000423351 
0.0001938422832079851 1:3.79065e-08 4:0.000808768 5:0.0170455 6:0.288394 7:0.000423351 
9.802440513010345e-05 1:0.000203283 2:0.4 3:0.428571 4:0.110132 5:0.295455 6:0.826597 7:0.918877 
-0.0001136213759448987 1:0.000203283 2:0.4 3:0.428571 4:0.0214098 5:0.414773 6:0.529176 
-5.35704379364766e-05 1:0.000203283 2:0.4 3:0.428571 4:0.123984 5:0.142045 6:0.408593 7:0.0035687 
0.0001072273169429925 1:1.00132e-08 2:0.2 3:0.285714 4:0.0203943 5:0.164773 6:0.563526 7:0.0509193 
-4.653855328737872e-05 1:0.000203283 2:0.4 3:0.428571 4:0.00650831 5:0.00568182 6:0.350641 
-7.375030280989195e-05 1:0.000203283 2:0.4 3:0.428571 4:0.00480375 5:0.0568182 6:0.346915 7:0.000972891 
-0.0002380556647376969 1:0.000203283 2:0.4 3:0.428571 4:0.0092145 5:0.414773 6:0.35397 
-0.0004740537833751853 1:0.000540289 2:0.4 3:0.714286 4:0.694395 5:1 6:0.731234 7:0.984172 
-0.000540764202076376 1:0.000540289 2:0.4 3:0.714286 4:0.0576188 5:1 6:0.770788 7:0.984172 
-0.0001350302909042239 1:0.000540289 2:0.4 3:0.714286 4:0.00634487 5:0.181818 6:0.704891 7:0.00110803 
-0.0003337377443581608 1:5.81026e-10 3:0.428571 4:0.337576 5:1 6:0.770788 7:0.960884 
-0.0004588573050391938 1:4.15025e-08 2:0.2 3:0.571429 4:0.0576188 5:1 6:0.770788 7:0.984172 
-0.0003738474196595472 1:5.81026e-10 3:0.428571 4:0.253752 5:1 6:0.731234 7:0.960884 
-5.312339386704114e-05 1:4.15025e-08 2:0.2 3:0.571429 4:0.00634487 5:0.181818 6:0.704891 7:0.00110803 
-0.0001900005553738072 1:0.000540289 2:0.4 3:0.714286 4:0.0218994 5:0.00568182 6:0.503477 7:0.000292167 
-0.0007093671812857063 1:0.000540289 2:0.4 3:0.714286 4:0.0100633 5:1 6:0.539964 7:0.984172 
3.342475463162254e-05 1:5.81026e-10 3:0.428571 4:0.0371725 5:0.181818 6:0.704891 7:0.000554564 
-0.0002243942602232855 1:4.15025e-08 2:0.2 3:0.571429 4:0.00116596 5:0.261364 6:0.51527 7:0.00134222 
-0.0006274602842485237 1:4.15025e-08 2:0.2 3:0.571429 4:0.0100633 5:1 6:0.539964 7:0.984172 
-0.0003531415105197978 1:0.000540289 2:0.4 3:0.714286 4:0.00386756 5:0.0113636 6:0.278078 7:0.000480216 
-2.752640378873654e-05 1:5.81026e-10 3:0.428571 4:0.0127395 5:0.00568182 6:0.503477 7:0.000476221 
-0.0002472188047673588 1:4.15025e-08 2:0.2 3:0.571429 4:0.00235317 5:0.0113636 6:0.312712 7:0.000480216 
-0.0001005684445475277 1:5.81026e-10 3:0.428571 4:0.00359989 5:0.0113636 6:0.404945 7:0.000848835 
-0.0002712346134826152 1:4.15025e-08 2:0.2 3:0.571429 4:0.00386756 5:0.0113636 6:0.278078 7:0.000480216 
-0.0001888574423916186 1:5.81026e-10 3:0.428571 4:0.00809134 5:0.0113636 6:0.278078 7:0.00307552 
0.0003044124774688748 1:0.00042948 2:0.2 3:0.142857 4:0.779966 5:0.380682 6:0.745911 7:0.978058 
0.0002634248121623413 1:5.57969e-08 2:0.2 3:0.142857 4:0.000864367 5:0.164773 6:0.605049 
0.0001628843598489835 1:5.57969e-08 2:0.2 3:0.142857 4:0.000578322 5:0.153409 6:0.45375 
0.0002126956883944444 1:5.57969e-08 2:0.2 3:0.142857 4:0.000192712 5:0.0170455 6:0.4325 7:0.000110301 
0.0002146184899249262 1:5.57969e-08 2:0.2 3:0.142857 4:0.000277555 5:0.0113636 6:0.431374 7:0.000105015 
0.0001740350641713681 1:2.95399e-08 2:0.2 3:0.142857 4:6.30236e-05 5:0.0284091 6:0.384988 
0.0001758911525962727 1:0.00042948 2:0.2 3:0.142857 4:0.000823641 5:0.0113636 6:0.375917 7:0.000358818 
0.0001738780420484747 1:2.95399e-08 2:0.2 3:0.142857 4:2.95108e-05 5:0.00568182 6:0.369352 
0.0001104951948343885 1:0.00042948 2:0.2 3:0.142857 4:0.000716358 5:0.142045 6:0.371135 7:0.000107485 
0.0001026652129015269 1:5.57969e-08 2:0.2 3:0.142857 4:0.000256857 5:0.159091 6:0.371708 7:0.000726106 
0.000162987598857354 1:2.95399e-08 2:0.2 3:0.142857 4:1.05145e-05 5:0.00568182 6:0.353796 
2.698450925547504e-05 1:0.00042948 2:0.2 3:0.142857 4:0.000795848 5:0.295455 6:0.355866 
0.0001366412255330333 1:0.00042948 2:0.2 3:0.142857 4:0.00141067 5:0.0340909 6:0.335095 
0.0001489682722613741 1:2.95399e-08 2:0.2 3:0.142857 4:3.17492e-05 5:0.00568182 6:0.333761 
0.0001086053316850514 1:5.57969e-08 2:0.2 3:0.142857 4:0.000421309 5:0.0568182 6:0.310701 
0.0001244329525678055 1:2.95399e-08 2:0.2 3:0.142857 4:4.18531e-05 5:0.0113636 6:0.302558 
-0.0001367947983445987 1:0.00042948 2:0.2 3:0.142857 4:0.000809723 5:0.545455 6:0.291465 
0.0002811649796733732 1:0.00042948 2:0.2 3:0.142857 4:0.777129 5:0.545455 6:0.826474 7:0.991551 
0.0002008704263136775 1:0.00042948 2:0.2 3:0.142857 4:0.191261 5:0.545455 6:0.835837 7:0.991551 
0.0001722261219016473 1:5.57969e-08 2:0.2 3:0.142857 4:0.000265495 5:0.164773 6:0.475023 7:0.00145273 
0.0001852163575875868 1:3.01127e-09 2:0.2 3:0.142857 4:7.64214e-05 5:0.00568182 6:0.385542 
0.0001132954521462855 1:0.00042948 2:0.2 3:0.142857 4:0.000188913 5:0.159091 6:0.386801 
0.0001132711269008719 1:5.57969e-08 2:0.2 3:0.142857 4:0.000188913 5:0.159091 6:0.386801 
0.0001610796664520906 1:2.95399e-08 2:0.2 3:0.142857 4:3.28791e-05 5:0.0284091 6:0.366484 
0.0001708181682258771 1:0.00042948 2:0.2 3:0.142857 4:0.000539014 5:0.00568182 6:0.364855 7:0.000170164 
0.0001707938429804635 1:5.57969e-08 2:0.2 3:0.142857 4:0.000539014 5:0.00568182 6:0.364855 7:0.000170164 
0.000170194461882946 1:2.95399e-08 2:0.2 3:0.142857 4:5.82066e-06 5:0.00568182 6:0.364094 
0.0001572851773906301 1:3.01127e-09 2:0.2 3:0.142857 4:0.000300927 5:0.00568182 6:0.345587 
0.0001424514840005654 1:0.00042948 2:0.2 3:0.142857 4:0.000238833 5:0.0113636 6:0.328226 
0.0001424271587551519 1:5.57969e-08 2:0.2 3:0.142857 4:0.000238833 5:0.0113636 6:0.328226 
0.000119808281083289 1:3.01127e-09 2:0.2 3:0.142857 4:0.000231771 5:0.0511364 6:0.322893 
0.0001339750236484606 1:2.95399e-08 2:0.2 3:0.142857 4:1.11601e-05 5:0.0113636 6:0.316198 
0.0001206066769070522 1:0.00042948 2:0.2 3:0.142857 4:0.000306393 5:0.0170455 6:0.300882 7:0.000261248 
0.0001205823516616385 1:5.57969e-08 2:0.2 3:0.142857 4:0.000306393 5:0.0170455 6:0.300882 7:0.000261248 
9.034406529435403e-05 1:3.01127e-09 2:0.2 3:0.142857 4:0.000124137 5:0.0681818 6:0.292382 
0.0001131030568872516 1:2.95399e-08 2:0.2 3:0.142857 4:1.55863e-05 5:0.00568182 6:0.282521 
0.0001078314652804579 1:3.01127e-09 2:0.2 3:0.142857 4:8.39077e-05 5:0.0170455 6:0.282684 
0.0001090955398227118 1:2.95399e-08 2:0.2 3:0.142857 4:1.15665e-05 5:0.00568182 6:0.276796 
3.882258121559195e-05 1:5.57969e-08 2:0.2 3:0.142857 4:0.000225561 5:0.153409 6:0.276568 
-0.0001048815250804458 1:3.01127e-09 2:0.2 3:0.142857 4:4.40828e-05 5:0.414773 6:0.248601 
0.0003969256161988922 1:0.000644316 2:0.4 3:0.285714 4:0.525633 5:0.00568182 6:0.771991 7:0.758807 
0.000317539434973844 1:0.000644316 2:0.4 3:0.285714 4:0.189991 5:0.0170455 6:0.663 7:0.037754 
0.0001918103192051678 1:0.000644316 2:0.4 3:0.285714 4:0.00381674 5:0.0284091 6:0.526709 7:0.000977458 
0.0001259116670971382 1:0.000644316 2:0.4 3:0.285714 4:0.0305074 5:0.0397727 6:0.446421 7:0.115493 
-9.521009759727893e-06 1:0.000644316 2:0.4 3:0.285714 4:0.00217414 5:0.164773 6:0.331811 
-0.0001505902016198473 1:0.000644316 2:0.4 3:0.285714 4:0.00595437 5:0.414773 6:0.29906 
0.0001030815932087716 1:1.50027e-05 2:0.2 3:0.428571 4:0.563425 5:0.272727 6:0.73095 7:0.38631 
0.0001060346761658011 1:1.50027e-05 2:0.2 3:0.428571 4:0.153441 5:0.176136 6:0.73095 7:0.138825 
0.0001634714381771352 1:3.88094e-08 2:0.4 3:0.285714 4:0.0319044 5:0.272727 6:0.73095 7:0.823965 
0.0001929199016354599 1:5.15134e-08 2:0.4 3:0.285714 4:0.0174521 5:0.272727 6:0.73095 7:0.38631 
0.0002621970610258542 1:0.00163892 2:0.4 3:0.285714 4:0.000487873 5:0.176136 6:0.73095 7:0.0283972 
0.0002621043317782733 1:1.93001e-06 2:0.4 3:0.285714 4:0.000487873 5:0.176136 6:0.73095 7:0.0283972 
0.0002621042232618793 1:1.43226e-08 2:0.4 3:0.285714 4:0.000487873 5:0.176136 6:0.73095 7:0.0283972 
0.0001746011470104945 1:5.15134e-08 2:0.4 3:0.285714 4:0.000209604 5:0.0511364 6:0.519197 7:0.0091339 
0.0001735462207331823 1:3.88094e-08 2:0.4 3:0.285714 4:2.15063e-05 5:0.0511364 6:0.519197 7:0.0233624 
0.0001545649837338267 1:0.00163892 2:0.4 3:0.285714 4:0.000116519 5:0.0113636 6:0.462532 
0.0001544722544862462 1:1.93001e-06 2:0.4 3:0.285714 4:0.000116519 5:0.0113636 6:0.462532 
0.0001544721459698519 1:1.43226e-08 2:0.4 3:0.285714 4:0.000116519 5:0.0113636 6:0.462532 
0.000263126622632253 1:1.13408e-08 2:0.2 3:0.142857 4:0.0446516 5:0.0511364 6:0.519197 7:0.0091339 
0.0002705732909134841 1:1.13408e-08 2:0.2 3:0.142857 4:0.00800844 5:0.0227273 6:0.519197 7:0.0175971 
7.72384867391771e-05 1:0.00163892 2:0.4 3:0.285714 4:0.000129298 5:0.0284091 6:0.363611 
6.728812570098786e-05 1:0.00163892 2:0.4 3:0.285714 4:5.09069e-05 5:0.00568182 6:0.333992 
6.719539645340738e-05 1:1.93001e-06 2:0.4 3:0.285714 4:5.09069e-05 5:0.00568182 6:0.333992 
6.719528793701304e-05 1:1.43226e-08 2:0.4 3:0.285714 4:5.09069e-05 5:0.00568182 6:0.333992 
-6.876246775219221e-05 1:1.50027e-05 2:0.2 3:0.428571 4:0.00144166 5:0.0113636 6:0.387294 
0.0002119382267460659 1:1.41059e-08 2:0.2 3:0.142857 4:1.32121e-05 5:0.00568182 6:0.423735 
0.0001753438597894969 1:1.41059e-08 2:0.2 3:0.142857 4:0.000113224 5:0.0170455 6:0.379138 
0.000334491315532689 1:7.82292e-09 4:0.000101629 5:0.0227273 6:0.493311 
0.0003344913152713314 1:3.20906e-09 4:0.000101629 5:0.0227273 6:0.493311 
-0.0001191827148653296 1:1.50027e-05 2:0.2 3:0.428571 4:0.000157472 5:0.00568182 6:0.311672 
0.0001139577902956839 1:1.13408e-08 2:0.2 3:0.142857 4:0.00399874 5:0.125 6:0.363847 
0.0001390873972750968 1:1.41059e-08 2:0.2 3:0.142857 4:0.000111008 5:0.00568182 6:0.319831 7:0.00198154 
0.0001224346839116365 1:1.13408e-08 2:0.2 3:0.142857 4:0.00278625 5:0.00568182 6:0.295267 
0.0002600403439687628 1:7.82292e-09 4:0.000431183 5:0.0454545 6:0.402286 
-9.265599295894543e-05 1:1.13408e-08 2:0.2 3:0.142857 4:0.00267572 5:0.420455 6:0.269366 
0.0002404845855888226 1:7.82292e-09 4:0.000300861 5:0.00568182 6:0.34739 
0.000240484585327465 1:3.20906e-09 4:0.000300861 5:0.00568182 6:0.34739 
0.0001903872332058878 1:7.82292e-09 4:0.00165969 5:0.113636 6:0.348763 
0.0001452744151562673 1:7.82292e-09 4:0.00232791 5:0.210227 6:0.349695 
5.9788081843424e-05 1:1.13408e-08 2:0.2 3:0.142857 4:0.00261156 5:0.0227273 6:0.21736 
4.391382373609011e-05 1:7.82292e-09 4:0.000350121 5:0.420455 6:0.347916 
4.391382347473249e-05 1:3.20906e-09 4:0.000350121 5:0.420455 6:0.347916 
0.0002008558063797035 1:3.20906e-09 4:3.65341e-07 5:0.0227273 6:0.302397 
0.0002589530473266608 1:0.000198847 2:0.4 3:0.285714 4:0.874276 5:0.420455 6:0.776556 7:0.701704 
0.0003390749490520281 1:0.000198847 2:0.4 3:0.285714 4:0.000701153 5:0.0170455 6:0.731102 7:0.0106542 
-0.0001248653735323728 1:0.000198847 2:0.4 3:0.285714 4:0.00104002 5:0.420455 6:0.413115 7:0.701704 
-0.0001297491134703148 1:0.000198847 2:0.4 3:0.285714 4:0.00125825 5:0.420455 6:0.406091 7:0.701704 
7.279424938654986e-05 1:0.000198847 2:0.4 3:0.285714 4:0.000640817 5:0.00568182 6:0.341952 7:0.000982845 
3.874134476894514e-05 1:0.000198847 2:0.4 3:0.285714 4:0.000705044 5:0.00568182 6:0.293183 
0.0002335103418961802 1:6.05011e-09 4:0.00197866 5:0.00568182 6:0.33707 
0.0003879283306179927 1:6.79743e-05 4:0.840752 5:0.420455 6:0.730988 7:0.674409 
0.0003847447159159313 1:8.19998e-09 2:0.2 4:0.000750014 5:0.0113636 6:0.510214 7:0.159134 
0.0002604327968962354 1:8.19998e-09 2:0.2 4:0.0062951 5:0.176136 6:0.428177 7:0.0133587 
0.0003389944975059891 1:6.79743e-05 4:0.00360281 5:0.0227273 6:0.498998 
0.0001000905718599793 1:6.79743e-05 4:0.0159962 5:0.420455 6:0.494414 7:0.674409 
0.0001701964637142209 1:1.81945e-09 4:9.75569e-05 5:0.272727 6:0.428177 
0.0002350261481837986 1:6.79743e-05 4:0.000157705 5:0.0227273 6:0.35118 
0.0002361966637107245 1:1.81945e-09 4:0.000249741 5:0.0113636 6:0.345129 
0.0002220961841706589 1:1.81945e-09 4:6.97967e-05 5:0.00568182 6:0.321166 
0.0004624383553754373 1:0.000237211 2:0.2 3:0.142857 4:0.921084 5:0.380682 6:0.94354 7:0.994718 
0.0001774254767520221 1:0.000237211 2:0.2 3:0.142857 4:0.000959933 5:0.380682 6:0.731201 7:0.994718 
0.0001939784388107369 1:0.000237211 2:0.2 3:0.142857 4:0.00385528 5:0.0113636 6:0.401123 7:0.000260139 
0.0001696167456835255 1:0.000237211 2:0.2 3:0.142857 4:0.00186313 5:0.00568182 6:0.362856 
0.0001501345271910287 1:0.000237211 2:0.2 3:0.142857 4:0.00162577 5:0.0113636 6:0.338952 7:0.000260139 
0.0001234477517105741 1:1.09264e-08 2:0.2 3:0.142857 4:5.55077e-05 5:0.0568182 6:0.331985 
0.0001255742895637775 1:0.000237211 2:0.2 3:0.142857 4:0.00142545 5:0.0284091 6:0.315662 7:0.0021471 
0.0001191473321035834 1:0.0016591 2:0.6 3:0.714286 4:0.874744 5:0.00568182 6:0.731046 7:0.291669 
-0.000199707210392052 1:0.0016591 2:0.6 3:0.714286 4:0.00175195 5:0.0227273 6:0.447619 7:0.0558806 
-0.0002276607247051585 1:0.0016591 2:0.6 3:0.714286 4:0.000409352 5:0.0227273 6:0.407964 7:0.0558806 
-0.0002634842462703741 1:0.0016591 2:0.6 3:0.714286 4:0.000237719 5:0.0113636 6:0.343344 
-0.0004525441370621954 1:0.0016591 2:0.6 3:0.714286 4:0.00457268 5:0.420455 6:0.349839 
0.0001577199121499814 1:1.22513e-06 2:0.2 3:0.285714 4:0.047102 5:0.0454545 6:0.547451 7:0.0352857 
-0.0003205009307810162 1:0.0016591 2:0.6 3:0.714286 4:0.000144433 5:0.0227273 6:0.269609 
2.800180113233337e-05 1:1.22513e-06 2:0.2 3:0.285714 4:0.0212546 5:0.0454545 6:0.363948 
-0.000162211878659445 1:1.22513e-06 2:0.2 3:0.285714 4:0.0182769 5:0.420455 6:0.349839 7:0.0254412 
-1.550223534840334e-06 1:1.22513e-06 2:0.2 3:0.285714 4:0.00282651 5:0.00568182 6:0.298645 
-2.171232883592517e-05 1:1.22513e-06 2:0.2 3:0.285714 4:0.00212257 5:0.0227273 6:0.281551 
0.0002142278007065456 1:0.00156904 2:0.4 3:0.285714 4:0.631531 5:0.420455 6:0.731047 7:0.382611 
0.0002388521423576548 1:0.00156904 2:0.4 3:0.285714 4:0.00137882 5:0.125 6:0.664187 7:0.0426185 
-3.201410544860923e-05 1:0.00156904 2:0.4 3:0.285714 4:0.00192386 5:0.420455 6:0.512572 7:0.382611 
0.0001543647882666195 1:0.00156904 2:0.4 3:0.285714 4:0.00605629 5:0.0227273 6:0.468703 
0.0001044628075204913 1:0.00156904 2:0.4 3:0.285714 4:0.00111331 5:0.00568182 6:0.386887 
6.796670648711326e-05 1:0.00156904 2:0.4 3:0.285714 4:0.000972875 5:0.0227273 6:0.346336 
0.0002600928979902657 1:0.000203784 2:0.4 3:0.285714 4:0.422727 5:0.272727 6:0.731151 7:0.290112 
0.0002082353279887338 1:3.34368e-05 2:0.2 3:0.285714 4:0.114231 5:0.176136 6:0.731151 7:0.394898 
0.0001434659204380765 1:0.000203784 2:0.4 3:0.285714 4:0.000527974 5:0.0284091 6:0.458267 
9.557674056112098e-05 1:0.000203784 2:0.4 3:0.285714 4:0.000407474 5:0.0511364 6:0.405804 7:0.00500051 
0.0001206629447889975 1:3.34368e-05 2:0.2 3:0.285714 4:0.00297058 5:0.0113636 6:0.477082 
2.3470683409068e-05 1:3.34368e-05 2:0.2 3:0.285714 4:0.000407747 5:0.00568182 6:0.334904 
0.0002426896287616027 1:0.000184215 2:0.4 3:0.428571 4:0.0178211 5:0.0170455 6:0.826574 7:0.556328 
-7.375421250952179e-05 1:0.000184215 2:0.4 3:0.428571 4:0.0290215 5:0.414773 6:0.586928 7:0.0232836 
-7.264384795314362e-05 1:0.000184215 2:0.4 3:0.428571 4:0.0244722 5:0.414773 6:0.589478 7:0.0232836 
5.25905551764266e-05 1:7.45968e-10 2:0.4 3:0.285714 4:0.0290215 5:0.414773 6:0.586928 7:0.0232836 
5.370091973280451e-05 1:7.45968e-10 2:0.4 3:0.285714 4:0.0244722 5:0.414773 6:0.589478 7:0.0232836 
-2.143856690092411e-06 1:0.000184215 2:0.4 3:0.428571 4:0.00641502 5:0.164773 6:0.523618 7:0.0154574 
0.0001242009109958559 1:7.45968e-10 2:0.4 3:0.285714 4:0.00641502 5:0.164773 6:0.523618 7:0.0154574 
-5.202054640113467e-06 1:0.000184215 2:0.4 3:0.428571 4:0.0132315 5:0.0284091 6:0.423698 
-6.96985783002578e-05 1:0.000184215 2:0.4 3:0.428571 4:0.0152171 5:0.164773 6:0.42671 7:0.0297784 
0.0001217010280923581 1:7.45968e-10 2:0.4 3:0.285714 4:0.00113964 5:0.00568182 6:0.411638 
5.247429895595647e-05 1:7.45968e-10 2:0.4 3:0.285714 4:0.0101047 5:0.0170455 6:0.318539 
1.491789497806732e-05 1:7.45968e-10 2:0.4 3:0.285714 4:0.00105291 5:0.00568182 6:0.259087 
0.0003853343244820846 1:5.93072e-09 4:0.609685 5:0.414773 6:0.731051 7:0.273747 
0.000282657774338463 1:9.25691e-08 2:0.2 3:0.142857 4:0.00069864 5:0.0113636 6:0.528487 
0.0003645952692365484 1:2.5011e-09 4:0.00069864 5:0.0113636 6:0.528487 
0.0001757329192271643 1:9.25691e-08 2:0.2 3:0.142857 4:0.000573434 5:0.00568182 6:0.371887 
0.0001637373941821932 1:9.25691e-08 2:0.2 3:0.142857 4:0.000602047 5:0.00568182 6:0.354742 
0.0001167345633045893 1:9.25691e-08 2:0.2 3:0.142857 4:0.00124014 5:0.0284091 6:0.302869 
9.21402690795398e-05 1:9.25691e-08 2:0.2 3:0.142857 4:0.000291033 5:0.0511364 6:0.283349 
1.657809444902934e-05 1:5.93072e-09 4:0.00247066 5:0.545455 6:0.401431 7:0.0796815 
0.0002576704141252494 1:2.5011e-09 4:0.000573434 5:0.00568182 6:0.371887 
0.0002342100972839149 1:2.5011e-09 4:0.000246907 5:0.0340909 6:0.35771 
7.819384717298858e-05 1:9.25691e-08 2:0.2 3:0.142857 4:0.00112745 5:0.00568182 6:0.232408 
0.0002428706026270895 1:5.93072e-09 4:0.000602624 5:0.00568182 6:0.352546 7:0.0175583 
0.0001636850039355928 1:5.93072e-09 4:0.00103385 5:0.176136 6:0.354584 7:0.0139477 
0.0002315776747203474 1:5.93072e-09 4:0.000287067 5:0.0227273 6:0.346231 
0.0002264066316577618 1:5.93072e-09 4:0.000246936 5:0.0227273 6:0.340172 7:0.0128066 
0.0002225323934328988 1:2.5011e-09 4:0.000127616 5:0.00568182 6:0.321777 
0.0002119578361572765 1:2.5011e-09 4:0.000151486 5:0.0284091 6:0.322082 
0.0001280768872504079 1:8.09871e-08 4:0.00113905 5:0.164773 6:0.314557 7:0.194108 
0.000452279698736237 1:8.22687e-08 2:0.2 3:0.142857 4:0.327002 5:0.00568182 6:0.752113 7:0.52592 
0.0004138640024789725 1:8.22687e-08 2:0.2 3:0.142857 4:0.352159 5:0.0397727 6:0.692428 7:0.306809 
0.0002333078423723743 1:8.22687e-08 2:0.2 3:0.142857 4:0.00440713 5:0.0170455 6:0.461233 7:0.00181125 
4.03204758696332e-05 1:8.22687e-08 2:0.2 3:0.142857 4:0.00705729 5:0.414773 6:0.454577 
0.0001081582921925235 1:8.22687e-08 2:0.2 3:0.142857 4:0.00374653 5:0.164773 6:0.382828 7:0.00223787 
-0.0001190877405436869 1:8.22687e-08 2:0.2 3:0.142857 4:0.00228899 5:0.414773 6:0.227828 
0.0004558613335465192 1:0.000168796 2:0.2 3:0.142857 4:0.831265 5:0.164773 6:0.731008 7:0.260844 
5.345981956370845e-05 1:0.000168796 2:0.2 3:0.142857 4:1.28636e-06 5:0.414773 6:0.474831 
0.0002104734967866108 1:0.000168796 2:0.2 3:0.142857 4:0.000735528 5:0.00568182 6:0.423954 7:0.0240315 
2.587213839596572e-05 1:0.000168796 2:0.2 3:0.142857 4:0.000904662 5:0.414773 6:0.435223 
0.0001185471747047135 1:0.000168796 2:0.2 3:0.142857 4:0.000205366 5:0.00568182 6:0.292724 7:0.0240315 
-5.246886028534823e-05 1:0.000318846 2:0.2 3:0.285714 4:0.710173 5:1 6:0.82644 7:0.735146 
6.958060542802786e-05 1:0.000318846 2:0.2 3:0.285714 4:0.00776725 5:0.00568182 6:0.399203 
5.272312825128987e-05 1:0.000318846 2:0.2 3:0.285714 4:0.00419033 5:0.0113636 6:0.380897 7:0.0113189 
-0.0004581067780866376 1:0.000318846 2:0.2 3:0.285714 4:0.0271591 5:1 6:0.391535 7:0.735146 
3.398544092938252e-05 1:0.000318846 2:0.2 3:0.285714 4:0.00154634 5:0.00568182 6:0.349663 
1.146412723463588e-05 1:0.000318846 2:0.2 3:0.285714 4:0.00271588 5:0.0113636 6:0.321092 
-0.000146880307615028 1:4.51913e-06 2:0.2 3:0.428571 4:1.65034e-05 5:0.00568182 6:0.272129 
0.0001346900496372638 1:8.53716e-08 3:0.142857 4:0.000898327 5:0.0113636 6:0.380897 7:0.00390048 
6.141214395130175e-05 1:8.53716e-08 3:0.142857 4:1.65034e-05 5:0.00568182 6:0.272129 
0.0002985804886649065 1:0.000139987 2:0.4 3:0.285714 4:0.00495945 5:0.0511364 6:0.731117 7:0.356246 
0.0002225538403065211 1:0.000139987 2:0.4 3:0.285714 4:0.00192348 5:0.0284091 6:0.572541 7:0.015178 
0.0001011544578716487 1:0.000273883 2:0.4 3:0.285714 4:4.77404e-05 5:0.164773 6:0.490422 
0.0001582784073425738 1:0.000139987 2:0.4 3:0.285714 4:0.00428508 5:0.00568182 6:0.464803 7:0.0153355 
0.0001150878128240543 1:0.000273883 2:0.4 3:0.285714 4:0.000249898 5:0.0340909 6:0.425414 7:0.0367016 
0.0001106322738433489 1:0.000139987 2:0.4 3:0.285714 4:0.00114351 5:0.0284091 6:0.411402 7:0.00166962 
0.0001139864612220593 1:0.000273883 2:0.4 3:0.285714 4:2.26905e-05 5:0.00568182 6:0.40083 
-3.495292811612675e-05 1:0.000139987 2:0.4 3:0.285714 4:0.00113694 5:0.244318 6:0.349842 7:0.00137466 
4.195090500208901e-05 1:0.000273883 2:0.4 3:0.285714 4:0.000553291 5:0.0568182 6:0.332487 
-3.004844852312114e-05 1:0.000139987 2:0.4 3:0.285714 4:0.000991928 5:0.176136 6:0.310482 
0.0004092304591763645 1:0.000341289 2:0.2 4:0.327206 5:0.295455 6:0.749588 7:0.94284 
0.0001330317340991449 1:1.09941e-08 2:0.2 3:0.142857 4:0.00444062 5:0.414773 6:0.587595 
1.138639609452641e-05 1:1.09941e-08 2:0.2 3:0.142857 4:6.42067e-06 5:0.414773 6:0.41473 
0.0001691352115150643 1:1.09941e-08 2:0.2 3:0.142857 4:0.00188155 5:0.0113636 6:0.366161 7:0.00119312 
1.565729423095835e-05 1:4.76876e-10 2:0.2 3:0.285714 4:0.000960674 5:0.00568182 6:0.323626 
1.385876248422519e-05 1:4.76876e-10 2:0.2 3:0.285714 4:0.000423833 5:0.00568182 6:0.32117 
0.0003000686924164602 1:0.000341289 2:0.2 4:0.0253945 5:0.00568182 6:0.363717 
-1.283757666053447e-06 1:4.76876e-10 2:0.2 3:0.285714 4:0.0049208 5:0.0284091 6:0.314001 
0.0001301023941891404 1:1.09941e-08 2:0.2 3:0.142857 4:0.0125863 5:0.0568182 6:0.338839 
5.221942177868069e-06 1:4.76876e-10 2:0.2 3:0.285714 4:0.00205228 5:0.00568182 6:0.308485 
7.323994174230338e-05 1:1.09941e-08 2:0.2 3:0.142857 4:0.00468533 5:0.159091 6:0.328653 
0.0002714747576137365 1:0.000341289 2:0.2 4:0.0130103 5:0.0340909 6:0.344759 
0.0002564769290099953 1:0.000341289 2:0.2 4:0.0125863 5:0.0568182 6:0.338839 
0.0001294497871334946 1:4.33998e-09 2:0.2 3:0.142857 4:0.000540842 5:0.0170455 6:0.313475 
-2.320663881925208e-05 1:4.76876e-10 2:0.2 3:0.285714 4:0.00652131 5:0.0113636 6:0.270775 
0.0001166151832480514 1:4.33998e-09 2:0.2 3:0.142857 4:0.00109585 5:0.0284091 6:0.302729 
0.0002712532977392766 1:0.000341289 2:0.2 4:0.0059373 5:0.00568182 6:0.326739 7:0.000696064 
4.658959647415385e-05 1:1.09941e-08 2:0.2 3:0.142857 4:0.00079639 5:0.176136 6:0.302963 
0.000118051977383243 1:1.53567e-07 2:0.2 3:0.142857 4:0.00240728 5:0.0113636 6:0.29294 
3.103412798452504e-05 1:1.53567e-07 2:0.2 3:0.142857 4:0.000738224 5:0.176136 6:0.28075 
0.0001768063838009447 1:0.000341289 2:0.2 4:0.0274147 5:0.142045 6:0.279755 7:0.000661043 
0.0002674572194860602 1:0.000354005 2:0.4 3:0.428571 4:0.91421 5:0.0738636 6:0.731057 7:0.754293 
0.0001197045354358181 1:0.000354005 2:0.4 3:0.428571 4:0.000477281 5:0.125 6:0.670379 
0.0003228140540226748 1:5.81026e-10 3:0.142857 4:0.288822 5:0.125 6:0.670379 7:0.0483358 
0.0003454858709594361 1:5.81026e-10 3:0.142857 4:0.00967229 5:0.0738636 6:0.731057 7:0.0857021 
3.681889350498382e-05 1:0.000354005 2:0.4 3:0.428571 4:0.00406215 5:0.0113636 6:0.477158 7:0.0296433 
0.0004120842426790271 1:2.63158e-08 4:0.0326999 5:0.125 6:0.670379 7:0.0361177 
-2.553005480681498e-05 1:0.000354005 2:0.4 3:0.428571 4:0.00256755 5:0.0227273 6:0.393044 
-0.0002076127295731607 1:0.000354005 2:0.4 3:0.428571 4:0.00135699 5:0.420455 6:0.403321 7:0.00337421 
-3.438543129437846e-05 1:0.000354005 2:0.4 3:0.428571 4:0.000691051 5:0.00568182 6:0.369225 
0.0002126950078757714 1:2.63158e-08 4:0.00202386 5:0.420455 6:0.589817 7:0.0107114 
0.0001974181150030623 1:5.81026e-10 3:0.142857 4:0.0420476 5:0.0113636 6:0.477158 7:0.152757 
0.0003363791385229858 1:6.80847e-09 4:0.00402032 5:0.0454545 6:0.510597 
0.0001429657735133359 1:3.18159e-08 4:0.011719 5:0.420455 6:0.488136 7:0.0107114 
0.0001429657720967603 1:6.80847e-09 4:0.011719 5:0.420455 6:0.488136 7:0.0107114 
0.0001474826257770497 1:5.81026e-10 3:0.142857 4:0.0187305 5:0.00568182 6:0.391141 
0.0001255279282567183 1:5.81026e-10 3:0.142857 4:0.00709535 5:0.0227273 6:0.373801 
0.0002720700305279692 1:2.63158e-08 4:0.00680506 5:0.00568182 6:0.391141 
0.0002501459341737949 1:6.80847e-09 4:0.000740478 5:0.0454545 6:0.389323 7:0.0120178 
8.28620937366088e-05 1:2.63158e-08 4:0.00671518 5:0.420455 6:0.403321 7:0.0107114 
0.0001015700565462938 1:5.81026e-10 3:0.142857 4:0.0315078 5:0.0227273 6:0.3344 
0.0002512583981212149 1:2.63158e-08 4:0.00288094 5:0.0227273 6:0.373801 
0.0002487382965795225 1:3.18159e-08 4:0.00130237 5:0.0170455 6:0.36668 
0.0002487382951629468 1:6.80847e-09 4:0.00130237 5:0.0170455 6:0.36668 
0.0002320111758337337 1:6.80847e-09 4:0.000124138 5:0.0454545 6:0.363543 7:0.0120178 
0.0002435771701413589 1:2.30992e-08 4:0.00106392 5:0.00568182 6:0.351647 
0.0002311718309379373 1:2.30992e-08 4:0.00123047 5:0.0284091 6:0.349306 
0.0002400085927576381 1:2.30992e-08 4:0.000597892 5:0.00568182 6:0.346647 
0.0002362906860768493 1:2.30992e-08 4:0.00155917 5:0.0113636 6:0.344986 
0.0002246329480487489 1:2.63158e-08 4:0.00929811 5:0.0227273 6:0.3344 
0.0002128923460646418 1:2.30992e-08 4:0.000904357 5:0.00568182 6:0.307839 
0.0002001794413501053 1:2.30992e-08 4:0.000612376 5:0.0227273 6:0.301301 
0.0003333511211324923 1:1.20398e-07 4:0.187921 5:0.420455 6:0.731249 7:0.0922961 
0.0004627626079236388 1:1.20398e-07 4:0.0956741 5:0.0113636 6:0.656936 7:0.0805314 
0.0001786459738639503 1:1.20398e-07 4:0.565635 5:0.210227 6:0.349845 7:0.695973 
8.436181054001534e-05 1:1.47636e-08 2:0.2 3:0.142857 4:0.00373052 5:0.272727 6:0.423637 7:0.0174303 
0.0003461373487221826 1:1.20398e-07 4:0.02665 5:0.0227273 6:0.506479 7:0.0208599 
0.0001383666799068838 1:1.47636e-08 2:0.2 3:0.142857 4:0.000729022 5:0.00568182 6:0.318466 
0.000235344756421098 1:1.20398e-07 4:0.000889024 5:0.0113636 6:0.344042 7:0.00257529 
9.500933223540825e-05 1:1.20398e-07 4:0.0014286 5:0.210227 6:0.349845 7:0.695973 
0.0002184841541049217 1:1.20398e-07 4:7.07507e-05 5:0.00568182 6:0.316005 
0.000177646523697683 1:1.20398e-07 4:0.000726417 5:0.0454545 6:0.284501 
-9.232764713661384e-05 1:0.000179894 2:0.4 3:0.285714 4:0.550227 5:1 6:0.731034 7:0.649031 
0.0001724824899024086 1:0.000179894 2:0.4 3:0.285714 4:0.362807 5:0.181818 6:0.556674 7:0.287017 
0.0001881776947283397 1:0.000179894 2:0.4 3:0.285714 4:0.00337679 5:0.00568182 6:0.50613 
6.397343379933112e-05 1:0.000179894 2:0.4 3:0.285714 4:0.000418179 5:0.0113636 6:0.333151 
6.069988298820319e-05 1:0.000179894 2:0.4 3:0.285714 4:0.00430311 5:0.0113636 6:0.327651 
6.008061578267194e-05 1:0.000179894 2:0.4 3:0.285714 4:0.00235704 5:0.0113636 6:0.327861 7:0.00661889 
0.0003490677340979244 1:0.000370212 2:0.2 4:0.010192 5:0.210227 6:0.580059 7:0.042152 
0.0001924869459902457 1:2.10901e-08 2:0.2 3:0.142857 4:0.000459114 5:0.00568182 6:0.395849 
0.0003301200629633706 1:0.000370212 2:0.2 4:0.00823837 5:0.0113636 6:0.414794 7:0.00634433 
0.0001508909749274946 1:2.10901e-08 2:0.2 3:0.142857 4:0.000610208 5:0.0170455 6:0.344095 
0.0002735783896922066 1:0.000370212 2:0.2 4:0.0374058 5:0.0227273 6:0.334886 
0.0002747655338394239 1:0.000370212 2:0.2 4:0.00233991 5:0.00568182 6:0.332445 
0.0002265166543481135 1:0.000370212 2:0.2 4:0.00299551 5:0.113636 6:0.336608 
0.0002601414489385063 1:0.000370212 2:0.2 4:0.00711063 5:0.00568182 6:0.31054 
0.0001401316204796559 1:3.42014e-06 2:0.4 3:0.285714 4:0.00092431 5:0.0795455 6:0.494124 7:0.0581439 
6.181323714431346e-06 1:3.42014e-06 2:0.4 3:0.285714 4:0.0166405 5:0.176136 6:0.358943 
6.485392401819589e-05 1:3.42014e-06 2:0.4 3:0.285714 4:0.00315336 5:0.0113636 6:0.333844 
4.882665951014013e-05 1:3.42014e-06 2:0.4 3:0.285714 4:0.00067431 5:0.00568182 6:0.307615 
3.993481906037109e-05 1:3.42014e-06 2:0.4 3:0.285714 4:0.00349867 5:0.0113636 6:0.298167 
3.409809645846526e-05 1:0.000214332 2:0.4 3:0.142857 4:0.550227 5:1 6:0.731132 7:0.649031 
0.0003678097802997218 1:0.000214332 2:0.4 3:0.142857 4:0.362807 5:0.181818 6:0.655217 7:0.287017 
0.0003145348482316248 1:0.000214332 2:0.4 3:0.142857 4:0.00337679 5:0.00568182 6:0.50613 
0.0002239731063392286 1:0.000214332 2:0.4 3:0.142857 4:0.000157007 5:0.0113636 6:0.381274 
0.0002123837415290566 1:0.000214332 2:0.4 3:0.142857 4:0.000588421 5:0.0113636 6:0.364624 
0.0001888426218921074 1:0.000214332 2:0.4 3:0.142857 4:0.00235704 5:0.0113636 6:0.331297 7:0.00661889 
0.0001376985714266301 1:0.000311679 2:0.4 3:0.285714 4:0.410423 5:0.545455 6:0.814431 7:0.974008 
9.231702683734866e-05 1:0.000311679 2:0.4 3:0.285714 4:0.320011 5:0.545455 6:0.76874 7:0.974008 
3.048795827137886e-05 1:0.000311679 2:0.4 3:0.285714 4:0.00974895 5:0.164773 6:0.387663 7:0.00257425 
-0.0001076041095793793 1:0.000311679 2:0.4 3:0.285714 4:0.00311911 5:0.414773 6:0.361105 
-0.0001123789276774055 1:0.000311679 2:0.4 3:0.285714 4:0.00146587 5:0.414773 6:0.354633 
4.693042437027893e-05 1:1.94089e-08 2:0.4 3:0.285714 4:5.09661e-05 5:0.00568182 6:0.305038 
2.875465555439011e-05 1:1.94089e-08 2:0.4 3:0.285714 4:0.000275771 5:0.0284091 6:0.29444 
2.174984775027781e-05 1:1.94089e-08 2:0.4 3:0.285714 4:8.66193e-05 5:0.00568182 6:0.269053 
1.058810767800173e-05 1:1.94089e-08 2:0.4 3:0.285714 4:5.83546e-05 5:0.0113636 6:0.256966 
1.613603342671308e-06 1:0.000311679 2:0.4 3:0.285714 4:0.00508678 5:0.0170455 6:0.246965 7:0.00055336 
0.0002835285364312617 1:0.000981731 3:0.285714 4:0.405204 5:0.0113636 6:0.730974 7:0.416936 
5.642184637175038e-05 1:0.000981731 3:0.285714 4:0.136005 5:0.0113636 6:0.463505 7:0.416936 
0.000100043741801851 1:0.000981731 3:0.285714 4:0.00327656 5:0.0454545 6:0.536123 7:0.0198937 
0.0002263433353772822 1:3.84028e-08 3:0.142857 4:0.00327656 5:0.0454545 6:0.536123 7:0.0198937 
2.706886169726367e-05 1:0.000981731 3:0.285714 4:0.00207572 5:0.00568182 6:0.403078 
-0.0004467137198842508 1:0.000981731 3:0.285714 4:0.00658833 5:1 6:0.403423 7:0.035496 
-0.0003204141263088196 1:3.84028e-08 3:0.142857 4:0.00658833 5:1 6:0.403423 7:0.035496 
-3.882940786487048e-05 1:0.000981731 3:0.285714 4:0.00575889 5:0.0227273 6:0.319708 
2.419722921491532e-05 1:3.84028e-08 3:0.142857 4:0.00111043 5:0.181818 6:0.355909 7:0.171512 
8.747018571056078e-05 1:3.84028e-08 3:0.142857 4:0.00575889 5:0.0227273 6:0.319708 
7.854333609564872e-05 1:3.84028e-08 3:0.142857 4:0.00150221 5:0.00568182 6:0.296291 
2.357770586576266e-05 1:3.84028e-08 3:0.142857 4:0.00178072 5:0.0113636 6:0.221553 
0.0004766654619085658 1:0.000559223 2:0.2 3:0.142857 4:0.615388 5:0.0113636 6:0.751816 7:0.740514 
0.0004236154554404761 1:0.000559223 2:0.2 3:0.142857 4:0.0161319 5:0.0454545 6:0.751816 7:0.0205337 
0.0002234237780268811 1:0.000559223 2:0.2 3:0.142857 4:0.00255789 5:0.00568182 6:0.439828 7:0.00258812 
2.60178805151635e-05 1:0.000559223 2:0.2 3:0.142857 4:0.0060096 5:0.289773 6:0.34977 7:0.00246939 
0.0001321923219644554 1:0.000559223 2:0.2 3:0.142857 4:0.00188438 5:0.0284091 6:0.324773 
-0.0001238603073663418 1:0.000559223 2:0.2 3:0.142857 4:0.0013013 5:0.414773 6:0.221173 
0.0002922054610042491 1:0.000821411 2:0.4 3:0.285714 4:0.44125 5:0.00568182 6:0.632491 7:0.683796 
0.0002703328731291163 1:0.000821411 2:0.4 3:0.285714 4:0.0298483 5:0.0397727 6:0.648694 7:0.0747872 
0.000231754287782042 1:0.000821411 2:0.4 3:0.285714 4:0.033451 5:0.00568182 6:0.632491 7:0.683796 
0.0002290639371492731 1:0.000821411 2:0.4 3:0.285714 4:0.0153021 5:0.00568182 6:0.632491 7:0.683796 
0.0001223682716586877 1:0.000821411 2:0.4 3:0.285714 4:0.00597342 5:0.0284091 6:0.427189 7:0.00261003 
7.255661494037614e-05 1:0.000821411 2:0.4 3:0.285714 4:0.0242398 5:0.0170455 6:0.349783 7:0.054407 
0.0003169859190245046 1:0.000534091 2:0.4 3:0.285714 4:0.834107 5:0.176136 6:0.731116 7:0.982076 
6.93412283044767e-05 1:0.000534091 2:0.4 3:0.285714 4:0.0810323 5:0.176136 6:0.536787 7:0.982076 
1.899244280175003e-07 1:0.000534091 2:0.4 3:0.285714 4:0.00759064 5:0.176136 6:0.45354 7:0.982076 
0.0001000464087996725 1:0.000534091 2:0.4 3:0.285714 4:0.00159685 5:0.0795455 6:0.43071 7:0.00039519 
4.003225237022832e-05 1:0.000534091 2:0.4 3:0.285714 4:0.000849871 5:0.164773 6:0.402901 
-5.410937703845294e-05 1:0.000534091 2:0.4 3:0.285714 4:0.0140466 5:0.176136 6:0.374591 7:0.982076 
0.0002270030197432224 1:0.00099498 2:0.4 3:0.428571 4:0.450047 5:0.0397727 6:0.731074 7:0.58643 
-0.0001912236111151732 1:0.00099498 2:0.4 3:0.428571 4:0.0253073 5:0.414773 6:0.420665 7:0.0315606 
-6.965222573862604e-05 1:0.00099498 2:0.4 3:0.428571 4:0.077977 5:0.0795455 6:0.355 7:0.0239829 
-0.0001142648867497371 1:0.00099498 2:0.4 3:0.428571 4:0.00333112 5:0.164773 6:0.363086 7:0.00650278 
-5.768637941573768e-05 1:0.00099498 2:0.4 3:0.428571 4:0.00140177 5:0.0284091 6:0.352959 7:0.0175458 
-5.760546190778962e-05 1:0.00099498 2:0.4 3:0.428571 4:0.00127774 5:0.0170455 6:0.343582 
0.0002467636764757449 1:3.11243e-08 2:0.2 3:0.142857 4:0.000708689 5:0.0170455 6:0.484325 7:0.0317076 
0.000218438268483065 1:6.46708e-12 2:0.2 3:0.285714 4:0.0917753 5:0.181818 6:0.731022 7:0.168777 
-0.0001304049059350084 1:1.14856e-08 4:0.00116621 5:1 6:0.526571 7:0.336587 
-0.0001898420877607631 1:1.14856e-08 4:0.00168309 5:1 6:0.441539 7:0.336587 
0.0002540050967362632 1:3.20546e-09 4:0.00103489 5:0.0113636 6:0.370407 
0.0002433459595841251 1:1.14856e-08 4:0.00231382 5:0.0227273 6:0.362616 
0.0002105377426355394 1:1.14856e-08 4:0.00967899 5:0.0113636 6:0.306471 
0.000201173622384297 1:1.14856e-08 4:0.000682891 5:0.00568182 6:0.291847 7:0.00683148 
-0.0002805245309648472 1:1.14856e-08 4:0.000488271 5:1 6:0.312227 7:0.336587 
0.0002174184755325853 1:0.000265054 2:0.2 3:0.142857 4:0.081552 5:0.0113636 6:0.419819 7:0.016392 
0.0002008730660736752 1:0.000265054 2:0.2 3:0.142857 4:0.000654827 5:0.00568182 6:0.407768 
0.0001821482502517257 1:0.000265054 2:0.2 3:0.142857 4:0.000618939 5:0.00568182 6:0.381022 
7.831646819879085e-05 1:0.000265054 2:0.2 3:0.142857 4:0.000461221 5:0.0795455 6:0.314921 7:0.311321 
0.0001101730252473236 1:0.000265054 2:0.2 3:0.142857 4:0.00269861 5:0.0227273 6:0.289309 
0.0002659027397727485 1:8.25577e-07 4:0.00059278 5:0.00568182 6:0.383645 
9.29117248923876e-05 1:0.000265054 2:0.2 3:0.142857 4:0.000692094 5:0.0113636 6:0.257362 
0.0001996318626342791 1:8.25577e-07 4:0.000677589 5:0.0795455 6:0.375442 7:0.352852 
0.0002187270291161395 1:8.25577e-07 4:0.000956579 5:0.0113636 6:0.320019 
0.0001378094828970109 1:8.25577e-07 4:0.00351785 5:0.176136 6:0.315649 
0.0001852070804722117 1:8.25577e-07 4:0.000382646 5:0.0113636 6:0.272248 
-0.0001452574668805416 1:0.000474403 2:0.4 3:0.571429 4:1.34429e-05 5:0.0284091 6:0.407123 7:0.00215462 
-0.0002163111251851042 1:0.000474403 2:0.4 3:0.571429 4:1.39664e-05 5:0.0284091 6:0.305603 7:0.00215462 
7.195913246296434e-05 1:8.90241e-05 3:0.142857 4:0.00035236 5:0.0284091 6:0.303762 7:0.0118613 
-0.0001293837346406435 1:0.000812909 2:0.4 3:0.285714 4:0.120384 5:1 6:0.73098 7:0.279621 
-0.0003522441643647579 1:0.000812909 2:0.4 3:0.285714 4:0.0010866 5:1 6:0.437829 7:0.279621 
6.474148373240507e-05 1:0.000812909 2:0.4 3:0.285714 4:0.00044519 5:0.0113636 6:0.335607 7:0.0137259 
-0.0001464371996753867 1:0.000525892 2:0.4 3:0.285714 4:0.175835 5:1 6:0.731022 7:0.629937 
0.0002490543331020521 1:0.000525892 2:0.4 3:0.285714 4:0.124609 5:0.181818 6:0.704891 7:0.174451 
-0.000209562460721616 1:0.000525892 2:0.4 3:0.285714 4:0.202993 5:1 6:0.635078 7:0.629937 
-0.0003038579126977666 1:0.000525892 2:0.4 3:0.285714 4:0.0358331 5:1 6:0.535755 7:0.629937 
0.0001677925482169275 1:0.000525892 2:0.4 3:0.285714 4:0.00477034 5:0.00568182 6:0.476681 
6.405856431506732e-05 1:0.000525892 2:0.4 3:0.285714 4:0.0101341 5:0.0113636 6:0.332577 7:0.0134797 
0.0004675022504181085 1:5.88034e-05 2:0.2 3:0.142857 4:0.31235 5:0.00568182 6:0.730983 7:0.0801019 
0.0002928649884187706 1:5.88034e-05 2:0.2 3:0.142857 4:0.00250934 5:0.0227273 6:0.550392 
0.0001545307115418987 1:5.88034e-05 2:0.2 3:0.142857 4:0.00193855 5:0.153409 6:0.446051 7:0.043918 
0.0001976614984170825 1:5.88034e-05 2:0.2 3:0.142857 4:0.0124478 5:0.0113636 6:0.404553 
0.0002027188481070402 1:1.02586e-08 2:0.2 3:0.142857 4:0.00210745 5:0.00568182 6:0.410119 
0.0001968685746732958 1:1.02586e-08 2:0.2 3:0.142857 4:0.000958855 5:0.00568182 6:0.408452 7:0.0625263 
0.0001764681508491794 1:5.88034e-05 2:0.2 3:0.142857 4:0.00375488 5:0.0397727 6:0.395387 
8.805432698262028e-06 1:5.88034e-05 2:0.2 3:0.142857 4:0.00216705 5:0.414773 6:0.41058 
0.0001794333603044303 1:1.45419e-09 2:0.2 3:0.142857 4:0.000666535 5:0.0113636 6:0.382266 7:0.0121877 
0.000182153457053617 1:3.42545e-09 2:0.2 3:0.142857 4:0.000382352 5:0.00568182 6:0.381101 
0.0001810425370718839 1:3.42545e-09 2:0.2 3:0.142857 4:0.00068803 5:0.00568182 6:0.379449 
0.0001712648229910303 1:1.02586e-08 2:0.2 3:0.142857 4:0.00801206 5:0.0170455 6:0.371637 
0.000170858520646637 1:3.42545e-09 2:0.2 3:0.142857 4:0.000741399 5:0.00568182 6:0.364887 
9.789959744733976e-05 1:1.45419e-09 2:0.2 3:0.142857 4:0.00143856 5:0.142045 6:0.355736 7:0.0264379 
0.0001542139856836579 1:3.42545e-09 2:0.2 3:0.142857 4:0.00332082 5:0.0113636 6:0.344414 
0.0001118958488119809 1:1.45419e-09 2:0.2 3:0.142857 4:0.000507111 5:0.0909091 6:0.349574 7:0.107257 
5.048563925821522e-05 1:1.45419e-09 2:0.2 3:0.142857 4:0.000644989 5:0.244318 6:0.354818 
0.0001372313863342644 1:3.42545e-09 2:0.2 3:0.142857 4:0.000464236 5:0.00568182 6:0.3169 
0.0001057857293983889 1:1.02586e-08 2:0.2 3:0.142857 4:0.00334751 5:0.0681818 6:0.313762 
0.000111907938800788 1:1.45419e-09 2:0.2 3:0.142857 4:0.000469755 5:0.0284091 6:0.296136 
0.0001154755195517095 1:1.02586e-08 2:0.2 3:0.142857 4:0.00154593 5:0.0170455 6:0.293296 
0.0001095534773229775 1:3.42545e-09 2:0.2 3:0.142857 4:0.000403226 5:0.0113636 6:0.281222 
-9.336869253049586e-05 1:1.02586e-08 2:0.2 3:0.142857 4:0.00272247 5:0.414773 6:0.264483 
7.204808187788624e-05 1:1.45419e-09 2:0.2 3:0.142857 4:0.00320364 5:0.0113636 6:0.227042 
0.00044258009192027 1:0.000343135 2:0.2 4:0.936866 5:0.380682 6:0.731178 7:0.993707 
0.0003217457759042233 1:0.000343135 2:0.2 4:0.000671667 5:0.142045 6:0.492437 
0.0003533895071690978 1:0.000343135 2:0.2 4:0.000989753 5:0.0113636 6:0.448924 
0.0001509804322660725 1:2.38366e-08 2:0.2 3:0.142857 4:2.66972e-05 5:0.00568182 6:0.336637 
0.0001358261173572778 1:2.38366e-08 2:0.2 3:0.142857 4:2.00854e-05 5:0.0284091 6:0.330405 
0.0001412169621843453 1:2.38366e-08 2:0.2 3:0.142857 4:4.63893e-05 5:0.00568182 6:0.322683 
0.0002154333918460317 1:0.000343135 2:0.2 4:0.00106337 5:0.159091 6:0.352262 7:0.0023301 
0.0001080665725414696 1:2.38366e-08 2:0.2 3:0.142857 4:2.8067e-05 5:0.0113636 6:0.279177 
0.0001282880035266342 1:0.000343135 2:0.2 4:0.000685666 5:0.295455 6:0.320103 
9.716849142068205e-05 1:2.38366e-08 2:0.2 3:0.142857 4:5.19751e-05 5:0.0113636 6:0.263601 
0.0002410524123547876 1:0.000343135 2:0.2 4:0.000627529 5:0.00568182 6:0.284649 7:7.45432e-05 
0.0001838250284090905 1:0.000253889 2:0.4 3:0.285714 4:0.556644 5:0.420455 6:0.730994 7:0.648468 
0.0001189791562366722 1:0.000253889 2:0.4 3:0.285714 4:0.0169778 5:0.00568182 6:0.404374 
0.0001007191946189408 1:0.000253889 2:0.4 3:0.285714 4:0.0125474 5:0.0227273 6:0.390787 
-0.0001431382043153765 1:0.000253889 2:0.4 3:0.285714 4:0.0105981 5:0.420455 6:0.379488 7:0.648468 
6.530419205062571e-05 1:0.000253889 2:0.4 3:0.285714 4:0.00922269 5:0.0227273 6:0.340891 
-0.0001722153348204841 1:0.000253889 2:0.4 3:0.285714 4:0.00991935 5:0.420455 6:0.338087 7:0.648468 
0.0002207595948758163 1:0.000221059 3:0.142857 4:0.368279 5:0.420455 6:0.795777 7:0.897867 
0.0001467924641440228 1:0.000221059 3:0.142857 4:0.174597 5:0.420455 6:0.731116 7:0.897867 
8.726396562155558e-05 1:0.000221059 3:0.142857 4:0.043142 5:0.420455 6:0.673905 7:0.897867 
0.0001315662893798696 1:0.000221059 3:0.142857 4:0.00236213 5:0.00568182 6:0.371849 
0.0001005002914343937 1:0.000221059 3:0.142857 4:0.00224252 5:0.0227273 6:0.339052 
9.5949696673283e-05 1:0.000221059 3:0.142857 4:0.0013325 5:0.0113636 6:0.329787 7:0.046091 
0.0003741592681714184 1:0.00039476 2:0.4 3:0.285714 4:0.986896 5:0.130682 6:0.750126 7:0.987005 
0.0002211299197909544 1:4.90362e-08 2:0.2 3:0.142857 4:0.00107523 5:0.130682 6:0.567921 7:0.450634 
6.558889341165238e-05 1:0.00039476 2:0.4 3:0.285714 4:3.16831e-05 5:0.0795455 6:0.381882 7:0.000990114 
8.904169698192278e-05 1:0.00039476 2:0.4 3:0.285714 4:5.39294e-05 5:0.00568182 6:0.365186 7:0.000125322 
3.536972482822186e-05 1:0.00039476 2:0.4 3:0.285714 4:3.15788e-05 5:0.0113636 6:0.292411 7:0.000619137 
0.0001586330696304899 1:4.90362e-08 2:0.2 3:0.142857 4:0.00309006 5:0.0170455 6:0.35552 7:0.00861515 
0.000160201967519816 1:4.90362e-08 2:0.2 3:0.142857 4:0.00528057 5:0.00568182 6:0.349582 7:0.00855447 
0.0001824926189382731 1:0.000194077 2:0.4 3:0.428571 4:0.0723825 5:0.0852273 6:0.731158 7:0.128651 
0.000114806035619053 1:0.000194077 2:0.4 3:0.428571 4:0.079882 5:0.0454545 6:0.604153 7:0.111928 
7.982930684854723e-06 1:0.000194077 2:0.4 3:0.428571 4:0.00647918 5:0.0113636 6:0.432941 7:0.0052296 
-4.859665122996063e-05 1:0.000194077 2:0.4 3:0.428571 4:0.00118335 5:0.00568182 6:0.348829 
-5.88992413864882e-05 1:0.000194077 2:0.4 3:0.428571 4:0.00292032 5:0.00568182 6:0.333741 
-8.13420425102044e-05 1:0.000194077 2:0.4 3:0.428571 4:0.00100842 5:0.0227273 6:0.313964 7:0.00310052 
0.0003579675340430121 1:0.000329918 2:0.4 3:0.285714 4:0.941851 5:0.215909 6:0.788278 7:0.928057 
9.016102030997415e-05 1:0.000329918 2:0.4 3:0.285714 4:0.00703446 5:0.414773 6:0.643001 7:0.00159326 
0.000128900762446384 1:0.000329918 2:0.4 3:0.285714 4:0.000694688 5:0.164773 6:0.530004 7:0.000778167 
6.135748351090672e-05 1:0.000329918 2:0.4 3:0.285714 4:0.00153575 5:0.164773 6:0.433928 7:0.00665871 
7.641042091449787e-05 1:0.000329918 2:0.4 3:0.285714 4:0.000693394 5:0.0170455 6:0.354705 
2.846660923140635e-05 1:0.000329918 2:0.4 3:0.285714 4:0.000513184 5:0.00568182 6:0.279273 7:0.00717804 
0.0003349830755436403 1:0.00040171 2:0.4 3:0.285714 4:0.392883 5:0.0227273 6:0.730882 7:0.833402 
0.000246640630626509 1:0.00040171 2:0.4 3:0.285714 4:0.0013059 5:0.153409 6:0.690681 7:0.00366547 
7.213839005324713e-05 1:0.00040171 2:0.4 3:0.285714 4:0.0164941 5:0.414773 6:0.615077 
-0.0001642678847653397 1:2.22353e-09 2:0.6 3:0.428571 4:0.000733648 5:0.414773 6:0.397746 
7.623344023224672e-05 1:0.00040171 2:0.4 3:0.285714 4:0.00414153 5:0.0965909 6:0.408068 7:0.00374687 
0.0002359906373799687 1:4.70977e-08 4:0.0164941 5:0.414773 6:0.615077 
5.703801295488886e-05 1:0.00040171 2:0.4 3:0.285714 4:0.00179124 5:0.0568182 6:0.354012 7:0.00234085 
-8.617327226230564e-06 1:0.00040171 2:0.4 3:0.285714 4:0.00237592 5:0.176136 6:0.340788 
0.0001441517094763904 1:2.45487e-08 2:0.2 3:0.142857 4:0.000555599 5:0.0284091 6:0.342187 
-4.330377529672838e-05 1:2.32541e-07 3:0.142857 4:0.0108984 5:0.414773 6:0.397746 
0.0001010448205964338 1:2.45487e-08 2:0.2 3:0.142857 4:0.00035666 5:0.0170455 6:0.275352 7:0.0234881 
0.0002314299284828424 1:3.09367e-09 4:0.0010823 5:0.0568182 6:0.369221 7:0.00234085 
3.039327492416078e-05 1:2.67022e-08 3:0.142857 4:0.000551542 5:0.164773 6:0.335628 
0.0003916209183306635 1:0.000981731 3:0.142857 4:0.927373 5:0.159091 6:0.753609 7:0.99 
0.0005179205119060949 1:3.84028e-08 4:0.927373 5:0.159091 6:0.753609 7:0.99 
0.0001781627915960164 1:0.000981731 3:0.142857 4:0.00454754 5:0.0568182 6:0.472754 7:0.00156305 
0.0003044623851714477 1:3.84028e-08 4:0.00454754 5:0.0568182 6:0.472754 7:0.00156305 
-6.759402896398902e-06 1:0.000981731 3:0.142857 4:0.00340709 5:0.414773 6:0.451467 
0.0001450703900136809 1:0.000981731 3:0.142857 4:0.000840847 5:0.00568182 6:0.391404 
9.472647053315882e-06 1:0.000981731 3:0.142857 4:0.00440582 5:0.295455 6:0.393512 7:0.00012427 
0.0001276922755867638 1:0.000981731 3:0.142857 4:0.00241752 5:0.0170455 6:0.37395 
0.000135772240628747 1:3.84028e-08 4:0.00440582 5:0.295455 6:0.393512 7:0.00012427 
0.000253991869162195 1:3.84028e-08 4:0.00241752 5:0.0170455 6:0.37395 
0.0002537137677348381 1:3.84028e-08 4:0.000541469 5:0.0170455 6:0.37395 
2.77751049917069e-05 1:3.84028e-08 4:0.00574933 5:0.414773 6:0.319859 
0.0002718106840119003 1:0.000286365 2:0.4 3:0.428571 4:0.790907 5:0.0397727 6:0.751445 7:0.86265 
3.507776257987975e-06 1:0.000286365 2:0.4 3:0.428571 4:0.00179578 5:0.289773 6:0.616873 7:0.00970655 
-6.87109956479033e-05 1:0.000286365 2:0.4 3:0.428571 4:0.00206114 5:0.215909 6:0.46252 
-2.723533715106975e-06 1:0.000286365 2:0.4 3:0.428571 4:0.00946697 5:0.0568182 6:0.447592 7:0.00281439 
-0.0001876325530475336 1:0.000286365 2:0.4 3:0.428571 4:0.00771637 5:0.414773 6:0.426324 
-0.0001070896492580197 1:0.000286365 2:0.4 3:0.428571 4:0.00203095 5:0.164773 6:0.373688 7:0.00667202 
-5.476797410502855e-05 1:5.34628e-07 2:0.2 3:0.142857 4:0.0469201 5:1 6:0.772273 7:0.629937 
0.0003413483891953486 1:5.34628e-07 2:0.2 3:0.142857 4:0.00272526 5:0.0340909 6:0.630366 7:0.0294153 
-0.0002684504306724189 1:1.96989e-08 2:0.2 3:0.142857 4:0.0013263 5:1 6:0.476625 7:0.629937 
0.0001852605944680136 1:1.96989e-08 2:0.2 3:0.142857 4:0.000270253 5:0.0113636 6:0.390809 7:0.0134797 
-0.0003005254010852721 1:1.96989e-08 2:0.2 3:0.142857 4:0.000164794 5:1 6:0.431043 7:0.629937 
0.0001543781774579966 1:5.34628e-07 2:0.2 3:0.142857 4:0.000726614 5:0.0113636 6:0.345198 
0.0001504666586830478 1:5.34628e-07 2:0.2 3:0.142857 4:0.000172545 5:0.00568182 6:0.335872 
0.0001111470453196741 1:1.96989e-08 2:0.2 3:0.142857 4:0.00580861 5:0.0113636 6:0.282354 
0.0002640082372733513 1:0.00129959 2:0.6 3:0.428571 4:0.918353 5:0.153409 6:0.731045 7:0.903299 
6.816018813939038e-05 1:0.00129959 2:0.6 3:0.428571 4:0.0292478 5:0.414773 6:0.730181 7:0.0629423 
-8.00821293824095e-05 1:0.00129959 2:0.6 3:0.428571 4:4.58223e-05 5:0.176136 6:0.356172 
-5.579801994090777e-05 1:0.00129959 2:0.6 3:0.428571 4:6.17083e-05 5:0.0397727 6:0.298353 
-0.0001009564683847827 1:0.00129959 2:0.6 3:0.428571 4:0.000207096 5:0.0965909 6:0.272781 7:0.00420151 
-0.0002691377335691185 1:0.00129959 2:0.6 3:0.428571 4:4.0861e-06 5:0.414773 6:0.254451 7:0.0629423 
-8.283677491923013e-05 1:0.000386149 2:0.4 3:0.285714 4:0.762917 5:1 6:0.731032 7:0.954482 
0.0001642794531578982 1:0.000386149 2:0.4 3:0.285714 4:0.00328819 5:0.181818 6:0.59207 7:0.00570209 
-0.0004568475077733483 1:2.91513e-09 2:0.4 3:0.428571 4:0.00718773 5:1 6:0.537281 7:0.954482 
-0.0003304704313467244 1:0.000386149 2:0.4 3:0.285714 4:0.00718773 5:1 6:0.537281 7:0.954482 
0.000153041321003581 1:0.000386149 2:0.4 3:0.285714 4:0.0049662 5:0.0113636 6:0.460012 7:0.00565041 
7.542217461199065e-05 1:1.35476e-08 3:0.285714 4:0.00328819 5:0.181818 6:0.59207 7:0.00570209 
-0.0004263375258229303 1:0.000386149 2:0.4 3:0.285714 4:0.00412928 5:1 6:0.400956 7:0.954482 
-0.0004193277098926316 1:1.35476e-08 3:0.285714 4:0.00718773 5:1 6:0.537281 7:0.954482 
-0.0004619186365084879 1:0.000386149 2:0.4 3:0.285714 4:0.0152318 5:1 6:0.347767 7:0.954482 
6.418404245767351e-05 1:1.35476e-08 3:0.285714 4:0.0049662 5:0.0113636 6:0.460012 7:0.00565041 
-1.534469409575938e-05 1:1.35476e-08 3:0.285714 4:0.00279993 5:0.0113636 6:0.34691 7:0.00631053 
-0.0005433180375204919 1:1.35476e-08 3:0.285714 4:0.00179758 5:1 6:0.361268 7:0.954482 
-0.0005507759150543952 1:1.35476e-08 3:0.285714 4:0.0152318 5:1 6:0.347767 7:0.954482 
0.000419738644041894 1:1.68056e-05 2:0.2 3:0.142857 4:0.213089 5:0.00568182 6:0.730922 7:0.537339 
0.000238914404796333 1:1.68056e-05 2:0.2 3:0.142857 4:0.00649864 5:0.00568182 6:0.460903 
0.0001800958678598754 1:1.68056e-05 2:0.2 3:0.142857 4:0.00090078 5:0.00568182 6:0.37805 
0.0001652328112442815 1:1.68056e-05 2:0.2 3:0.142857 4:0.00226998 5:0.00568182 6:0.356524 
0.0003200397762755904 1:7.13157e-05 4:0.000999253 5:0.00568182 6:0.460903 
0.0001425521947586343 1:1.68056e-05 2:0.2 3:0.142857 4:0.00145996 5:0.00568182 6:0.32429 
0.0001022374924919342 1:1.68056e-05 2:0.2 3:0.142857 4:0.000157585 5:0.00568182 6:0.322382 7:0.537339 
0.0002619352159922021 1:7.13157e-05 4:0.000217825 5:0.00568182 6:0.37805 
0.0002469343770585454 1:7.13157e-05 4:0.000657556 5:0.00568182 6:0.356524 
0.0002232992554319646 1:7.13157e-05 4:0.000285203 5:0.00568182 6:0.32429 7:0.0141224 
0.0005489923897889995 1:0.000507491 2:0.2 4:0.0873656 5:0.0113636 6:0.731151 7:0.204219 
0.0003781907391034833 1:3.86612e-08 3:0.142857 4:0.0873656 5:0.0113636 6:0.731151 7:0.204219 
0.0004935940818780835 1:0.000507491 2:0.2 4:0.00832035 5:0.0113636 6:0.651053 7:0.0327127 
0.0003227924311925674 1:3.86612e-08 3:0.142857 4:0.00832035 5:0.0113636 6:0.651053 7:0.0327127 
0.0002750063717334182 1:0.000507491 2:0.2 4:0.00632674 5:0.210227 6:0.476436 7:0.0555977 
0.0003355922865971786 1:0.000507491 2:0.2 4:0.00741549 5:0.0113636 6:0.443183 7:0.204219 
0.0001042047211604073 1:4.06473e-08 3:0.142857 4:0.00632674 5:0.210227 6:0.476436 7:0.0555977 
0.0001042047210479022 1:3.86612e-08 3:0.142857 4:0.00632674 5:0.210227 6:0.476436 7:0.0555977 
0.0001898456970620952 1:4.06473e-08 3:0.142857 4:0.00135781 5:0.0227273 6:0.466912 
0.0001647906359116624 1:3.86612e-08 3:0.142857 4:0.00741549 5:0.0113636 6:0.443183 7:0.204219 
0.0003162008996713509 1:3.86612e-08 4:0.00135781 5:0.0227273 6:0.466912 
0.0002978202407916454 1:0.000507491 2:0.2 4:0.00617819 5:0.00568182 6:0.364561 
0.0001532263210966945 1:4.06473e-08 3:0.142857 4:0.00355789 5:0.00568182 6:0.402561 
0.0001534172951491736 1:4.06473e-08 3:0.142857 4:0.00156949 5:0.00568182 6:0.403255 
0.0002359091922424987 1:0.000507491 2:0.2 4:0.0522202 5:0.0454545 6:0.293335 
0.0002795815237059501 1:3.86612e-08 4:0.00355789 5:0.00568182 6:0.402561 
0.0001270185902186343 1:4.06473e-08 3:0.142857 4:0.00617819 5:0.00568182 6:0.364561 
0.0001270185901061292 1:3.86612e-08 3:0.142857 4:0.00617819 5:0.00568182 6:0.364561 
0.0002583510905997055 1:1.88884e-08 4:0.0203074 5:0.0227273 6:0.383511 7:0.031678 
0.0001028838356056801 1:4.06473e-08 3:0.142857 4:0.000911714 5:0.0454545 6:0.358176 
6.884302094459798e-05 1:3.86612e-08 3:0.142857 4:0.00431709 5:0.113636 6:0.355074 
0.0002292390382149357 1:3.86612e-08 4:0.000911714 5:0.0454545 6:0.358176 
0.0001951982236663586 1:3.86612e-08 4:0.00431709 5:0.113636 6:0.355074 
4.264469404511738e-05 1:3.86612e-08 4:0.00138577 5:0.420455 6:0.35036 7:0.043407 
0.0002100254460941521 1:1.88884e-08 4:0.0012991 5:0.0454545 6:0.330642 
0.0002032897111341773 1:1.88884e-08 4:0.000530122 5:0.0454545 6:0.321181 
0.0002103176651711807 1:1.88884e-08 4:0.00217881 5:0.00568182 6:0.306882 7:0.0290072 
0.0003146896605942524 1:0.000108735 2:0.2 3:0.285714 4:0.726581 5:0.153409 6:0.730979 7:0.32555 
0.0004410387728127263 1:1.21668e-06 2:0.2 3:0.142857 4:0.726581 5:0.153409 6:0.730979 7:0.32555 
7.64029134108579e-05 1:0.000423937 2:0.2 3:0.142857 4:0.00133159 5:0.380682 6:0.484181 
-0.0001397606984265061 1:0.000108735 2:0.2 3:0.285714 4:2.12595e-05 5:0.414773 6:0.443802 7:0.62547 
-1.341158620803271e-05 1:1.21668e-06 2:0.2 3:0.142857 4:2.12595e-05 5:0.414773 6:0.443802 7:0.62547 
-1.34116537544348e-05 1:2.42538e-08 2:0.2 3:0.142857 4:2.12595e-05 5:0.414773 6:0.443802 7:0.62547 
0.0001694615589605543 1:0.000423937 2:0.2 3:0.142857 4:0.000180491 5:0.0397727 6:0.386182 7:0.000759841 
3.70053523016452e-05 1:7.94939e-10 2:0.2 3:0.285714 4:5.24119e-05 5:0.00568182 6:0.35432 
0.0001482360517149915 1:0.000423937 2:0.2 3:0.142857 4:0.000213318 5:0.0795455 6:0.382753 
2.177972490521263e-05 1:7.94939e-10 2:0.2 3:0.285714 4:0.000230458 5:0.0284091 6:0.347947 
0.0001511991612785945 1:0.000423937 2:0.2 3:0.142857 4:0.000454592 5:0.0340909 6:0.356098 
8.079725204162491e-06 1:0.000108735 2:0.2 3:0.285714 4:0.00131146 5:0.0227273 6:0.324952 7:0.00651285 
0.0001514356304483698 1:0.000423937 2:0.2 3:0.142857 4:0.000195384 5:0.0113636 6:0.341072 
-7.428663904865973e-05 1:0.000108735 2:0.2 3:0.285714 4:0.000142123 5:0.176136 6:0.310921 
6.297677773768904e-05 1:1.21668e-06 2:0.2 3:0.142857 4:0.000349446 5:0.164773 6:0.319064 7:0.00292571 
-0.0001295313266285204 1:1.21668e-06 2:0.2 3:0.142857 4:0.129709 5:0.414773 6:0.250425 7:0.62547 
5.206247316981419e-05 1:1.21668e-06 2:0.2 3:0.142857 4:0.000142123 5:0.176136 6:0.310921 
8.2031374965608e-05 1:0.000423937 2:0.2 3:0.142857 4:0.000835714 5:0.0909091 6:0.295802 7:0.000613268 
0.0003317489558557427 1:7.81857e-09 2:0.4 3:0.285714 4:0.249526 5:0.181818 6:0.782223 7:0.0347705 
0.0002215447105678094 1:7.81857e-09 2:0.4 3:0.285714 4:0.063914 5:0.181818 6:0.664078 7:0.0347705 
0.0002579770055780191 1:7.81857e-09 2:0.4 3:0.285714 4:0.027247 5:0.0284091 6:0.620821 7:0.044464 
-0.000371227095056784 1:7.81857e-09 2:0.4 3:0.285714 4:0.00141 5:1 6:0.382774 7:0.00880424 
7.537396332872096e-05 1:1.54471e-06 3:0.285714 4:0.0260414 5:0.0113636 6:0.473852 7:0.0281062 
4.956116425117727e-06 1:1.54471e-06 3:0.285714 4:0.00176312 5:0.0113636 6:0.375484 
-0.0004911423894946694 1:1.54471e-06 3:0.285714 4:0.00283409 5:1 6:0.338066 7:0.00880424 
-0.0005093783054300608 1:1.54471e-06 3:0.285714 4:0.00340977 5:1 6:0.311889 7:0.00880424 
-7.694581295521254e-05 1:1.54471e-06 3:0.285714 4:0.00203858 5:0.0113636 6:0.258406 
-0.000529951308786504 1:1.54471e-06 3:0.285714 4:0.00554269 5:1 6:0.282043 7:0.00880424 
-8.786946631065329e-05 1:0.000456568 2:0.2 3:0.285714 4:0.883824 5:1 6:0.761576 7:0.953369 
0.0001796660263101433 1:0.000456568 2:0.2 3:0.285714 4:0.0022453 5:0.00568182 6:0.557649 
0.0001665219474125678 1:0.000456568 2:0.2 3:0.285714 4:0.00246632 5:0.0113636 6:0.542856 7:0.0017368 
6.472467354130786e-05 1:0.000456568 2:0.2 3:0.285714 4:0.0564803 5:0.181818 6:0.503339 7:0.0184949 
8.572003062393755e-05 1:0.000456568 2:0.2 3:0.285714 4:0.000408557 5:0.0340909 6:0.443164 7:0.000780658 
-0.0005049075951359931 1:0.000456568 2:0.2 3:0.285714 4:0.0145938 5:1 6:0.349823 7:0.953369 
0.0003102939848890341 1:0.000543121 2:0.4 3:0.285714 4:0.3436 5:0.0738636 6:0.730945 7:0.738567 
0.0001774421999129626 1:0.000543121 2:0.4 3:0.285714 4:0.0231094 5:0.0284091 6:0.503402 7:0.0135809 
5.808150564019314e-05 1:0.000543121 2:0.4 3:0.285714 4:0.0314355 5:0.289773 6:0.507526 7:0.00496709 
6.43715745205287e-05 1:0.000543121 2:0.4 3:0.285714 4:0.0223129 5:0.164773 6:0.434337 7:0.0117043 
9.141243782327592e-05 1:0.000543121 2:0.4 3:0.285714 4:0.0292157 5:0.0397727 6:0.3855 
2.247419731270602e-05 1:0.000543121 2:0.4 3:0.285714 4:0.0191014 5:0.176136 6:0.381657 
0.0002349180277792393 1:8.31545e-08 4:0.00014679 5:0.0284091 6:0.354888 
0.000234546069408976 1:8.31545e-08 4:0.000196621 5:0.0284091 6:0.354346 
0.0001636627192977391 1:8.31545e-08 4:7.78547e-05 5:0.142045 6:0.330188 
0.0002108802589869154 1:8.31545e-08 4:0.000461694 5:0.0227273 6:0.316622 
0.0001422246588107797 1:8.31545e-08 4:0.000530725 5:0.0909091 6:0.26477 
0.0001047014404567686 1:0.000398458 2:0.4 3:0.285714 4:0.166276 5:0.414773 6:0.731087 7:0.981343 
0.0001288213043505612 1:0.000398458 2:0.4 3:0.285714 4:0.00807285 5:0.0170455 6:0.42802 
4.518537863829259e-05 1:0.000398458 2:0.4 3:0.285714 4:0.0291565 5:0.164773 6:0.404421 7:0.00137355 
8.183504429632143e-05 1:0.000398458 2:0.4 3:0.285714 4:0.0246106 5:0.00568182 6:0.349675 
-1.091967774137202e-06 1:0.000398458 2:0.4 3:0.285714 4:0.012963 5:0.176136 6:0.349298 
-5.438021219772648e-06 1:0.000398458 2:0.4 3:0.285714 4:0.0347185 5:0.164773 6:0.330847 7:0.00072985 
0.0003225662009953762 1:0.000369368 2:0.4 3:0.285714 4:0.940446 5:0.261364 6:0.764844 7:0.889412 
0.0001256424253239323 1:0.000369368 2:0.4 3:0.285714 4:0.000954983 5:0.0113636 6:0.42154 7:0.00394391 
0.0001149270706516145 1:0.000369368 2:0.4 3:0.285714 4:0.00257447 5:0.00568182 6:0.401684 7:0.000565001 
9.28306191373414e-05 1:0.000369368 2:0.4 3:0.285714 4:0.00169257 5:0.0113636 6:0.374503 7:0.00394391 
6.038827332217336e-05 1:0.000369368 2:0.4 3:0.285714 4:0.00237329 5:0.00568182 6:0.323907 7:0.00157548 
-6.946456527560002e-05 1:0.000369368 2:0.4 3:0.285714 4:0.000594833 5:0.0113636 6:0.142445 
0.0003076162913144919 1:0.000223 2:0.4 3:0.285714 4:0.940446 5:0.244318 6:0.731147 7:0.881807 
0.0003076036597572052 1:9.59109e-09 2:0.4 3:0.285714 4:0.940446 5:0.244318 6:0.731147 7:0.881807 
8.636672938653348e-05 1:0.000223 2:0.4 3:0.285714 4:0.00827564 5:0.244318 6:0.612463 7:0.881807 
0.0001924543201515159 1:0.000223 2:0.4 3:0.285714 4:0.00257447 5:0.0227273 6:0.52412 7:0.00144607 
2.986234058806855e-05 1:9.59109e-09 2:0.4 3:0.285714 4:0.00044746 5:0.289773 6:0.473302 
0.00013400417480652 1:2.06014e-08 2:0.4 3:0.285714 4:0.000750819 5:0.0113636 6:0.433411 7:0.00249706 
6.512375897087648e-05 1:0.000223 2:0.4 3:0.285714 4:0.00169257 5:0.164773 6:0.439575 7:0.00947442 
-1.45553621335979e-05 1:9.59109e-09 2:0.2 3:0.285714 4:0.00044746 5:0.289773 6:0.473302 
8.541509014961879e-05 1:2.06014e-08 2:0.4 3:0.285714 4:7.94637e-05 5:0.00568182 6:0.360018 
8.541508952592662e-05 1:9.59109e-09 2:0.4 3:0.285714 4:7.94637e-05 5:0.00568182 6:0.360018 
6.232684115314602e-05 1:0.000223 2:0.4 3:0.285714 4:0.000979213 5:0.0284091 6:0.342382 7:0.00137534 
0.0001117998413115522 1:2.23614e-08 2:0.2 3:0.142857 4:0.00044746 5:0.289773 6:0.473302 
0.0001117998403799672 1:5.91572e-09 2:0.2 3:0.142857 4:0.00044746 5:0.289773 6:0.473302 
5.27248350661689e-05 1:0.000223 2:0.4 3:0.285714 4:0.00237329 5:0.00568182 6:0.313229 7:0.00409171 
5.271220350888258e-05 1:9.59109e-09 2:0.4 3:0.285714 4:0.00237329 5:0.00568182 6:0.313229 7:0.00409171 
0.0002133248950374744 1:2.23614e-08 2:0.2 3:0.142857 4:8.23412e-05 5:0.0170455 6:0.433411 
3.952666108810741e-05 1:2.06014e-08 2:0.4 3:0.285714 4:0.000184382 5:0.0284091 6:0.309992 7:0.00137534 
3.95266604644153e-05 1:9.59109e-09 2:0.4 3:0.285714 4:0.000184382 5:0.0284091 6:0.309992 7:0.00137534 
4.619436641360238e-05 1:2.06014e-08 2:0.4 3:0.285714 4:5.7277e-05 5:0.00568182 6:0.303985 
4.099738680426025e-05 1:9.59109e-09 2:0.2 3:0.285714 4:7.94637e-05 5:0.00568182 6:0.360018 
-7.36972147593551e-06 1:2.23614e-08 2:0.2 3:0.142857 4:0.000220244 5:0.414773 6:0.391574 7:0.0357562 
0.0001673525902494104 1:2.23614e-08 2:0.2 3:0.142857 4:7.94637e-05 5:0.00568182 6:0.360018 
0.0001673525893178252 1:5.91572e-09 2:0.2 3:0.142857 4:7.94637e-05 5:0.00568182 6:0.360018 
-0.000183072621996496 1:2.06014e-08 2:0.4 3:0.285714 4:0.000315042 5:0.414773 6:0.257584 7:0.0357562 
-0.0001830726226201882 1:9.59109e-09 2:0.4 3:0.285714 4:0.000315042 5:0.414773 6:0.257584 7:0.0357562 
-4.891042257251e-06 1:9.59109e-09 2:0.2 3:0.285714 4:0.000184382 5:0.0284091 6:0.309992 7:0.00137534 
0.0001307445237754882 1:5.91572e-09 2:0.2 3:0.142857 4:7.136e-05 5:0.0227273 6:0.319279 
-8.319385753870519e-05 1:9.59109e-09 2:0.2 3:0.285714 4:3.0399e-05 5:0.164773 6:0.290642 7:0.0012015 
0.000121464161187899 1:2.23614e-08 2:0.2 3:0.142857 4:0.000184382 5:0.0284091 6:0.309992 7:0.00137534 
0.0001214641602563139 1:5.91572e-09 2:0.2 3:0.142857 4:0.000184382 5:0.0284091 6:0.309992 7:0.00137534 
-0.000232901924718815 1:2.06014e-08 2:0.4 3:0.285714 4:0.000433073 5:0.414773 6:0.186364 7:0.0357562 
-0.0001011351218967045 1:2.23614e-08 2:0.2 3:0.142857 4:0.000315042 5:0.414773 6:0.257584 7:0.0357562 
-0.0001011351228282897 1:5.91572e-09 2:0.2 3:0.142857 4:0.000315042 5:0.414773 6:0.257584 7:0.0357562 
-0.0001509644255506084 1:5.91572e-09 2:0.2 3:0.142857 4:0.000433073 5:0.414773 6:0.186364 7:0.0357562 
0.0004407848661097734 1:9.88621e-05 2:0.2 3:0.142857 4:0.914377 5:0.153409 6:0.73118 7:0.716763 
0.0002306310448175134 1:9.88621e-05 2:0.2 3:0.142857 4:0.000236922 5:0.0113636 6:0.454424 7:0.00176316 
0.0002238399905177169 1:9.88621e-05 2:0.2 3:0.142857 4:0.000152152 5:0.00568182 6:0.440895 7:0.00186607 
2.988411751993541e-05 1:9.88621e-05 2:0.2 3:0.142857 4:0.000565868 5:0.414773 6:0.455078 7:0.136188 
0.0001947895495982098 1:1.24436e-08 2:0.2 3:0.142857 4:3.57466e-05 5:0.0340909 6:0.418502 
0.0001339152276476074 1:9.88621e-05 2:0.2 3:0.142857 4:0.000162182 5:0.159091 6:0.416458 7:0.00158537 
0.0001900482208700117 1:9.88621e-05 2:0.2 3:0.142857 4:0.000618697 5:0.0227273 6:0.405771 7:0.018269 
0.0001987350231184367 1:4.84647e-09 2:0.2 3:0.142857 4:6.77762e-05 5:0.00568182 6:0.404859 
0.0001692398677236495 1:1.24436e-08 2:0.2 3:0.142857 4:4.7173e-05 5:0.0113636 6:0.366576 
0.0001692398672243841 1:3.62985e-09 2:0.2 3:0.142857 4:4.7173e-05 5:0.0113636 6:0.366576 
0.0001692282339049908 1:1.24436e-08 2:0.2 3:0.142857 4:5.05627e-05 5:0.00568182 6:0.362704 
0.0001692282334746423 1:4.84647e-09 2:0.2 3:0.142857 4:5.05627e-05 5:0.00568182 6:0.362704 
0.0001692282334057255 1:3.62985e-09 2:0.2 3:0.142857 4:5.05627e-05 5:0.00568182 6:0.362704 
0.000164609263799186 1:8.52285e-09 2:0.2 3:0.142857 4:1.52386e-05 5:0.00568182 6:0.356112 
0.0001646092635220162 1:3.62985e-09 2:0.2 3:0.142857 4:1.52386e-05 5:0.00568182 6:0.356112 
0.0001095904770057082 1:9.88621e-05 2:0.2 4:8.87584e-08 5:0.414773 6:0.388547 7:0.136188 
0.0001482006089642572 1:1.24436e-08 2:0.2 3:0.142857 4:1.21128e-05 5:0.0113636 6:0.336523 
0.0001504134579947745 1:8.52285e-09 2:0.2 3:0.142857 4:2.71684e-06 5:0.00568182 6:0.335832 
0.000150297373869707 1:1.24436e-08 2:0.2 3:0.142857 4:1.75482e-05 5:0.00568182 6:0.335663 
0.0001502973734393585 1:4.84647e-09 2:0.2 3:0.142857 4:1.75482e-05 5:0.00568182 6:0.335663 
0.0001502973733704417 1:3.62985e-09 2:0.2 3:0.142857 4:1.75482e-05 5:0.00568182 6:0.335663 
0.0001136680258387369 1:4.84647e-09 2:0.2 3:0.142857 4:3.31839e-05 5:0.0511364 6:0.314162 
0.0001136668128743877 1:3.62985e-09 2:0.2 3:0.142857 4:2.50018e-05 5:0.0511364 6:0.314162 
0.0001070392486803728 1:4.84647e-09 2:0.2 3:0.142857 4:3.40743e-05 5:0.0284091 6:0.289272 
0.0001038503053119051 1:1.24436e-08 2:0.2 3:0.142857 4:3.74167e-05 5:0.0284091 6:0.284715 
0.0001038503050898095 1:8.52285e-09 2:0.2 3:0.142857 4:3.74167e-05 5:0.0284091 6:0.284715 
0.0001038503048815566 1:4.84647e-09 2:0.2 3:0.142857 4:3.74167e-05 5:0.0284091 6:0.284715 
0.0001038503048126397 1:3.62985e-09 2:0.2 3:0.142857 4:3.74167e-05 5:0.0284091 6:0.284715 
0.0004731293638945959 1:0.000473011 2:0.4 3:0.142857 4:0.0837339 5:0.0227273 6:0.731055 7:0.0368951 
0.0002750283077297358 1:0.000473011 2:0.4 3:0.142857 4:0.00729031 5:0.289773 6:0.648204 7:0.0643389 
0.0002750015135098123 1:9.09345e-10 2:0.4 3:0.142857 4:0.00729031 5:0.289773 6:0.648204 7:0.0643389 
0.0003569390142306646 1:1.36332e-08 2:0.2 4:0.00729031 5:0.289773 6:0.648204 7:0.0643389 
0.0002743323766863093 1:0.000473011 2:0.4 3:0.142857 4:0.00476145 5:0.0397727 6:0.472729 7:0.0118829 
0.000281208977926947 1:9.09345e-10 2:0.4 3:0.142857 4:0.00492894 5:0.0113636 6:0.462058 
0.000180223501357813 1:9.09345e-10 2:0.4 3:0.142857 4:0.00044928 5:0.244318 6:0.476763 
0.000215272780721965 1:0.000473011 2:0.4 3:0.142857 4:0.125459 5:0.00568182 6:0.349806 7:0.110317 
0.0002109495921640354 1:0.000473011 2:0.4 3:0.142857 4:0.0962951 5:0.00568182 6:0.349806 7:0.110317 
0.0002339268595086253 1:0.000473011 2:0.4 3:0.142857 4:0.00423094 5:0.0284091 6:0.406176 
0.0002429965361366301 1:9.09345e-10 2:0.4 3:0.142857 4:0.000529724 5:0.00568182 6:0.404538 
0.0002323327161021613 1:9.09345e-10 2:0.4 3:0.142857 4:0.000604185 5:0.00568182 6:0.389286 
0.0002323327161021613 1:9.09345e-10 2:0.4 3:0.142857 4:0.000604185 5:0.00568182 6:0.389286 
4.877004768445921e-05 1:9.09345e-10 2:0.4 3:0.142857 4:0.00161169 5:0.414773 6:0.405763 7:0.0137987 
4.877004768445921e-05 1:9.09345e-10 2:0.4 3:0.142857 4:0.00161169 5:0.414773 6:0.405763 7:0.0137987 
0.0002246813686038601 1:9.09345e-10 2:0.4 3:0.142857 4:0.000806852 5:0.00568182 6:0.378311 
0.0002246813686038601 1:9.09345e-10 2:0.4 3:0.142857 4:0.000806852 5:0.00568182 6:0.378311 
0.0002038238995950754 1:9.09345e-10 2:0.4 3:0.142857 4:0.00065563 5:0.0113636 6:0.352397 
0.0003329693320378485 1:1.36332e-08 2:0.2 4:0.00483729 5:0.0795455 6:0.465755 7:0.00521409 
-3.393750903883276e-06 1:9.09345e-10 2:0.4 3:0.142857 4:0.0032289 5:0.414773 6:0.33089 7:0.0137987 
0.000315837566009554 1:1.36332e-08 2:0.2 4:0.00423094 5:0.0284091 6:0.406176 
0.0003155610165048018 1:1.36332e-08 2:0.2 4:0.0091343 5:0.0170455 6:0.397033 
0.0002777548072753268 1:1.36332e-08 2:0.2 4:0.00297135 5:0.0454545 6:0.363595 
7.854374981696889e-05 1:1.36332e-08 2:0.2 4:0.0032289 5:0.414773 6:0.33089 7:0.0137987 
0.0001531981421060969 1:0.00042948 2:0.2 3:0.428571 4:0.63146 5:0.142045 6:0.731165 7:0.693787 
1.074820008658167e-06 1:5.57969e-08 2:0.4 3:0.428571 4:0.00158561 5:0.00568182 6:0.419729 
-0.0001234067615983285 1:0.00042948 2:0.2 3:0.428571 4:0.0218601 5:0.295455 6:0.497989 7:0.00381136 
-1.99697883561333e-05 1:5.57969e-08 2:0.4 3:0.428571 4:0.00564631 5:0.0227273 6:0.400954 7:0.00571156 
-9.937829404402696e-05 1:5.57969e-08 2:0.4 3:0.428571 4:0.00379714 5:0.159091 6:0.379812 
-5.832430040544087e-05 1:5.57969e-08 2:0.4 3:0.428571 4:0.00148004 5:0.0113636 6:0.339281 7:0.0052663 
-7.836282611963398e-05 1:5.57969e-08 2:0.4 3:0.428571 4:0.00387862 5:0.0170455 6:0.313454 
-5.62812513644636e-05 1:0.00042948 2:0.2 3:0.428571 4:0.00277632 5:0.00568182 6:0.400956 
-0.0001437716715202799 1:0.00042948 2:0.2 3:0.428571 4:0.00379714 5:0.159091 6:0.379812 
-0.0003130539886699073 1:5.57969e-08 2:0.4 3:0.428571 4:0.0050502 5:0.414773 6:0.249911 7:0.0213173 
-0.0001227562035958868 1:0.00042948 2:0.2 3:0.428571 4:0.00387862 5:0.0170455 6:0.313454 
0.0001760339617683666 1:2.95399e-08 2:0.2 3:0.142857 4:0.000153828 5:0.00568182 6:0.372406 
0.0001691227484624989 1:2.95399e-08 2:0.2 3:0.142857 4:0.00210743 5:0.0113636 6:0.366609 7:0.00617362 
0.0001504028502571193 1:2.95399e-08 2:0.2 3:0.142857 4:0.00015187 5:0.0284091 6:0.351204 
0.0001509802714164212 1:2.95399e-08 2:0.2 3:0.142857 4:0.00128333 5:0.00568182 6:0.336557 7:0.00180723 
0.0001504750583099524 1:2.95399e-08 2:0.2 3:0.142857 4:0.000196351 5:0.00568182 6:0.335879 
-0.00035744736614616 1:0.00042948 2:0.2 3:0.428571 4:0.0050502 5:0.414773 6:0.249911 7:0.0213173 
0.0002496520187809985 1:0.000223 2:0.2 3:0.428571 4:0.61614 5:0.0227273 6:0.730873 7:0.10797 
-5.0889048453564e-09 1:0.000223 2:0.2 3:0.428571 4:0.0301528 5:0.244318 6:0.656604 7:0.185459 
0.0002526926849813893 1:9.59109e-09 2:0.2 3:0.142857 4:0.0301528 5:0.244318 6:0.656604 7:0.185459 
-9.051435702085133e-05 1:0.000223 2:0.2 3:0.428571 4:0.00689188 5:0.244318 6:0.532213 7:0.185459 
0.0001270774109145285 1:9.61655e-06 2:0.2 3:0.285714 4:0.0008384 5:0.0909091 6:0.540666 
-0.0001499313222570902 1:0.000223 2:0.2 3:0.428571 4:0.0107322 5:0.289773 6:0.458217 
-0.0001138360052440858 1:0.000223 2:0.2 3:0.428571 4:0.014897 5:0.164773 6:0.424104 
7.552214085615087e-05 1:9.61655e-06 2:0.2 3:0.285714 4:0.00428434 5:0.0113636 6:0.430143 7:0.172919 
0.0001027664516291447 1:9.59109e-09 2:0.2 3:0.142857 4:0.0107322 5:0.289773 6:0.458217 
0.000195987747642088 1:2.06014e-08 2:0.2 3:0.142857 4:0.00218463 5:0.0113636 6:0.430143 7:0.250193 
-0.0001943616558126536 1:2.23614e-08 3:0.428571 4:0.0107322 5:0.289773 6:0.458217 
-0.0001943616567442387 1:5.91572e-09 3:0.428571 4:0.0107322 5:0.289773 6:0.458217 
-8.184834847465645e-05 1:5.91572e-09 3:0.428571 4:0.000373854 5:0.0227273 6:0.439997 
-8.672166118867472e-05 1:2.23614e-08 3:0.428571 4:0.000680235 5:0.0170455 6:0.430143 7:0.00997213 
-0.0001039761197556744 1:0.000223 2:0.2 3:0.428571 4:0.00778269 5:0.00568182 6:0.331767 
2.894032853328378e-05 1:1.37192e-07 2:0.2 3:0.285714 4:0.00440519 5:0.0284091 6:0.358254 7:0.00931138 
2.848796285466163e-05 1:9.61655e-06 2:0.2 3:0.285714 4:0.00161221 5:0.0113636 6:0.34681 7:0.0110144 
0.0001675883259235241 1:2.06014e-08 2:0.2 3:0.142857 4:0.000747845 5:0.0284091 6:0.375632 
0.000167588325299832 1:9.59109e-09 2:0.2 3:0.142857 4:0.000747845 5:0.0284091 6:0.375632 
2.606027685254311e-05 1:1.37192e-07 2:0.2 3:0.285714 4:0.000920728 5:0.00568182 6:0.338498 
-5.11245734531482e-05 1:9.61655e-06 2:0.2 3:0.285714 4:0.00119816 5:0.176136 6:0.344556 7:0.00734204 
5.834874890747839e-05 1:9.59109e-09 3:0.142857 4:0.0107322 5:0.289773 6:0.458217 
-0.0001295397821419662 1:2.23614e-08 3:0.428571 4:0.000747845 5:0.0284091 6:0.375632 
-0.0001295397830735514 1:5.91572e-09 3:0.428571 4:0.000747845 5:0.0284091 6:0.375632 
0.0001526148530571022 1:2.06014e-08 2:0.2 3:0.142857 4:0.000315766 5:0.00568182 6:0.338911 
-8.763031660167933e-06 1:9.61655e-06 2:0.2 3:0.285714 4:0.000973661 5:0.0284091 6:0.30415 
0.0001465404060014489 1:9.59109e-09 2:0.2 3:0.142857 4:0.00326652 5:0.00568182 6:0.329607 
-2.897903267539036e-06 1:9.61655e-06 2:0.2 3:0.285714 4:0.00119971 5:0.0113636 6:0.300918 
0.0001274487356579008 1:9.59109e-09 2:0.2 3:0.142857 4:0.000787721 5:0.0284091 6:0.318273 
-1.374316385727667e-05 1:1.37192e-07 2:0.2 3:0.285714 4:0.00110358 5:0.00568182 6:0.281589 
0.0001165177384167255 1:9.59109e-09 2:0.2 3:0.142857 4:0.000584858 5:0.0284091 6:0.302698 
-0.0003355216390429441 1:2.23614e-08 3:0.428571 4:0.000972172 5:0.414773 6:0.343401 
0.0001231706225781656 1:9.59109e-09 3:0.142857 4:0.000747845 5:0.0284091 6:0.375632 
0.0001125134854882658 1:2.06014e-08 2:0.2 3:0.142857 4:0.000438791 5:0.00568182 6:0.281589 
-4.432557253866737e-05 1:1.37192e-07 2:0.2 3:0.285714 4:0.00380045 5:0.0113636 6:0.241177 
-6.410080728703639e-05 1:1.37192e-07 2:0.2 3:0.285714 4:0.0239374 5:0.00568182 6:0.206544 7:0.0168818 
-0.0001846146225772244 1:2.23614e-08 3:0.428571 4:0.000438791 5:0.00568182 6:0.281589 
-0.0001846146235088096 1:5.91572e-09 3:0.428571 4:0.000438791 5:0.00568182 6:0.281589 
0.0001081971497117436 1:9.59109e-09 3:0.142857 4:0.000315766 5:0.00568182 6:0.338911 
-9.585874096023429e-05 1:1.37192e-07 2:0.2 3:0.285714 4:0.026956 5:0.0340909 6:0.178062 
-0.0001099599794790504 1:2.06014e-08 2:0.2 3:0.142857 4:0.000837363 5:0.414773 6:0.241177 
-0.0004070880884761259 1:5.91572e-09 3:0.428571 4:0.000837363 5:0.414773 6:0.241177 
-3.099649455546547e-05 1:2.06014e-08 2:0.2 3:0.142857 4:0.000375119 5:0.164773 6:0.18449 
-0.0002742370043849133 1:2.23614e-08 3:0.428571 4:0.000785208 5:0.0511364 6:0.185145 7:0.00816748 
-0.0003281246035525409 1:5.91572e-09 3:0.428571 4:0.000375119 5:0.164773 6:0.18449 
-7.541419790082399e-05 1:9.59109e-09 3:0.142857 4:0.000375119 5:0.164773 6:0.18449 
0.0001260978014969481 1:0.000369368 2:0.4 3:0.285714 4:0.00179581 5:0.0113636 6:0.422583 7:0.00947521 
9.282955780090169e-05 1:0.000369368 2:0.4 3:0.285714 4:0.0018802 5:0.0113636 6:0.374055 
-4.219107051386071e-06 1:0.000369368 2:0.4 3:0.285714 4:0.00782741 5:0.164773 6:0.338675 7:0.00449774 
-1.322171837739118e-05 1:0.000369368 2:0.4 3:0.285714 4:0.00278662 5:0.176136 6:0.334826 7:0.0067973 
-0.0001352782842375223 1:0.000369368 2:0.4 3:0.285714 4:0.00634249 5:0.414773 6:0.342485 7:0.209514 
5.2629634877009e-05 1:0.000369368 2:0.4 3:0.285714 4:0.00197266 5:0.00568182 6:0.312744 
-9.696612256227735e-05 1:7.08576e-07 2:0.2 3:0.142857 4:0.0925789 5:1 6:0.731009 7:0.908204 
-9.69661624280761e-05 1:4.8076e-09 2:0.2 3:0.142857 4:0.0925789 5:1 6:0.731009 7:0.908204 
0.00032424880837091 1:7.08576e-07 2:0.2 3:0.142857 4:0.0216369 5:0.181818 6:0.704891 7:0.0559857 
0.0003242487685051111 1:4.8076e-09 2:0.2 3:0.142857 4:0.0216369 5:0.181818 6:0.704891 7:0.0559857 
-0.0001469827918629351 1:7.08576e-07 2:0.2 3:0.142857 4:0.107519 5:1 6:0.656382 7:0.908204 
0.0002491962699066448 1:4.8076e-09 2:0.2 3:0.142857 4:0.00137047 5:0.00568182 6:0.476681 
0.0001221148875653511 1:7.08576e-07 2:0.2 3:0.142857 4:0.00392993 5:0.261364 6:0.468108 7:0.000766944 
-0.0003052932047002342 1:7.08576e-07 2:0.2 3:0.142857 4:0.00389984 5:1 6:0.452138 7:0.908204 
0.0001462522987108547 1:7.08576e-07 2:0.2 3:0.142857 4:0.00637611 5:0.0113636 6:0.332577 7:0.00180007 
0.0004326178649551937 1:0.000521679 2:0.4 3:0.142857 4:0.0278586 5:0.0397727 6:0.731103 7:0.371762 
0.0002907513852452676 1:0.000521679 2:0.4 3:0.142857 4:0.0130384 5:0.289773 6:0.662812 
0.0002176955862929981 1:0.000521679 2:0.4 3:0.142857 4:0.0340816 5:0.0284091 6:0.37868 7:0.0195977 
0.0001776106376610655 1:0.000521679 2:0.4 3:0.142857 4:0.0395154 5:0.0681818 6:0.349636 7:0.0428356 
0.0002020416675087018 1:0.000521679 2:0.4 3:0.142857 4:0.00769866 5:0.00568182 6:0.344462 
0.0001676605067707735 1:0.000521679 2:0.4 3:0.142857 4:0.00503557 5:0.00568182 6:0.295903 
0.0003865126076443007 1:0.000562202 2:0.2 3:0.142857 4:0.961827 5:0.380682 6:0.826431 7:0.994986 
0.000229377487886458 1:0.000562202 2:0.2 3:0.142857 4:0.000411366 5:0.00568182 6:0.448522 
-2.048668244946553e-05 1:0.000562202 2:0.2 3:0.142857 4:0.000378429 5:0.380682 6:0.448553 7:0.994986 
0.0001824215200117221 1:1.95756e-08 2:0.2 3:0.142857 4:1.88044e-05 5:0.00568182 6:0.381561 
0.0001695781453629316 1:1.95756e-08 2:0.2 3:0.142857 4:1.45232e-05 5:0.0340909 6:0.382485 
0.0001572078382911583 1:1.95756e-08 2:0.2 3:0.142857 4:9.44908e-06 5:0.0284091 6:0.360962 7:4.86642e-05 
0.0001600814302061703 1:1.95756e-08 2:0.2 3:0.142857 4:1.39686e-05 5:0.00568182 6:0.349643 
0.000150793103473325 1:1.95756e-08 2:0.2 3:0.142857 4:1.7297e-05 5:0.0113636 6:0.340226 
0.0001352951604328178 1:0.000562202 2:0.2 3:0.142857 4:0.000386255 5:0.0340909 6:0.333378 
0.0001280250189405138 1:0.000562202 2:0.2 3:0.142857 4:0.000484148 5:0.0113636 6:0.307564 7:0.0001252 
0.0001134098897258539 1:0.000562202 2:0.2 3:0.142857 4:0.000707133 5:0.0113636 6:0.286635 7:0.0001252 
0.0001127631753687364 1:6.10073e-07 3:0.142857 4:4.17842e-05 5:0.0568182 6:0.380185 
0.0002391183465935552 1:5.40437e-08 4:4.17842e-05 5:0.0568182 6:0.380185 
4.007505881277535e-05 1:6.10073e-07 3:0.142857 4:3.90186e-06 5:0.176136 6:0.357286 
-7.037876219405735e-05 1:6.10073e-07 3:0.142857 4:1.93403e-05 5:0.414773 6:0.361366 
-7.427268402293772e-05 1:6.10073e-07 3:0.142857 4:2.14695e-05 5:0.414773 6:0.355802 
-8.330022564541923e-05 1:6.10073e-07 3:0.142857 4:2.92552e-05 5:0.414773 6:0.342902 
-8.966104175075438e-05 1:6.10073e-07 3:0.142857 4:1.61191e-08 5:0.414773 6:0.33382 
5.597640903076131e-05 1:5.40437e-08 4:1.93403e-05 5:0.414773 6:0.361366 
3.669412947406444e-05 1:5.40437e-08 4:1.61191e-08 5:0.414773 6:0.33382 
0.0002253312889809335 1:0.000370255 2:0.2 3:0.142857 4:0.176985 5:0.414773 6:0.731068 7:0.467091 
0.0001047629574955237 1:0.000370255 2:0.2 3:0.142857 4:0.000362448 5:0.159091 6:0.374578 
0.0001484462372090123 1:0.000370255 2:0.2 3:0.142857 4:0.000113237 5:0.0397727 6:0.356096 
0.0001124697852324486 1:0.000370255 2:0.2 3:0.142857 4:0.00015713 5:0.0909091 6:0.33939 7:0.000130464 
0.0001471314630842797 1:0.000370255 2:0.2 3:0.142857 4:0.000137055 5:0.0113636 6:0.334939 
0.0001346774229750932 1:0.000370255 2:0.2 3:0.142857 4:0.000618878 5:0.0227273 6:0.324952 7:0.00193626 
0.0003598135309782828 1:0.00109657 2:0.4 3:0.142857 4:0.294117 5:0.289773 6:0.731027 7:0.282348 
0.0003153337122600737 1:9.1283e-09 2:0.2 3:0.142857 4:0.294117 5:0.289773 6:0.731027 7:0.282348 
0.0002447437364847126 1:0.00109657 2:0.4 3:0.142857 4:0.00138231 5:0.00568182 6:0.408244 7:0.0143405 
5.215463659096148e-05 1:0.00109657 2:0.4 3:0.142857 4:0.00205544 5:0.414773 6:0.408993 
0.0001901417502401013 1:0.00109657 2:0.4 3:0.142857 4:0.0014714 5:0.0795455 6:0.379439 7:0.00577895 
0.0001512461496602607 1:0.00109657 2:0.4 3:0.142857 4:0.00112832 5:0.164773 6:0.382102 7:0.00910541 
-3.840916908297962e-06 1:0.00109657 2:0.4 3:0.142857 4:0.000897721 5:0.414773 6:0.329233 
0.0001203408477799034 1:9.1283e-09 2:0.2 3:0.142857 4:0.000650734 5:0.176136 6:0.408368 
7.674817872752618e-06 1:9.1283e-09 2:0.2 3:0.142857 4:0.00205544 5:0.414773 6:0.408993 
0.0001067663309420518 1:9.1283e-09 2:0.2 3:0.142857 4:0.00112832 5:0.164773 6:0.382102 7:0.00910541 
-2.12209684338251e-05 1:9.1283e-09 2:0.2 3:0.142857 4:0.000220406 5:0.414773 6:0.368096 
6.502374505334293e-05 1:9.1283e-09 2:0.2 3:0.142857 4:0.00022652 5:0.176136 6:0.329422 
0.0003885182466720763 1:0.000170688 2:0.2 3:0.142857 4:0.17858 5:0.0454545 6:0.731063 7:0.638847 
0.0002954552694948374 1:0.000170688 2:0.2 3:0.142857 4:0.0149939 5:0.0852273 6:0.601639 7:0.0756097 
0.0002261174897744514 1:1.03125e-08 2:0.2 3:0.142857 4:0.000131776 5:0.0397727 6:0.467097 
-0.0001991036177496883 1:0.000170688 2:0.2 3:0.142857 4:0.0107826 5:1 6:0.509806 7:0.010503 
0.0001782898199917099 1:0.000170688 2:0.2 3:0.142857 4:0.0747769 5:0.0113636 6:0.36693 7:0.0316594 
0.0001711155924656763 1:0.000170688 2:0.2 3:0.142857 4:0.0207665 5:0.00568182 6:0.361523 7:0.00507898 
-0.000113031826136355 1:1.96028e-09 4:0.00227574 5:1 6:0.534735 7:0.177342 
0.000152284325588896 1:1.03125e-08 2:0.2 3:0.142857 4:0.00389517 5:0.0227273 6:0.349656 7:0.00398797 
0.000149810705817482 1:0.000170688 2:0.2 3:0.142857 4:0.0160698 5:0.00568182 6:0.331554 
-0.0001758336386801551 1:1.96028e-09 4:0.000260453 5:1 6:0.445432 7:0.177342 
0.0001429686694829381 1:1.96028e-09 4:0.00246838 5:0.181818 6:0.341642 7:0.141028 
0.0001136523613955591 1:1.96028e-09 4:7.0761e-05 5:0.261364 6:0.340338 7:0.00633384 
0.0002089040964867132 1:1.96028e-09 4:0.000600669 5:0.00568182 6:0.302205 
-0.0002427766168011514 1:1.96028e-09 4:0.000871219 5:1 6:0.349656 7:0.177342 
4.673972770347226e-06 1:0.000416059 2:0.4 3:0.571429 4:0.584578 5:0.113636 6:0.61778 7:0.607432 
1.650349290054152e-05 1:0.000416059 2:0.4 3:0.571429 4:0.10671 5:0.0170455 6:0.61778 7:0.0975599 
-0.0003300809192581215 1:0.000416059 2:0.4 3:0.571429 4:0.000686211 5:0.420455 6:0.408665 
-0.0003438463915295126 1:0.000416059 2:0.4 3:0.571429 4:0.00123484 5:0.420455 6:0.388881 
-0.0002609113094752714 1:0.000416059 2:0.4 3:0.571429 4:0.00143738 5:0.125 6:0.307243 7:0.00342343 
-0.000294969320836741 1:0.000416059 2:0.4 3:0.571429 4:0.000654928 5:0.0227273 6:0.18901 
0.0003074658317226685 1:0.000117874 2:0.2 3:0.142857 4:0.887163 5:0.420455 6:0.731012 7:0.749559 
0.0004072347009141024 1:0.000117874 2:0.2 3:0.142857 4:0.000739379 5:0.0227273 6:0.714171 
0.0001174108729962204 1:0.000117874 2:0.2 3:0.142857 4:0.00045636 5:0.420455 6:0.647269 7:0.749559 
0.000193560735420202 1:0.000117874 2:0.2 3:0.142857 4:0.00153736 5:0.125 6:0.478604 7:0.00494804 
-3.957657786540893e-05 1:0.000117874 2:0.2 3:0.142857 4:0.0032506 5:0.420455 6:0.422377 7:0.749559 
0.0001785830375916069 1:0.000117874 2:0.2 3:0.142857 4:0.00138861 5:0.00568182 6:0.375777 
0.0004504250647081976 1:0.00085927 2:0.4 3:0.142857 4:0.940446 5:0.244318 6:0.754604 7:0.881807 
0.0002780071644710829 1:0.00085927 2:0.4 3:0.142857 4:0.00257447 5:0.0227273 6:0.465771 7:0.00144607 
0.0001514047194084466 1:0.00085927 2:0.4 3:0.142857 4:0.00044746 5:0.289773 6:0.466356 
0.0001824973526405069 1:0.00085927 2:0.4 3:0.142857 4:0.000954983 5:0.164773 6:0.426847 7:0.00947442 
0.0001666203001379717 1:0.00085927 2:0.4 3:0.142857 4:0.00169257 5:0.164773 6:0.404006 7:0.00947442 
2.891846638549408e-05 1:0.00085927 2:0.4 3:0.142857 4:0.000594833 5:0.176136 6:0.214225 
0.000115819714904285 1:1.44488e-08 3:0.142857 4:7.94637e-05 5:0.00568182 6:0.349852 
8.6291343636138e-05 1:1.44488e-08 3:0.142857 4:4.83632e-05 5:0.00568182 6:0.307905 7:0.0022873 
0.0004482848743375945 1:0.000406294 2:0.4 3:0.142857 4:0.456116 5:0.113636 6:0.731081 7:0.548018 
0.0002730738737109616 1:0.000406294 2:0.4 3:0.142857 4:0.00143833 5:0.0113636 6:0.451522 7:0.00369267 
7.33729043702357e-05 1:0.000406294 2:0.4 3:0.142857 4:0.00105858 5:0.420455 6:0.443431 
0.0002286331570496265 1:1.88511e-08 2:0.2 3:0.142857 4:0.00143833 5:0.0113636 6:0.451522 7:0.00369267 
2.893218770890044e-05 1:1.88511e-08 2:0.2 3:0.142857 4:0.00105858 5:0.420455 6:0.443431 
0.0001564561245850895 1:0.000406294 2:0.4 3:0.142857 4:0.00158815 5:0.0227273 6:0.292198 
7.00032957738252e-05 1:0.000406294 2:0.4 3:0.142857 4:0.00530012 5:0.125 6:0.237611 7:0.00326519 
0.0001212412728171146 1:1.88511e-08 2:0.2 3:0.142857 4:0.000448912 5:0.0227273 6:0.305621 
0.0001120154079237544 1:1.88511e-08 2:0.2 3:0.142857 4:0.00158815 5:0.0227273 6:0.292198 
2.556257911249006e-05 1:1.88511e-08 2:0.2 3:0.142857 4:0.00530012 5:0.125 6:0.237611 7:0.00326519 
5.627646298879759e-05 1:0.000406294 2:0.4 3:0.142857 4:0.00219722 5:0.00568182 6:0.137801 7:0.00417475 
7.450856532268746e-05 1:1.88511e-08 2:0.2 3:0.142857 4:0.000639048 5:0.00568182 6:0.227246 
0.0003115764296732684 1:0.000573223 2:0.6 3:0.428571 4:0.688244 5:0.0568182 6:0.755803 7:0.646615 
0.0001076737210127166 1:0.000573223 2:0.6 3:0.428571 4:0.0098558 5:0.0397727 6:0.530903 7:0.009704 
-3.512653714290837e-05 1:0.000573223 2:0.6 3:0.428571 4:0.00356562 5:0.289773 6:0.496811 
-3.971813510194307e-05 1:0.000573223 2:0.6 3:0.428571 4:0.00768528 5:0.164773 6:0.404575 
8.749655219880543e-06 1:0.000573223 2:0.6 3:0.428571 4:0.00617738 5:0.0284091 6:0.382191 7:0.00542571 
7.943028776608349e-06 1:0.000573223 2:0.6 3:0.428571 4:0.00382589 5:0.00568182 6:0.366466 7:0.00880192 
3.2882508842782e-05 1:0.000433983 2:0.4 3:0.428571 4:0.00303262 5:0.289773 6:0.657568 
0.0001048700150039635 1:0.000433983 2:0.4 3:0.428571 4:0.0350777 5:0.0113636 6:0.579183 7:0.139896 
-3.566021068883806e-05 1:0.000433983 2:0.4 3:0.428571 4:0.00537256 5:0.164773 6:0.474337 
-7.869670559375213e-05 1:0.000433983 2:0.4 3:0.428571 4:0.00312375 5:0.244318 6:0.467289 
6.387115289078772e-06 1:0.000433983 2:0.4 3:0.428571 4:0.00198207 5:0.00568182 6:0.4272 
-0.0002114042695256134 1:0.000433983 2:0.4 3:0.428571 4:0.00186436 5:0.414773 6:0.393587 
0.0004197261004523591 1:0.000343701 2:0.4 3:0.285714 4:0.00675146 5:0.0397727 6:0.890856 7:0.305382 
0.000232867249918696 1:0.000343701 2:0.4 3:0.285714 4:0.0240541 5:0.0681818 6:0.63453 7:0.257337 
0.0002328477807163045 1:2.64959e-09 2:0.4 3:0.285714 4:0.0240541 5:0.0681818 6:0.63453 7:0.257337 
0.0003261117348725281 1:1.07574e-08 2:0.2 3:0.142857 4:0.00957144 5:0.0681818 6:0.63453 7:0.0706794 
