svm_type epsilon_svr
kernel_type linear
nr_class 2
total_sv 17817
rho -0.109169
SV
-0.007486416236406023 17655:1 144827:1 240569:1 788303:1 957175:1 
-0.02291760164374502 205861:1 477828:1 628335:1 676039:1 893342:1 
-0.001193837131693418 55371:1 363738:1 480953:1 737001:1 748933:1 
0.6487599924657531 166770:1 278633:1 280119:1 394680:1 1104010:1 
-0.009210166118596583 65981:1 170391:1 201375:1 666835:1 752987:1 791738:1 
-0.02929304000606339 16791:1 171555:1 297610:1 379390:1 664157:1 1100561:1 
-0.0126213914828337 50375:1 77705:1 362142:1 550081:1 853092:1 1094527:1 
0.2618595550487231 458108:1 633884:1 821942:1 827298:1 1012850:1 1083428:1 
-0.01491044602280967 16903:1 49212:1 328062:1 695070:1 742212:1 831980:1 953778:1 
-0.0003046626855851673 55887:1 56628:1 391482:1 675274:1 969322:1 984032:1 1034688:1 
-0.01309920516823217 104484:1 155279:1 185929:1 196094:1 534904:1 601379:1 613153:1 686841:1 
-0.003876699032830727 12618:1 32064:1 98315:1 165376:1 411103:1 442454:1 1046220:1 1049301:1 
-0.0560604934128925 122971:1 135768:1 244774:1 254702:1 465152:1 754203:1 818403:1 900597:1 
-0.008448155076539891 78949:1 257743:1 301012:1 388977:1 607297:1 870791:1 890395:1 926140:1 
0.01301977930566285 110224:1 110536:1 198481:1 248971:1 603754:1 757239:1 819867:1 1008391:1 
0.05654755982815098 14879:1 51542:1 142783:1 270743:1 445674:1 483834:1 500890:1 875048:1 
-0.002381407139782169 20514:1 59398:1 587548:1 703641:1 
-0.001729569002150233 321626:1 452305:1 530384:1 536408:1 
-0.1662071540949827 194373:1 774407:1 1097872:1 1102906:1 
0.2490081100351631 10239:1 177537:1 513238:1 599493:1 
-0.06244528655864236 156667:1 164702:1 356444:1 779296:1 962029:1 1045120:1 
-0.00390494203605596 31062:1 273523:1 312764:1 472497:1 616200:1 1051910:1 
0.009634288577940469 9459:1 333334:1 725027:1 768271:1 891897:1 929939:1 
0.1555049996483494 64550:1 97363:1 196932:1 625100:1 839072:1 1002330:1 
-0.009062590805670923 101827:1 356814:1 774367:1 841264:1 894622:1 
-0.01287068439620015 19006:1 153155:1 581127:1 638054:1 1006750:1 
-0.02784918463864411 11129:1 225119:1 238830:1 671366:1 758609:1 
-0.01377534423206063 52468:1 78561:1 522624:1 755009:1 1021429:1 
-0.4155378425974062 270743:1 384917:1 445674:1 850245:1 1078577:1 
-0.003639578287452385 57148:1 86329:1 116457:1 894000:1 1101193:1 1114835:1 
-0.005657815206623858 134840:1 178561:1 514512:1 835518:1 984974:1 1027676:1 
-0.005299242064614352 313998:1 350339:1 534904:1 847583:1 988910:1 992538:1 
-0.01009298884386358 213694:1 510965:1 697675:1 903748:1 967421:1 1034694:1 
-0.001816248731594794 37776:1 278301:1 322742:1 420370:1 585310:1 888868:1 
-0.01670492155816299 94759:1 223787:1 267839:1 402844:1 781212:1 1046642:1 
0.01485296933989705 68692:1 132087:1 182577:1 465578:1 559431:1 760129:1 
-0.007521477870892308 69391:1 236198:1 501213:1 689471:1 724666:1 
-0.05584316576123852 282570:1 282676:1 887637:1 891647:1 944796:1 
0.174213146219968 287503:1 380432:1 847409:1 901544:1 1023839:1 
0.003912864355199997 147074:1 297405:1 575824:1 801983:1 820845:1 881223:1 945796:1 1076859:1 
-0.001626060917773022 98318:1 153411:1 719114:1 865657:1 909415:1 989234:1 1003171:1 1093873:1 
-0.006564205155016855 58254:1 152912:1 366479:1 399530:1 609389:1 731500:1 823832:1 1063437:1 
-0.00121174298195877 11385:1 220714:1 491290:1 690459:1 709016:1 760967:1 999415:1 1029768:1 
-0.006983576376283779 145801:1 178561:1 192396:1 252501:1 281761:1 401981:1 689513:1 712021:1 
-0.00118010115561092 202005:1 360239:1 514453:1 561738:1 984226:1 1039134:1 1051205:1 1104870:1 
-0.07708734098066583 75683:1 366557:1 415434:1 516250:1 565165:1 754703:1 832511:1 1099508:1 
-0.0123781565179176 81084:1 165957:1 499251:1 508591:1 858984:1 922141:1 1093597:1 
-0.005537414160432809 130113:1 514177:1 617539:1 899681:1 918733:1 1031140:1 1048057:1 
-0.001743453856004565 264673:1 448261:1 448687:1 612157:1 858413:1 982618:1 1011614:1 
0.2096493287000603 183519:1 217410:1 575042:1 643338:1 828216:1 916541:1 983412:1 
-0.07190700430623934 125368:1 273644:1 420047:1 460379:1 786584:1 963865:1 
-0.02935778929781382 355320:1 406406:1 554123:1 714268:1 805038:1 1011868:1 
0.05631857084220423 215469:1 451829:1 551472:1 716267:1 753802:1 770483:1 
-0.0158892124489248 380411:1 395004:1 502647:1 680827:1 868351:1 935592:1 
-0.01466103541295756 98419:1 263337:1 271157:1 357704:1 536116:1 1039411:1 
-0.004793351836639101 47914:1 53006:1 152602:1 298230:1 392365:1 1041459:1 
0.9817852401824164 221397:1 812131:1 958943:1 982246:1 1084186:1 1116166:1 
-0.01232778538363917 48731:1 122091:1 318651:1 434923:1 525974:1 603741:1 
-0.02076762801176249 105915:1 138912:1 191319:1 378224:1 566852:1 999752:1 
-0.09279833132482343 133094:1 224283:1 394680:1 904695:1 1104010:1 1107788:1 
-0.02996673582657014 40887:1 254236:1 296388:1 332931:1 493604:1 725264:1 
-0.1416783910504904 136328:1 300779:1 535512:1 605846:1 683147:1 956238:1 
-0.003368021615879233 264950:1 317285:1 366658:1 369262:1 790660:1 835286:1 961034:1 
-0.001241792248917993 43531:1 141864:1 603754:1 633884:1 994308:1 1008391:1 1083428:1 
-0.0003999270264818898 64091:1 82349:1 82509:1 511847:1 537526:1 673204:1 1111671:1 
-0.004591038102287378 493216:1 500786:1 600426:1 636091:1 689985:1 1036671:1 1083779:1 
0.1132119191565703 106585:1 640957:1 780068:1 815024:1 952392:1 1032124:1 1059229:1 
-0.03057345227816217 11700:1 28554:1 173460:1 362830:1 407241:1 432889:1 657542:1 712852:1 
-0.001250754343397828 229134:1 240936:1 374236:1 603754:1 618190:1 633884:1 858481:1 965853:1 
0.02879110924559244 164645:1 244128:1 323746:1 771800:1 900747:1 931478:1 1030006:1 1066992:1 
-0.01995396026063256 59352:1 151805:1 202937:1 386186:1 612864:1 864421:1 918968:1 1076412:1 
-0.02923559463195957 12742:1 96879:1 174116:1 217410:1 770967:1 828216:1 930643:1 1044429:1 
-0.004153612564357497 314815:1 334117:1 416564:1 432302:1 468532:1 633881:1 852921:1 1018777:1 
-0.002199113113896099 3421:1 174374:1 207068:1 531757:1 569297:1 645130:1 704488:1 949342:1 
0.102667559111677 11300:1 258788:1 406300:1 686724:1 818072:1 824177:1 845026:1 894237:1 
-0.02500724843894875 246434:1 275658:1 394221:1 520980:1 532268:1 570753:1 877092:1 
-0.01994534019642851 204230:1 216437:1 442448:1 913584:1 951428:1 1024191:1 1115381:1 
-0.004447879810206667 106585:1 349397:1 411576:1 428390:1 438174:1 949285:1 1032124:1 
-0.01738686249996354 267205:1 320473:1 374143:1 466344:1 679279:1 715525:1 922303:1 
-0.007871060159377895 498146:1 539754:1 540441:1 675845:1 676618:1 719657:1 883147:1 
0.1956916786172236 146384:1 176200:1 361225:1 434671:1 511948:1 660376:1 881964:1 
-0.05931857067550174 105309:1 112798:1 249688:1 716670:1 916314:1 
-0.06091121047178585 56956:1 638496:1 693607:1 1009559:1 1012994:1 
0.06347583599597564 311114:1 315653:1 475712:1 706615:1 955798:1 
-0.1371238678125165 38846:1 442546:1 451829:1 459913:1 1040121:1 
-0.01664794320846609 51050:1 413960:1 544217:1 599756:1 1070739:1 
-0.01280907904080245 482585:1 708928:1 726893:1 826656:1 882596:1 
-0.04463127073271925 171220:1 446173:1 513457:1 583062:1 993042:1 
0.1397643673580349 326386:1 431149:1 808715:1 839504:1 930758:1 
-0.003961011771559195 99590:1 108174:1 135074:1 605846:1 691788:1 705599:1 840371:1 1112136:1 
-0.1075603028681852 219883:1 319011:1 473828:1 622903:1 728389:1 841693:1 941672:1 1110529:1 
-0.01158257400856485 2605:1 88183:1 267093:1 371074:1 438618:1 808572:1 840043:1 1028807:1 
-0.0001407325331078834 10688:1 257198:1 273204:1 342877:1 387186:1 491147:1 800939:1 868984:1 
0.1049267561719366 150121:1 230285:1 253359:1 296260:1 666122:1 710838:1 758669:1 959581:1 
-0.0006484598909460755 142210:1 544668:1 728098:1 746484:1 896297:1 1011043:1 
-0.04567687748753616 99335:1 367815:1 374143:1 394994:1 466344:1 559889:1 
-0.02025204490824424 140616:1 304157:1 684442:1 766465:1 1017351:1 1114197:1 
-0.00132618777417101 16903:1 70908:1 249865:1 404688:1 776210:1 867066:1 
0.170001805370056 210768:1 226413:1 378729:1 572325:1 877851:1 994191:1 
-0.01901281709434225 155633:1 276728:1 445674:1 454786:1 500890:1 520713:1 522405:1 933678:1 
-0.04871900362180898 278977:1 293168:1 431414:1 486228:1 603426:1 635197:1 728669:1 992411:1 
0.2162825494608233 226661:1 297348:1 467411:1 477828:1 780453:1 893342:1 1040480:1 1041145:1 
-0.003363746662049726 110738:1 376540:1 503419:1 811871:1 814416:1 886222:1 
0.003612449462243323 179445:1 481545:1 830377:1 845986:1 989024:1 1113956:1 
-0.004541397576734714 82495:1 230012:1 283784:1 441576:1 560554:1 876635:1 
0.009970047682791193 37162:1 328795:1 354926:1 382482:1 525916:1 548978:1 
-0.1154272070633325 242951:1 406406:1 554123:1 651319:1 651945:1 899043:1 
0.201845802144666 6519:1 34051:1 133507:1 271786:1 320085:1 684724:1 
-0.02929491915700147 145659:1 559786:1 616805:1 750389:1 1075962:1 1094448:1 
-0.001892142023226433 134153:1 349628:1 414207:1 661751:1 774864:1 975789:1 
-0.03411537162037426 9298:1 182577:1 275680:1 362303:1 381449:1 699082:1 
-0.01134552178101593 10956:1 282480:1 458412:1 486747:1 580436:1 645449:1 
-0.03166516786292441 282799:1 326490:1 330063:1 603754:1 691284:1 757239:1 
0.005790719381283517 457275:1 504450:1 921572:1 1015572:1 1021058:1 1047710:1 
-0.001326411644788 24431:1 86076:1 181891:1 186185:1 1015883:1 1040683:1 
-0.01710423494891249 28947:1 122342:1 612318:1 682383:1 749032:1 752361:1 
0.01015710266405708 40118:1 259412:1 311964:1 398049:1 614437:1 833625:1 
0.1470579961525076 407181:1 451307:1 581962:1 689985:1 982456:1 1008562:1 
-0.002084511507686864 123333:1 150517:1 211563:1 248948:1 259910:1 380742:1 1031109:1 1079913:1 
-0.03069834100688653 14363:1 115916:1 135710:1 344724:1 347439:1 387400:1 577251:1 598250:1 
-0.0005146860245866848 366075:1 581372:1 725037:1 814416:1 909771:1 1044542:1 1109459:1 1109631:1 
-0.008920659366504533 167134:1 252000:1 538806:1 594991:1 628207:1 878672:1 918688:1 1023923:1 
0.2979823692233051 356482:1 362747:1 405208:1 406406:1 447083:1 581605:1 714268:1 796389:1 
-0.005427399417779514 79789:1 186569:1 263190:1 696938:1 712996:1 1038166:1 1056081:1 
-0.00488645440493857 67156:1 215012:1 242972:1 520663:1 574796:1 904022:1 1103437:1 
-0.04590199151222773 9459:1 97456:1 354218:1 496531:1 618283:1 641551:1 647063:1 
-0.0008516902741783031 209826:1 221330:1 259206:1 672388:1 720956:1 915992:1 1010697:1 
-0.008942377718671853 63309:1 240482:1 296682:1 612664:1 692291:1 886390:1 982100:1 
0.02706396611545918 172530:1 235201:1 542119:1 620792:1 819100:1 910143:1 1115500:1 
-0.05215373676673971 67208:1 247905:1 386425:1 566057:1 941769:1 1008150:1 
-0.0004534201380574257 48457:1 314878:1 334044:1 553053:1 701845:1 771800:1 
-0.01814805225823965 148983:1 155165:1 385945:1 555512:1 620258:1 980076:1 
-0.001119576054500888 3792:1 86329:1 230685:1 692476:1 749642:1 1007203:1 
-0.006462403969948471 128251:1 167828:1 266013:1 317421:1 535095:1 939321:1 
-0.000217743379901196 254056:1 583606:1 598686:1 887708:1 975885:1 1007404:1 
0.2286513832874911 312190:1 727587:1 736381:1 808579:1 874571:1 983295:1 
-0.03122308147623814 173303:1 305100:1 763128:1 967298:1 
-0.09197314589636932 227439:1 242222:1 628800:1 806807:1 
-0.09828395040675453 142876:1 812131:1 829419:1 958943:1 
-0.02567616922724061 187570:1 420289:1 783894:1 1012283:1 
-0.02122089524813173 628063:1 696176:1 719226:1 1044183:1 
-0.01830560733126702 232364:1 241006:1 809769:1 960334:1 
-0.01475702693739278 139891:1 278977:1 492301:1 615399:1 
0.3943070987606058 311347:1 340799:1 925274:1 1098393:1 
-0.01958039352775202 427925:1 570982:1 898996:1 920695:1 1038502:1 1098064:1 
-0.006607390802086235 149098:1 201256:1 260421:1 775701:1 989848:1 1046734:1 
0.1201235482034176 340443:1 530156:1 556953:1 565165:1 995162:1 1024597:1 
0.01949193499945042 209428:1 528961:1 578062:1 846353:1 919198:1 953277:1 
-0.0002808162749041547 35070:1 399530:1 761283:1 937970:1 1026917:1 1116061:1 
-0.02853442948433632 23441:1 119257:1 255412:1 334410:1 819889:1 1043142:1 
-0.1094832406518716 287550:1 556418:1 642443:1 755079:1 911243:1 1096516:1 
-0.002745495536521456 263337:1 263861:1 521374:1 536116:1 637546:1 699438:1 
0.2519019010037252 179445:1 226289:1 402362:1 445946:1 481545:1 898662:1 
-0.0222860302896368 434046:1 448779:1 455190:1 583333:1 625577:1 721223:1 982201:1 1062961:1 
-0.0718176068929376 179445:1 402362:1 481545:1 653484:1 804346:1 822384:1 921781:1 1002130:1 
-0.01224729190468942 132978:1 189901:1 310477:1 500846:1 504907:1 643357:1 935906:1 939961:1 
-0.01442410318473969 53271:1 265924:1 282546:1 680746:1 706713:1 843089:1 867835:1 872022:1 
-0.05173707611120763 296859:1 408745:1 432108:1 497635:1 529494:1 566439:1 639795:1 693231:1 
0.08119437659781584 56956:1 322032:1 324354:1 650835:1 720610:1 809718:1 996232:1 1012994:1 
-0.1999355261277303 177126:1 314878:1 323746:1 325226:1 591507:1 612400:1 1047889:1 
-0.01244683395619177 181773:1 404786:1 451953:1 709844:1 729875:1 762009:1 815808:1 
-0.005804828818520706 264673:1 495410:1 571797:1 750277:1 874093:1 950874:1 1011614:1 
0.1111337888627434 12133:1 240051:1 309660:1 340333:1 402362:1 664148:1 822384:1 
-0.0005681599422078804 83847:1 160493:1 348989:1 542804:1 654491:1 909748:1 966418:1 1039663:1 
-0.007734669238995204 262269:1 283666:1 294253:1 320518:1 433656:1 905719:1 974650:1 1080099:1 
-0.01093548941005209 500846:1 544442:1 726383:1 874137:1 894380:1 939961:1 1057165:1 1104938:1 
-0.01785396798528922 169731:1 298438:1 407241:1 432889:1 712852:1 899780:1 920097:1 968030:1 
-8.709928557596289e-05 107735:1 267858:1 422007:1 578642:1 653093:1 857217:1 1018059:1 1093663:1 
0.04970220787598807 240485:1 345599:1 418209:1 713883:1 733362:1 855322:1 923307:1 1101958:1 
-0.008831411319305737 73144:1 133524:1 137000:1 142805:1 362320:1 647419:1 650073:1 1026359:1 1066809:1 1086723:1 1103165:1 
0.01989713250490738 80578:1 85605:1 240455:1 517135:1 599931:1 641844:1 807634:1 810237:1 819422:1 943557:1 955243:1 
-0.03181788296967768 73867:1 149892:1 273183:1 298477:1 482807:1 570711:1 788293:1 884758:1 1011463:1 1012783:1 1037821:1 
-0.01038446192126194 146296:1 266232:1 393174:1 485506:1 650844:1 863971:1 966373:1 1030196:1 
-0.06173647356887269 225418:1 599143:1 601754:1 641744:1 776399:1 951263:1 1024922:1 1056767:1 
-0.04279790188469297 92932:1 104190:1 399700:1 600715:1 696163:1 742755:1 1090366:1 1098390:1 
0.06636304298627348 6027:1 100814:1 151904:1 493751:1 502461:1 625100:1 639862:1 920809:1 
-0.02139073695103898 434943:1 436676:1 628063:1 723442:1 747250:1 1085608:1 1113984:1 
-0.0004081386353074003 23918:1 92280:1 177494:1 351841:1 802463:1 840799:1 1064532:1 
-0.001880230799053349 11011:1 124999:1 410215:1 435401:1 751014:1 880940:1 1049936:1 
-0.002372594744143831 39334:1 74124:1 340799:1 555719:1 695390:1 940979:1 1080261:1 
-0.0126792611458599 12854:1 271236:1 453981:1 532420:1 606934:1 829221:1 1096229:1 
-0.09735504533569928 83727:1 326386:1 431149:1 563261:1 563350:1 839504:1 1033048:1 
-0.0008910376828015223 109755:1 202005:1 360239:1 499366:1 509902:1 541811:1 566771:1 595054:1 707214:1 
-0.0208822771727841 8884:1 152673:1 237504:1 517512:1 641744:1 788144:1 848899:1 965790:1 1077018:1 
-0.01792932101909241 109753:1 203788:1 295133:1 394680:1 483462:1 621903:1 657818:1 952432:1 1104010:1 
-0.008624234179102996 9375:1 49975:1 378368:1 507281:1 621846:1 709012:1 794229:1 937186:1 966220:1 
-0.002787558305840179 85494:1 654818:1 759028:1 1021029:1 1052166:1 
-0.09069323349751507 169259:1 349104:1 700374:1 1017810:1 1026680:1 
-0.07332638512891987 344998:1 435759:1 640801:1 724308:1 783725:1 
-0.06423808096622052 122342:1 219411:1 254260:1 381842:1 863387:1 
0.02740063805906229 343482:1 535524:1 634027:1 776120:1 985414:1 
-0.003149864251166671 251032:1 344224:1 618245:1 670590:1 754506:1 987496:1 1087623:1 1095646:1 
0.04781588380932946 58847:1 102507:1 251343:1 298850:1 724309:1 735012:1 910175:1 1113430:1 
-0.01326525486431567 201454:1 322327:1 325405:1 376076:1 591966:1 706597:1 855588:1 1083905:1 
-0.03192212840922984 58544:1 150738:1 206584:1 323347:1 391655:1 894201:1 1083860:1 1098080:1 
-0.004997920500364966 69326:1 252609:1 277781:1 373849:1 420979:1 535740:1 730252:1 877491:1 
-0.003695349911974883 100274:1 268534:1 310501:1 610343:1 816384:1 887989:1 968749:1 1077988:1 
-0.07632725990274036 40733:1 239802:1 348562:1 697185:1 703301:1 786612:1 837204:1 965021:1 
-0.004930489838345859 48446:1 93188:1 170734:1 219548:1 384367:1 821782:1 949192:1 1038293:1 
-0.002477977424507196 94568:1 144476:1 226989:1 232015:1 285613:1 365342:1 448628:1 855141:1 
-0.01302176720834235 166086:1 191066:1 319430:1 380432:1 666601:1 671422:1 967168:1 1058648:1 
0.0319670632492869 37386:1 172569:1 216437:1 257821:1 442448:1 480194:1 717614:1 1024191:1 
-0.05826213646901009 293274:1 324354:1 603377:1 631773:1 1012434:1 1012994:1 
-0.009751107540805902 37967:1 242968:1 308092:1 357520:1 949339:1 1011808:1 
-0.01643896102410151 74017:1 350570:1 603754:1 633884:1 672961:1 694772:1 
-0.002887065887332467 261115:1 461563:1 536962:1 635332:1 728301:1 916625:1 
-0.005074309509253959 55246:1 73323:1 237207:1 248622:1 361778:1 443398:1 938663:1 
-0.06346901305133182 147375:1 188172:1 318921:1 357461:1 484987:1 535524:1 1014179:1 
0.113614704498319 11888:1 63469:1 186174:1 302228:1 304809:1 733726:1 767861:1 
-0.0004009395496762473 209863:1 212378:1 371997:1 449507:1 962029:1 1030303:1 
0.01383136822691105 85605:1 93664:1 410006:1 550648:1 869931:1 1024956:1 
-0.002237151641837692 91422:1 390407:1 505194:1 558945:1 664672:1 774096:1 
0.01779314992931181 216437:1 286096:1 306874:1 441688:1 714500:1 757917:1 
-0.006749804172111045 129264:1 658762:1 698992:1 971450:1 1038502:1 1050802:1 
0.1380574355650837 81928:1 98818:1 307710:1 415558:1 612785:1 649640:1 
0.02050563685479107 110536:1 316601:1 473373:1 603754:1 691284:1 757239:1 965853:1 1015972:1 
-0.05228269791312581 102507:1 251343:1 298850:1 571505:1 574640:1 603648:1 606292:1 698299:1 
-0.01055452176702311 26862:1 79571:1 80284:1 526017:1 870694:1 905799:1 941802:1 1053078:1 
-0.002094306238437829 65892:1 313820:1 349990:1 402131:1 764119:1 781006:1 1003207:1 1008100:1 
0.1254280681110957 143079:1 252253:1 504450:1 651454:1 749828:1 878031:1 921572:1 1047710:1 
-0.0006314434689386281 41257:1 330298:1 451295:1 770330:1 806492:1 832653:1 958651:1 
-0.01921856726671607 111528:1 152357:1 473517:1 488612:1 637644:1 845415:1 872927:1 
0.06158339424009723 123167:1 380656:1 401653:1 438522:1 549455:1 571635:1 921523:1 
0.04873034089417926 45638:1 285841:1 388396:1 606595:1 668388:1 725895:1 741590:1 
0.1015700847825865 23303:1 526057:1 560128:1 951536:1 1021455:1 1066333:1 1088138:1 
0.002619253485172474 15430:1 156842:1 184995:1 732518:1 766942:1 1047980:1 1099833:1 
-0.005041827852283064 163690:1 348822:1 461966:1 499630:1 724431:1 974286:1 1011533:1 
-0.006542794199400662 11304:1 248949:1 370454:1 436637:1 803330:1 878805:1 1044761:1 
-0.0006887062717002961 4409:1 40400:1 55886:1 244364:1 376271:1 793187:1 864610:1 
0.182930485277427 26548:1 249688:1 397499:1 430812:1 762129:1 870069:1 946230:1 
-0.02433438960154861 48043:1 163791:1 272929:1 414339:1 656804:1 686382:1 755166:1 861305:1 1069456:1 
0.01192310031738487 213321:1 296431:1 416049:1 431954:1 704973:1 761910:1 785483:1 843859:1 878031:1 
-0.005451655914360426 60238:1 219506:1 289931:1 476861:1 553370:1 900226:1 933813:1 1001583:1 1064966:1 
-0.003044953087972283 34362:1 512894:1 552030:1 598405:1 671652:1 686347:1 842836:1 871930:1 977945:1 
-0.01281170721965072 151572:1 176948:1 266726:1 358167:1 517276:1 560027:1 596185:1 663337:1 753398:1 
-0.02220706759204113 104492:1 122342:1 321142:1 412974:1 441414:1 496927:1 597445:1 784050:1 806290:1 
0.001039110264615662 79571:1 252673:1 278972:1 706341:1 730467:1 908001:1 986818:1 1030168:1 1110813:1 
0.02064655060556236 173195:1 179445:1 481545:1 500868:1 506140:1 532185:1 860341:1 1074807:1 
-0.02198628386578214 69690:1 110304:1 520106:1 525958:1 537901:1 680805:1 925177:1 1093132:1 
0.001506727835199611 114193:1 750389:1 856375:1 873415:1 880204:1 998161:1 1062820:1 1094448:1 
0.2782135823103694 110536:1 315007:1 343781:1 603754:1 700784:1 757239:1 952480:1 965853:1 
-0.002583582071368594 242152:1 358975:1 430120:1 534759:1 545188:1 977113:1 
0.1823610129148578 56956:1 176751:1 389788:1 723854:1 809718:1 827965:1 
-0.004121474220234628 157874:1 253055:1 270867:1 691028:1 709893:1 824049:1 827300:1 1007320:1 
-0.02318805005690751 277061:1 384988:1 475204:1 490689:1 757883:1 854502:1 988841:1 1080182:1 
-0.08068014754591588 47251:1 52143:1 249566:1 603754:1 633884:1 737806:1 777461:1 1083428:1 
-0.003723303966686391 2881:1 144093:1 196795:1 267068:1 500846:1 502646:1 544442:1 939961:1 
-0.00563413010489239 265994:1 535095:1 536690:1 904022:1 916618:1 1000968:1 1023724:1 1038814:1 
0.03758631584371594 66131:1 167402:1 258788:1 539597:1 688744:1 770600:1 789080:1 1053807:1 
-0.005932370821620005 45165:1 103794:1 155961:1 247611:1 963477:1 988219:1 1101464:1 
-0.006756820019956687 254236:1 303079:1 390500:1 577280:1 709821:1 1004177:1 1021180:1 
0.1214056075905128 458093:1 535415:1 568793:1 854162:1 958943:1 1084186:1 1116166:1 
-0.01644117507635516 49278:1 59640:1 131241:1 171474:1 210581:1 321111:1 600380:1 886646:1 1077315:1 
-0.05132215942926081 283731:1 339472:1 480152:1 535524:1 724962:1 730144:1 772409:1 804630:1 1024641:1 
-0.03441487056667707 88143:1 115879:1 129306:1 171566:1 224437:1 402246:1 920002:1 975885:1 1026310:1 
0.008231203648638063 8655:1 91098:1 168534:1 397349:1 459087:1 622129:1 675612:1 872166:1 1080116:1 
0.03138789721559637 12133:1 94752:1 481545:1 697551:1 743980:1 822384:1 851720:1 862128:1 1079536:1 
-0.004236901724518229 278690:1 746207:1 922141:1 936650:1 1012636:1 1093597:1 1099219:1 
-0.07933059448788911 129306:1 172358:1 188087:1 887708:1 975885:1 1005640:1 1065232:1 
-0.07190335810041897 38145:1 340799:1 506672:1 647362:1 710082:1 
-0.1440019487725708 605846:1 705599:1 860043:1 1024003:1 1077982:1 
-0.03911511070988463 146263:1 460379:1 658398:1 786722:1 819893:1 
-0.0004241928948436197 158309:1 250664:1 362976:1 421858:1 1105518:1 
-9.583341017389003e-05 75252:1 148983:1 844029:1 880203:1 992232:1 
-0.003414669978972065 434185:1 605219:1 611872:1 790919:1 920761:1 1030092:1 
0.2090473870352366 56956:1 266133:1 296310:1 657298:1 980905:1 1088401:1 
-0.002318553278002734 58078:1 202803:1 410303:1 760967:1 766478:1 776527:1 1054562:1 
-0.04102611930860259 123657:1 228930:1 326445:1 364854:1 490658:1 547939:1 1068365:1 
-0.003973065012629144 12259:1 89180:1 263190:1 676292:1 994199:1 1008291:1 1056081:1 
0.1702627182499865 15083:1 123771:1 696438:1 867813:1 1050036:1 1081571:1 1108353:1 
-0.007265615658344836 209268:1 278690:1 415663:1 481208:1 826138:1 922141:1 945368:1 1093597:1 
-0.004389925685328141 11826:1 91462:1 245429:1 544668:1 583929:1 616138:1 692726:1 896297:1 
-0.004736063905373476 104190:1 123414:1 444932:1 561808:1 787987:1 829633:1 1081373:1 1098390:1 
-0.002580463588215307 33765:1 89880:1 250049:1 291690:1 294806:1 617548:1 620138:1 954196:1 
-0.05606812801607718 452300:1 505372:1 653681:1 735823:1 828763:1 
-0.009684415072733758 129229:1 303490:1 380432:1 484608:1 628410:1 
-0.01779811700370176 219796:1 238282:1 331201:1 550081:1 911886:1 
-0.02540408633881354 314111:1 512253:1 643731:1 676064:1 814124:1 
-0.003674021299762914 73681:1 144238:1 404842:1 524144:1 529867:1 
0.1147430071631883 66679:1 256548:1 561082:1 781710:1 1039218:1 
0.009742462987894459 70129:1 293418:1 308899:1 613190:1 794597:1 917133:1 
-0.02657331949828807 172019:1 185847:1 434164:1 516607:1 567973:1 728272:1 
0.1785166828790097 656356:1 728389:1 733702:1 752218:1 757321:1 1049912:1 
-0.05770307956353023 194228:1 205484:1 287503:1 380432:1 751277:1 810557:1 
-0.02394773972877163 56833:1 86861:1 356035:1 579694:1 635820:1 797131:1 
-0.005468231366095914 332684:1 362142:1 656486:1 715108:1 845186:1 1011695:1 
-0.04790325159309086 112632:1 184827:1 360179:1 481528:1 924281:1 956777:1 
-0.000763088407787582 75683:1 415422:1 516250:1 565165:1 832511:1 1044082:1 
-0.006530167795481859 16742:1 73236:1 252701:1 662049:1 
-0.01432823545407602 677267:1 808012:1 1011808:1 1112150:1 
-0.07735444689831701 309839:1 394680:1 631172:1 864216:1 
-0.009374257210377719 74692:1 184351:1 475211:1 655620:1 
-0.005881432186316303 141786:1 238451:1 827300:1 1022200:1 
0.3229195670623509 191307:1 282113:1 696467:1 975758:1 
-0.01074747864285308 24199:1 423469:1 863016:1 913175:1 1072860:1 
-0.07167331498263027 395113:1 535415:1 935554:1 1037266:1 1084186:1 
0.2340129266797973 20613:1 80520:1 497628:1 922303:1 981521:1 
-0.00463609466458395 326861:1 477236:1 480585:1 522867:1 671981:1 719086:1 787250:1 789051:1 986771:1 
-0.007141487896036232 66095:1 174354:1 524536:1 613750:1 686901:1 835402:1 880372:1 979160:1 1007435:1 
-0.00406280920807268 27917:1 42603:1 193676:1 505194:1 594991:1 842796:1 868916:1 1023923:1 1106690:1 
-0.0328156268040463 229164:1 346254:1 717301:1 753156:1 787564:1 838583:1 
-0.001623791261720567 98817:1 207506:1 356750:1 444351:1 725036:1 782138:1 
-0.009099041905677436 115574:1 224649:1 643079:1 647700:1 656843:1 864357:1 
-0.007646564562405241 263337:1 704428:1 733343:1 1025935:1 1037390:1 1069779:1 
-0.00763378142017095 21532:1 366291:1 806370:1 834260:1 1088311:1 1099619:1 
-0.0348559951150228 48446:1 91201:1 237525:1 530734:1 682192:1 861362:1 
-0.05722420027292017 15290:1 52374:1 110536:1 113412:1 633884:1 1083428:1 
-0.007952384214948958 100755:1 138834:1 340321:1 450230:1 506672:1 686174:1 
-0.02845448686590045 9459:1 33792:1 328185:1 647063:1 805131:1 1002299:1 
0.04837462240206269 11288:1 297610:1 664157:1 837204:1 1028554:1 1116244:1 
0.02525385182022548 122342:1 254260:1 282744:1 546949:1 597445:1 1003815:1 
-0.01982221356148818 160625:1 297363:1 428910:1 634334:1 649960:1 
-0.02726297214357893 83221:1 214930:1 238770:1 282029:1 312728:1 
-0.001868547781965074 225604:1 335153:1 394577:1 678904:1 895838:1 
0.136185271035243 744767:1 745527:1 1000474:1 1008131:1 1081020:1 
-0.02361072331447049 54797:1 298544:1 355434:1 527470:1 878840:1 964206:1 
-0.01130023047995288 6888:1 24474:1 516396:1 578911:1 736545:1 1083237:1 
-0.00115782153908503 288648:1 342900:1 402044:1 482760:1 544157:1 899867:1 
0.08224024622110321 86360:1 347778:1 364994:1 480743:1 846442:1 1092124:1 
-0.1207816941682566 85723:1 151904:1 502461:1 647797:1 668996:1 837764:1 906479:1 
-0.01121676090358378 110041:1 215195:1 376918:1 401424:1 604204:1 718095:1 897140:1 
-0.02471320510164519 38703:1 296260:1 607501:1 773617:1 931361:1 958462:1 959581:1 
-0.006701620397101688 179445:1 191553:1 238520:1 240051:1 252492:1 500868:1 679542:1 
-0.01165605294553383 102694:1 538805:1 664185:1 753470:1 870791:1 903989:1 926140:1 
-0.01561129962049389 132977:1 153440:1 326522:1 373673:1 682219:1 798763:1 1086437:1 
-0.03844375584862101 215469:1 451829:1 459913:1 526971:1 753802:1 781544:1 1094150:1 
-0.005726401551322247 122662:1 428218:1 516968:1 626666:1 692726:1 914458:1 1076659:1 
-0.003968754103132834 50770:1 186280:1 214840:1 250259:1 597329:1 827367:1 1080873:1 
-0.0437090731168104 124672:1 157199:1 425001:1 747529:1 861633:1 878031:1 1047710:1 
-0.001798858988509847 178127:1 376986:1 460620:1 617993:1 944459:1 989557:1 1003861:1 
-0.01693449061664628 28965:1 65396:1 86291:1 452513:1 643338:1 896668:1 983412:1 
0.06666688267170472 74709:1 174347:1 207349:1 263032:1 320113:1 1022176:1 1024140:1 
-0.01013820560885655 121707:1 178561:1 514250:1 514512:1 550943:1 656417:1 683660:1 728687:1 756767:1 
-0.1081267698933777 48325:1 67385:1 110536:1 195400:1 248849:1 603754:1 743277:1 757239:1 759911:1 
-0.01300761678896744 49868:1 407241:1 523369:1 541922:1 557176:1 929231:1 947011:1 1010087:1 1094251:1 
-0.001881847364812575 216437:1 261329:1 267310:1 388396:1 414726:1 442448:1 501215:1 976037:1 1024191:1 
0.04127296044831056 97832:1 274218:1 304363:1 580193:1 615293:1 637966:1 815484:1 911243:1 1096516:1 
-0.006036992196418621 74870:1 119629:1 399105:1 545531:1 619180:1 668099:1 1056927:1 
-0.001684731075836627 309781:1 388396:1 442448:1 553207:1 714500:1 928948:1 1024191:1 
0.008963049528962413 92870:1 221923:1 228174:1 294074:1 309626:1 623816:1 652554:1 
-0.07456008867735493 222322:1 442002:1 716564:1 718553:1 886256:1 996103:1 1031456:1 
0.3152907893427951 101587:1 312618:1 472210:1 597776:1 671257:1 725086:1 881615:1 
-0.02978144639479376 318367:1 537180:1 788303:1 837906:1 957175:1 1015156:1 
-0.02108301604999665 186834:1 382067:1 458412:1 694486:1 869105:1 914283:1 
-0.04359643776517218 48731:1 122091:1 160953:1 448027:1 605310:1 848898:1 
-0.03299005201929622 229281:1 445970:1 662745:1 752467:1 809056:1 925366:1 
0.2748966742891745 266232:1 393174:1 739119:1 850824:1 898837:1 1067708:1 
-0.01916082847338756 93669:1 728730:1 845062:1 879856:1 1070425:1 
-0.01851317648939101 146003:1 404231:1 763350:1 1007611:1 1107610:1 
-0.01427870423396072 217643:1 387186:1 772465:1 787520:1 1060768:1 
-0.004407920237199993 73236:1 252701:1 476082:1 1010117:1 1081220:1 
-0.06052078642099754 113679:1 350317:1 718520:1 965110:1 1054159:1 
-0.007173367701309565 98818:1 100589:1 386464:1 533674:1 784807:1 
0.01161719877991048 15083:1 310100:1 621354:1 867813:1 976914:1 
-0.0455654689375597 623373:1 743362:1 814732:1 921001:1 1076981:1 
-0.00760391059815623 6131:1 154076:1 351539:1 367050:1 562950:1 
-0.01074180406271323 313066:1 335069:1 823329:1 892823:1 948769:1 
-0.02554019779106 119629:1 140008:1 393815:1 545531:1 789931:1 
-0.01598203130095414 14435:1 158639:1 333403:1 380174:1 564486:1 
0.01997950252550269 130434:1 323347:1 391655:1 725447:1 1081025:1 
-0.004515445809841766 659:1 141700:1 278690:1 356555:1 591740:1 1012636:1 1093597:1 
-0.0007297265009886064 82360:1 254207:1 725337:1 848453:1 857269:1 945396:1 981564:1 
0.04905455266267017 85605:1 154259:1 166464:1 517135:1 550648:1 607749:1 819422:1 
-0.08172018540714242 3856:1 15083:1 252073:1 349936:1 571067:1 671780:1 1050036:1 
-0.007445918889021513 18839:1 40885:1 150738:1 323347:1 391655:1 759330:1 1002061:1 
-0.03924125891792264 180549:1 281036:1 318367:1 385380:1 523489:1 621436:1 788303:1 
0.181875791344682 154283:1 339897:1 380411:1 680827:1 868351:1 935592:1 1055071:1 
-0.01806490672762645 103215:1 404764:1 420370:1 568167:1 583203:1 608257:1 638716:1 1000190:1 
-0.01539685583825877 148455:1 214840:1 228239:1 520175:1 827367:1 833787:1 1029769:1 1096726:1 
-0.01471413837111283 34721:1 126706:1 310882:1 311888:1 434046:1 545712:1 761032:1 982201:1 
0.04370261499611482 104190:1 399700:1 535204:1 742755:1 913813:1 973122:1 1071253:1 1098390:1 
-0.01436292225696828 323834:1 413136:1 432514:1 458131:1 472220:1 793728:1 
-0.007232860540855009 41019:1 90740:1 189620:1 577119:1 705671:1 948250:1 
-0.01446508201448703 163962:1 173124:1 335241:1 406406:1 554123:1 775179:1 
-0.04451557464992439 112632:1 174564:1 424816:1 707961:1 781506:1 888475:1 
-0.04278060010720849 62665:1 176301:1 437569:1 595330:1 653211:1 675965:1 
-0.003576552731852081 148455:1 361796:1 663314:1 910122:1 986841:1 1010249:1 
0.002306196884339403 65485:1 504444:1 703311:1 730790:1 758511:1 874439:1 
-0.01052091989598987 308878:1 412933:1 507281:1 516578:1 586444:1 937186:1 
0.02206705152802641 160695:1 235201:1 327603:1 543037:1 650268:1 949570:1 
-0.006535443990837308 139953:1 198019:1 343386:1 392528:1 454680:1 544630:1 836302:1 
-0.008643682891701561 157191:1 184676:1 324983:1 387591:1 477828:1 479931:1 893342:1 
-0.003304110525216666 67514:1 253811:1 397090:1 625577:1 831214:1 982201:1 1063543:1 
-0.001487565563902959 23071:1 370569:1 420092:1 657644:1 673778:1 738911:1 1114425:1 
-0.08350612831539318 58122:1 535524:1 575760:1 779052:1 804630:1 892110:1 1086821:1 
-0.03475589836595287 136115:1 570982:1 602780:1 792244:1 1019120:1 1022183:1 1038502:1 
-0.005743435712512857 333889:1 338286:1 372602:1 558945:1 628207:1 843392:1 966274:1 
0.01255527471081998 159697:1 415905:1 469368:1 681699:1 768450:1 771766:1 976471:1 
0.1915346822317125 187643:1 296388:1 459968:1 577280:1 624470:1 783200:1 1096470:1 
-0.0608843711886668 122453:1 132678:1 434164:1 516607:1 567973:1 681529:1 900753:1 
-0.1339092745322779 175386:1 537794:1 550648:1 704088:1 731480:1 819422:1 1024956:1 
-0.001961451600219479 166027:1 590871:1 850781:1 888304:1 951234:1 961034:1 1015837:1 
0.001748886641005429 10955:1 129181:1 131376:1 244862:1 362203:1 448093:1 618614:1 
-0.02462352802737065 355761:1 473159:1 516250:1 565165:1 886343:1 995162:1 1071129:1 
-0.01653263304048869 8381:1 109753:1 224122:1 394680:1 703942:1 1084322:1 1104010:1 
-0.02112212601346348 24474:1 304142:1 496866:1 636107:1 805435:1 827377:1 1037176:1 
-0.01172869732730658 170734:1 180384:1 529660:1 682192:1 861362:1 999184:1 1078604:1 
-0.01839505169849421 54797:1 62283:1 171571:1 684488:1 824508:1 915992:1 1081271:1 
-0.0006207159975802748 65981:1 92141:1 201375:1 241726:1 745353:1 752987:1 808689:1 
0.04684240843153878 458108:1 490358:1 603754:1 633884:1 1062153:1 1072392:1 1083428:1 
-0.06941304301610551 67208:1 321146:1 747456:1 786595:1 941769:1 1008150:1 
-0.005478858472091779 220094:1 236530:1 255054:1 655268:1 934112:1 941164:1 
-9.506897943007818e-05 85035:1 173303:1 305100:1 729276:1 768301:1 1067396:1 
-0.01684721411986876 193681:1 449468:1 522667:1 534759:1 537582:1 545188:1 
-0.00647807272514301 135066:1 138912:1 532972:1 550420:1 566852:1 970307:1 
-0.01195052342880103 9843:1 254236:1 260100:1 671987:1 689292:1 725264:1 
-0.04620073066043236 3856:1 141265:1 204503:1 597240:1 671780:1 918798:1 
0.2511524038873093 11633:1 18964:1 19399:1 21894:1 781148:1 1076355:1 
-0.01149818082080256 336895:1 451249:1 624686:1 955147:1 1013067:1 1049369:1 
-0.004480172573061791 181773:1 243856:1 404786:1 633343:1 709844:1 788788:1 
0.0009909585576009701 316549:1 703898:1 746065:1 807754:1 834610:1 876978:1 
-0.006256949326459846 167828:1 191566:1 351819:1 490319:1 1038814:1 1107030:1 
-0.004051425434410768 50801:1 69161:1 89956:1 346482:1 355060:1 512824:1 
-0.06477394134560524 27567:1 392787:1 567490:1 775179:1 897364:1 1103559:1 
0.2012270559244814 163919:1 177126:1 314878:1 824810:1 983507:1 1047889:1 
-0.008810494719791282 158900:1 629354:1 663700:1 686668:1 698454:1 887430:1 894788:1 985791:1 
-0.004723302427470245 6131:1 198899:1 414140:1 551203:1 829601:1 1010492:1 1028312:1 1042284:1 
-0.1340931953305715 182577:1 306617:1 356571:1 760129:1 781188:1 907286:1 1031716:1 1111176:1 
-0.004366783577155683 45243:1 73131:1 323260:1 446099:1 453307:1 641744:1 944724:1 1077018:1 
-0.00834813210403886 21287:1 48731:1 122091:1 361710:1 476845:1 558742:1 600062:1 1080959:1 
-0.009618078371148756 136115:1 144356:1 307333:1 536169:1 544803:1 617876:1 723804:1 832942:1 1050802:1 1083185:1 
-0.004572114204126408 75926:1 106499:1 283267:1 336893:1 583301:1 678526:1 694227:1 884226:1 1005080:1 1055771:1 
0.01116654249117349 124273:1 366646:1 374957:1 485729:1 537423:1 645454:1 899285:1 946117:1 1072665:1 1098002:1 
0.09232749981195004 9298:1 97833:1 114858:1 182577:1 442088:1 592325:1 699082:1 724277:1 930732:1 1037545:1 
-0.03562543923004468 466186:1 481545:1 814582:1 822384:1 1022460:1 
-0.1861482260942754 11833:1 27114:1 257813:1 941769:1 1044413:1 
-0.1136216876750153 58409:1 149837:1 274669:1 459773:1 1028719:1 
-0.02219024510531258 92894:1 747810:1 750891:1 794378:1 967907:1 
-0.004494078164168709 48731:1 122091:1 152831:1 514275:1 759960:1 
-0.06952117636408534 42139:1 300779:1 535512:1 584928:1 903322:1 
-0.005182599571832405 205821:1 239507:1 345247:1 349634:1 425154:1 534494:1 641586:1 
-0.01539825273638512 113010:1 125709:1 419812:1 442448:1 908159:1 1024191:1 1115381:1 
-0.002412727898426653 169410:1 351803:1 550026:1 669502:1 681358:1 834606:1 848805:1 
-0.006317196549591119 270069:1 401936:1 424029:1 434363:1 492114:1 543660:1 1006750:1 
0.03568990839980469 98698:1 323746:1 474346:1 657300:1 688889:1 720777:1 771800:1 
0.2055849564208327 33869:1 51857:1 92313:1 544334:1 782665:1 937231:1 1086437:1 
-0.01554402465620921 72353:1 92256:1 101537:1 344231:1 435979:1 503123:1 550548:1 643287:1 1045944:1 
-0.01618783782076936 8381:1 404632:1 492796:1 625154:1 662658:1 795740:1 887743:1 976886:1 1081159:1 
-0.01007663464483493 153684:1 269460:1 350363:1 680440:1 756979:1 796766:1 904516:1 1087293:1 1113213:1 
-0.006386664881417517 111586:1 237498:1 340059:1 366597:1 556987:1 601022:1 682697:1 794762:1 847511:1 
-0.04677860645256712 3944:1 25435:1 160059:1 194684:1 330361:1 480925:1 581437:1 721064:1 879605:1 
0.0342775063124291 113317:1 167738:1 177126:1 185399:1 314878:1 657300:1 678377:1 868138:1 1047889:1 
-0.2618015356342102 46015:1 176198:1 565165:1 611114:1 861686:1 995162:1 1068656:1 
-0.01428975001958392 15032:1 204388:1 326641:1 437200:1 585920:1 603278:1 641352:1 
-0.009101285791480831 27114:1 207194:1 468208:1 539587:1 675420:1 722911:1 951623:1 1097055:1 
-0.004950439967010388 123129:1 499124:1 541768:1 726492:1 765976:1 795568:1 964791:1 1058688:1 
-0.01583611121650983 44115:1 145558:1 186258:1 500679:1 581371:1 711879:1 842618:1 922628:1 
0.0386857691336679 46359:1 46773:1 127827:1 171489:1 664090:1 766384:1 781710:1 863055:1 
-0.004668004160022931 200444:1 491784:1 519490:1 621490:1 679935:1 825120:1 843112:1 939500:1 
-0.01023693410304402 172189:1 573944:1 618190:1 633884:1 779135:1 821942:1 939420:1 1112425:1 
-0.009620513882919055 176361:1 254304:1 256349:1 297610:1 612544:1 680036:1 863596:1 1100561:1 
-0.338617668203564 230780:1 270546:1 401936:1 434363:1 693337:1 888097:1 
-0.05948490924258548 246592:1 533775:1 569220:1 651655:1 668289:1 943197:1 
-0.05736399518740552 330777:1 359309:1 512885:1 604272:1 741814:1 905385:1 
-0.01765542863361645 129648:1 145031:1 436142:1 600369:1 618907:1 1108753:1 
-0.03023053517661436 204018:1 348039:1 368137:1 704320:1 769040:1 869570:1 
0.08391361645813408 144318:1 270021:1 323746:1 539485:1 771800:1 1106727:1 
-0.01269133042827584 469956:1 500846:1 823602:1 844455:1 939961:1 1048892:1 
-0.0001436470225317264 31507:1 191352:1 335266:1 432161:1 504750:1 899773:1 
0.2102285785948231 484689:1 544630:1 623181:1 660038:1 836302:1 941457:1 
-0.002759696169978176 164284:1 264675:1 336701:1 344270:1 443363:1 667451:1 674186:1 761165:1 879529:1 1035734:1 
-0.005864015329937925 195335:1 306552:1 454707:1 518819:1 598657:1 714499:1 925949:1 942870:1 1054505:1 1065295:1 
-0.001037756561695419 3856:1 188787:1 443569:1 562321:1 651041:1 834627:1 840468:1 918798:1 942386:1 945598:1 
0.02758920229589375 211449:1 535415:1 543484:1 770850:1 919954:1 953337:1 958943:1 982246:1 1084186:1 1116166:1 
-0.01775313159263264 91477:1 203394:1 264785:1 395894:1 412477:1 650781:1 844000:1 
-0.01666930732644484 447841:1 503101:1 530125:1 585052:1 818264:1 840109:1 957989:1 
0.02604292180582253 201098:1 231538:1 265426:1 449131:1 680032:1 893380:1 962896:1 
0.005386295481578401 268096:1 462303:1 584887:1 589284:1 639452:1 979046:1 989664:1 
-0.01707808604553765 51618:1 386973:1 565618:1 627468:1 678542:1 991739:1 1054709:1 1072227:1 
-0.006404657940896788 103935:1 132389:1 270546:1 359542:1 401936:1 483836:1 809204:1 1006750:1 
-0.01274132100891376 103935:1 132389:1 270546:1 359542:1 401936:1 483836:1 809204:1 1006750:1 
-0.0009195525172535155 142716:1 215715:1 237833:1 324766:1 422664:1 470934:1 993952:1 1055098:1 
-0.004607654504643211 64840:1 273183:1 321851:1 556667:1 789293:1 858225:1 877510:1 1011463:1 
-0.006715541055098685 208908:1 296198:1 306316:1 349999:1 354119:1 525974:1 605310:1 875011:1 
-0.0004444432855457422 122357:1 280203:1 314837:1 362251:1 531420:1 561756:1 670947:1 673893:1 
-0.004554652917382306 126766:1 342821:1 386474:1 498993:1 641621:1 677448:1 939831:1 1043942:1 
0.01121407883931159 367708:1 448628:1 466227:1 594203:1 791443:1 856569:1 1040742:1 1107662:1 
-0.04879312585979057 112632:1 363525:1 698823:1 780693:1 956777:1 1093706:1 
-0.01113137247097263 178677:1 247251:1 311114:1 870201:1 1000040:1 1089684:1 
-0.02435713533229278 133377:1 172488:1 199229:1 324354:1 998861:1 1012994:1 
-1 405208:1 406406:1 448482:1 773416:1 819197:1 958804:1 
1 405208:1 406406:1 448482:1 773416:1 819197:1 958804:1 
-0.009539064680700968 39507:1 63304:1 94845:1 306793:1 398491:1 596604:1 713115:1 
-0.03177560645676501 54797:1 461183:1 517931:1 557699:1 743418:1 824508:1 915992:1 
-0.004414105314668363 55320:1 129181:1 352841:1 461688:1 906175:1 939909:1 958872:1 
-0.0711968040035294 27114:1 282541:1 375106:1 626626:1 796232:1 941769:1 1063859:1 
0.1533083915497214 120744:1 184849:1 231219:1 265960:1 365012:1 944055:1 1050040:1 
-0.03888005463391093 230721:1 288153:1 321984:1 597101:1 714032:1 1043595:1 
0.01831213321148767 63198:1 176193:1 245445:1 434363:1 571635:1 901088:1 
-1 280516:1 390370:1 458108:1 633884:1 821942:1 1083428:1 
-0.01781611602216768 9663:1 36635:1 179763:1 302198:1 872517:1 1034989:1 
-0.01995423711034352 443444:1 449267:1 489409:1 620580:1 710289:1 893119:1 
-0.04857437177028845 16702:1 25958:1 113404:1 412680:1 651911:1 979577:1 
1 280516:1 390370:1 458108:1 633884:1 821942:1 1083428:1 
-0.01356959771001417 64126:1 93910:1 278896:1 703645:1 962864:1 989605:1 
-0.01453306686914571 80657:1 174144:1 367708:1 462438:1 1032566:1 1083510:1 
0.05861257093918725 8630:1 105375:1 207065:1 438180:1 459913:1 658311:1 
-0.007047804224256079 64231:1 106564:1 129489:1 173303:1 291107:1 305100:1 1067396:1 
-0.01702804069881382 100274:1 111528:1 516239:1 604260:1 816384:1 816444:1 904677:1 
-0.003129387742151917 206790:1 263880:1 454163:1 612468:1 738714:1 818029:1 834669:1 
0.1479383591270426 88256:1 154283:1 339897:1 380411:1 868351:1 935592:1 1072701:1 
-0.0001573291528052222 138922:1 229535:1 264673:1 470273:1 497886:1 690193:1 
-0.01484659314811284 62626:1 374365:1 500846:1 714132:1 939961:1 970976:1 
-0.002631162115999222 366075:1 503945:1 767294:1 783374:1 814416:1 973742:1 
-0.008481535107465389 401936:1 434363:1 490498:1 695457:1 777715:1 850858:1 
-0.002204735688239686 81077:1 130113:1 175053:1 368448:1 698164:1 974666:1 
-0.0189142270954097 5104:1 83942:1 268111:1 364854:1 932468:1 1074017:1 
-0.006214961117224301 246592:1 423569:1 586955:1 627984:1 668289:1 898947:1 
0.1083129662784264 405208:1 406406:1 495203:1 690291:1 773416:1 846194:1 
-0.000491993800201976 15422:1 222630:1 231125:1 295469:1 703623:1 712551:1 
-0.1268211117528923 121133:1 280660:1 561221:1 806981:1 1014763:1 1116090:1 
-0.01031282872333862 92313:1 538279:1 549307:1 798763:1 823334:1 922342:1 
-0.004835047865151935 145031:1 361577:1 639645:1 683762:1 715898:1 760712:1 
-0.001038395748860523 394969:1 442002:1 718553:1 815193:1 1013366:1 1031427:1 
0.01634401736623605 92546:1 535512:1 605846:1 841342:1 955403:1 1018330:1 
-0.001154107003017458 616449:1 700534:1 725337:1 1012877:1 1013056:1 
-0.007837891037190058 166931:1 214728:1 546861:1 559068:1 886055:1 
0.01082206369152262 46773:1 357922:1 362284:1 513062:1 781710:1 
-0.00501777163939396 103929:1 525259:1 538813:1 734263:1 821885:1 833156:1 929313:1 935585:1 998770:1 
-0.009500990069593471 33051:1 106585:1 128346:1 272805:1 394845:1 411576:1 458872:1 572576:1 843276:1 
-0.0465533260095838 7182:1 306450:1 382155:1 627468:1 628136:1 628316:1 658711:1 678542:1 838562:1 
0.03824541351563535 324745:1 488317:1 518948:1 543047:1 671366:1 749389:1 1004896:1 1056603:1 1087747:1 
-0.1039514837147819 135768:1 192371:1 254702:1 443692:1 465152:1 681475:1 830938:1 
-1 241397:1 442450:1 898543:1 941672:1 1004025:1 1055837:1 1110529:1 
-0.02929339887722304 41843:1 82908:1 283666:1 317570:1 537637:1 667829:1 1080099:1 
-0.04924689939002199 320085:1 402130:1 459654:1 680125:1 684724:1 893041:1 1078717:1 
-0.03065434511331488 132237:1 579785:1 621272:1 720978:1 755494:1 870814:1 918292:1 
1 241397:1 442450:1 898543:1 941672:1 1004025:1 1055837:1 1110529:1 
-0.003322665290218187 51010:1 128753:1 536116:1 669823:1 810217:1 937448:1 1107907:1 
-0.005110453606762344 141276:1 176367:1 183112:1 535600:1 544630:1 836302:1 1076577:1 
-0.001560756235655748 68064:1 129047:1 293474:1 490020:1 516210:1 793867:1 810009:1 
-0.01068565778667547 276367:1 349671:1 500846:1 874370:1 939961:1 947894:1 1100526:1 
0.1195473349132634 239502:1 285613:1 344269:1 350372:1 629407:1 923493:1 1042791:1 
-0.008514317975174455 386104:1 573746:1 775926:1 782624:1 946252:1 982682:1 1102422:1 
0.00577805242301698 22084:1 323746:1 472358:1 483730:1 855775:1 897641:1 1011336:1 
-0.006679154110010661 11564:1 158309:1 274336:1 307246:1 483123:1 797081:1 1066330:1 
0.01903599025803708 5856:1 217192:1 355761:1 473159:1 565165:1 750848:1 995162:1 
-0.02495642337134894 434317:1 536116:1 559336:1 562611:1 669823:1 951576:1 
0.02949877865690028 55211:1 544293:1 602973:1 706847:1 812131:1 855877:1 
-0.01447717322276928 436685:1 529494:1 560955:1 566439:1 693231:1 959624:1 
-0.01088746107558116 79294:1 224642:1 392717:1 873322:1 887637:1 891647:1 
0.2280703072565951 311952:1 790464:1 846174:1 947850:1 1069683:1 1115044:1 
-0.003871888107725561 282124:1 449569:1 741674:1 985639:1 1048746:1 1079913:1 
-0.02819925066657964 246592:1 402577:1 514243:1 780933:1 874097:1 971935:1 
-0.00490906870474322 122981:1 614759:1 736607:1 778947:1 1024485:1 1106418:1 
-0.001499097341244614 425321:1 541363:1 654283:1 803284:1 839384:1 1092124:1 
-0.05062607985630214 50537:1 127383:1 547239:1 566664:1 589183:1 740298:1 1057105:1 
-0.02957490963583264 3717:1 110536:1 536485:1 649573:1 743277:1 757239:1 821942:1 
-0.03281539558056655 35056:1 395548:1 477481:1 749302:1 919923:1 939283:1 1012455:1 
-0.00161481561823172 6941:1 186834:1 389279:1 396578:1 641678:1 645449:1 1049985:1 
-0.04454605658918466 135074:1 352821:1 480492:1 511913:1 605846:1 803943:1 850877:1 
-0.01109668282433324 10688:1 165532:1 273204:1 543089:1 878868:1 954414:1 1043526:1 
0.2634973393125241 330361:1 438298:1 636927:1 723153:1 801041:1 879605:1 1073114:1 
-1 4429:1 119300:1 234467:1 259412:1 998484:1 1004025:1 
0.05100431591026697 17361:1 183392:1 409822:1 417408:1 866893:1 1044183:1 
-0.002676019618755495 89212:1 198679:1 349539:1 523979:1 760967:1 999415:1 
1 4429:1 119300:1 234467:1 259412:1 998484:1 1004025:1 
-0.01975286770812066 104425:1 220509:1 443398:1 720643:1 968769:1 
-0.002093948648194273 166682:1 223787:1 328794:1 694684:1 1094005:1 
0.003846285124300172 19806:1 282098:1 631186:1 771229:1 1009123:1 
-0.009738563310243486 119257:1 551541:1 552045:1 870872:1 893459:1 
-0.003768629833240548 104190:1 131345:1 142981:1 382834:1 787987:1 
-0.002014377819196949 142805:1 180871:1 288486:1 362320:1 705981:1 
0.1268092061090086 278977:1 293168:1 362591:1 878240:1 1055453:1 
-0.03623965577131354 137730:1 255054:1 503940:1 613651:1 764008:1 908203:1 1063168:1 
-0.04807575998650241 279500:1 300779:1 468023:1 509726:1 535512:1 1018330:1 1102014:1 
-0.03803123904255665 225225:1 334500:1 484338:1 644118:1 777536:1 975880:1 1092124:1 
-0.005267014033138925 40248:1 137179:1 213934:1 488152:1 600996:1 753319:1 916684:1 
-0.002452163603746731 44706:1 52707:1 512113:1 536408:1 544113:1 569012:1 877943:1 
-0.01829303175882483 8381:1 109753:1 394680:1 810696:1 854795:1 1084322:1 1104010:1 
-0.0001307956641378669 43110:1 200354:1 221414:1 371255:1 533634:1 615056:1 1036457:1 
-0.01876547888694009 374342:1 525823:1 662968:1 864886:1 894509:1 997608:1 1063361:1 
-0.00249832766367993 33247:1 55289:1 98469:1 355886:1 467615:1 812584:1 900087:1 917284:1 986232:1 1079297:1 
0.09681709116031262 110536:1 174131:1 414462:1 473999:1 603754:1 633884:1 714739:1 743277:1 1083748:1 1103555:1 
-0.05065225946680001 1591:1 14417:1 55320:1 121325:1 129181:1 362203:1 425539:1 593789:1 618614:1 901054:1 
-0.03234595965903805 119226:1 315191:1 355761:1 376632:1 473159:1 532041:1 565165:1 743122:1 831545:1 832511:1 
-0.003411622461531552 6201:1 81981:1 148345:1 215415:1 355787:1 429297:1 448116:1 673489:1 807798:1 860776:1 
-0.01981831090750074 82908:1 146895:1 294253:1 397703:1 515845:1 726868:1 889881:1 892603:1 1080099:1 1107969:1 
0.1244361781970598 216437:1 257821:1 442448:1 450392:1 724392:1 969405:1 998164:1 1024191:1 1071737:1 1115381:1 
-0.003126406224859172 13527:1 357694:1 468073:1 552045:1 649781:1 667025:1 753827:1 826006:1 897333:1 903421:1 1035878:1 
-0.002431689649861595 46077:1 61239:1 73236:1 157825:1 312340:1 544311:1 584936:1 587111:1 647478:1 729065:1 962629:1 
-0.001488844988171606 203977:1 243506:1 389063:1 550806:1 591996:1 630191:1 675607:1 680393:1 811769:1 825921:1 1050610:1 
0.06855460485142012 144087:1 150862:1 159222:1 196932:1 367026:1 421777:1 466502:1 615011:1 617971:1 624995:1 673756:1 
-0.1792760775998026 33253:1 236391:1 252549:1 483834:1 663897:1 686743:1 965710:1 
-0.03974716827288605 151904:1 401822:1 514310:1 561120:1 617971:1 984158:1 990216:1 
-0.02658649274687121 131999:1 178037:1 201844:1 319372:1 388515:1 440655:1 923586:1 
-0.01247594620192941 79193:1 321223:1 366291:1 722115:1 738430:1 778824:1 932343:1 
-0.07011580829262488 140745:1 264506:1 554123:1 569302:1 664724:1 707153:1 912154:1 
-0.0005462536172445169 413040:1 476900:1 539711:1 540076:1 592451:1 653250:1 1057025:1 
-0.0004267492261941309 53746:1 92493:1 449397:1 706102:1 858579:1 1025209:1 
-1 458108:1 460660:1 633884:1 821942:1 970807:1 1083428:1 
0.03616746410603985 224126:1 454010:1 484704:1 565165:1 828291:1 1094001:1 
-0.005176260938540156 257889:1 436452:1 541937:1 780621:1 789089:1 871770:1 
-0.006256128400200372 207223:1 426215:1 506962:1 587081:1 631836:1 833409:1 
1 458108:1 460660:1 633884:1 821942:1 970807:1 1083428:1 
-0.008694947297505307 47914:1 346586:1 375794:1 593801:1 937463:1 955988:1 1015502:1 1114873:1 
-0.001653608791651428 166068:1 273752:1 318367:1 460453:1 480175:1 758145:1 957175:1 969474:1 
-0.01371275424251636 14418:1 247673:1 296388:1 363748:1 536204:1 559355:1 577280:1 1096470:1 
-0.01201688005060741 77554:1 103816:1 340257:1 753395:1 798748:1 828776:1 1060160:1 1068472:1 
-0.08994953184066551 166114:1 196932:1 253878:1 474350:1 485176:1 502461:1 984158:1 1022641:1 
0.06223318054982954 1505:1 9459:1 25629:1 159919:1 596715:1 647063:1 698502:1 805131:1 
-0.005646132851344207 104190:1 614387:1 787987:1 856129:1 
-0.0318249265948555 453413:1 560195:1 616237:1 624941:1 
-0.09987935004307838 75061:1 246592:1 280130:1 668289:1 
-0.07196992209748063 105309:1 505993:1 717612:1 1030442:1 
-0.005912610172460341 328915:1 446552:1 718509:1 751037:1 
-0.002445567639199689 320923:1 458412:1 526025:1 914283:1 
-0.006938329293448542 505210:1 555182:1 886815:1 1017810:1 
-0.008908937520079915 423731:1 556308:1 816675:1 848842:1 
0.3509461060436278 86861:1 750895:1 797131:1 912026:1 
-0.002308176680610282 222071:1 306245:1 638979:1 825062:1 931575:1 959676:1 992577:1 1028528:1 1086699:1 
-0.02098479397842679 138834:1 205048:1 319804:1 340799:1 519850:1 1022595:1 1043434:1 1098393:1 1102499:1 
-0.04594282374330586 145565:1 225418:1 599143:1 641744:1 650271:1 776399:1 1022374:1 1024922:1 1038355:1 
-0.001474732175339521 5960:1 36463:1 92894:1 195779:1 206766:1 295279:1 386016:1 512917:1 931444:1 
0.1696233076883983 104190:1 157743:1 392610:1 399700:1 444867:1 459024:1 742755:1 1090366:1 1098390:1 
-0.004552352884616876 92894:1 295279:1 570493:1 623906:1 701034:1 952823:1 967907:1 
-0.001664006227821402 90998:1 425345:1 443772:1 480585:1 787250:1 877331:1 1114611:1 
-0.0001585119128071893 282530:1 562465:1 657644:1 777348:1 826235:1 1017137:1 1114425:1 
-0.0004371841295172655 77554:1 126835:1 387874:1 465291:1 578271:1 1022065:1 1033720:1 
-0.003955614782294014 111140:1 603754:1 618190:1 633884:1 644457:1 965853:1 1013917:1 
-0.002285276558284039 187570:1 578103:1 628530:1 643620:1 987634:1 1059005:1 1075228:1 
-0.01942820834329037 80284:1 179876:1 622167:1 642140:1 730467:1 941802:1 1042266:1 
0.2313404383421778 43240:1 129919:1 212178:1 249459:1 251343:1 298850:1 489975:1 
-0.073133891464414 293455:1 297179:1 441414:1 467606:1 546949:1 597445:1 
-0.01214127132770739 266264:1 390720:1 506165:1 533061:1 674498:1 885639:1 
-0.0150587468193503 248454:1 621945:1 670285:1 891293:1 1001146:1 1092051:1 
-0.03163788823835474 27288:1 154898:1 222342:1 234254:1 565529:1 770756:1 
-0.01672435908532449 586298:1 620768:1 842692:1 875616:1 1008882:1 1082415:1 
0.1305783669369122 114974:1 168752:1 215633:1 295983:1 430557:1 479837:1 
-0.003441701895465988 359857:1 579513:1 584914:1 617591:1 645340:1 
-0.1236289763710301 15430:1 60071:1 400062:1 660174:1 1071012:1 
-0.1284289137793403 307333:1 308354:1 408305:1 531426:1 1038502:1 
-0.00154518959220812 205716:1 267343:1 341961:1 746246:1 1084618:1 
-0.05605262682540231 672836:1 730336:1 733701:1 868351:1 997814:1 
0.1253906404146992 628063:1 647947:1 726595:1 767422:1 1054710:1 
-0.01174212391798411 151715:1 338695:1 960086:1 1008559:1 
-0.01543296378374513 42237:1 106817:1 492430:1 765747:1 
-0.0252071750118519 415342:1 447895:1 710995:1 897111:1 
0.1370590511201469 58409:1 489719:1 985766:1 1028719:1 
-0.01109600461937769 85058:1 96127:1 252840:1 506915:1 673204:1 
-0.005276375536624494 348220:1 770406:1 849267:1 1050767:1 1052619:1 
-0.01156090913175394 1848:1 301661:1 358650:1 937186:1 1028368:1 
-0.01992304873934941 207349:1 257692:1 468222:1 506305:1 837982:1 
-0.02361832993049691 33525:1 104896:1 578860:1 897956:1 956777:1 
-0.05043069664880281 5203:1 127267:1 501937:1 978669:1 1104301:1 
0.0109325281848401 46773:1 362284:1 737485:1 781710:1 998703:1 
-0.01154109387708403 48997:1 196263:1 295452:1 418821:1 546861:1 908373:1 1068649:1 
-0.0001616624705967193 165222:1 299062:1 736773:1 857116:1 1012572:1 1035742:1 1061765:1 
0.2167117159399958 45167:1 166302:1 441288:1 524401:1 716339:1 1014579:1 1015785:1 
-0.006437649871187194 59891:1 141877:1 151959:1 377599:1 715586:1 772347:1 1103774:1 
-0.001245375860141129 544630:1 617093:1 629348:1 711482:1 854826:1 942551:1 1083825:1 
-0.01593323256918761 162246:1 286376:1 663337:1 948791:1 1003848:1 1085072:1 1089196:1 
0.01888241528297837 334316:1 355761:1 473159:1 565165:1 750848:1 859759:1 995162:1 
-0.02363706597533385 293953:1 452537:1 508293:1 721970:1 942253:1 
-0.04478129155522682 183392:1 220687:1 562431:1 646754:1 647947:1 
0.3183895539336843 77554:1 132139:1 828776:1 877228:1 1098963:1 
-0.002870889651837964 73406:1 365259:1 605051:1 1009536:1 1042542:1 
-0.001966051364837649 264188:1 455569:1 683362:1 948250:1 1063510:1 
-0.03447123749114205 271272:1 522611:1 532274:1 542119:1 639452:1 
0.4372948835213076 15290:1 427682:1 757239:1 934394:1 1064738:1 
-0.006052447415336375 131645:1 232625:1 533982:1 873322:1 
0.5720670336555685 118648:1 190100:1 665709:1 671460:1 
-0.005812969839633585 85485:1 154737:1 546029:1 593758:1 731452:1 1116041:1 
-0.01489014137756909 9162:1 24474:1 32695:1 743057:1 995447:1 1056421:1 
-0.005456678265610606 20307:1 246434:1 521528:1 607428:1 916287:1 929123:1 
-0.005434399276475719 322408:1 671045:1 675800:1 814732:1 955631:1 1041133:1 
-0.009782232969598537 67996:1 141505:1 154982:1 160922:1 507281:1 1027861:1 
-0.009850821530261424 418455:1 571571:1 686154:1 690080:1 694284:1 1037821:1 
-0.02633240653777711 173303:1 671507:1 805417:1 918998:1 927298:1 935047:1 
-0.08029930501276261 26548:1 36209:1 105309:1 375288:1 430812:1 870069:1 
-0.03470990392343494 20810:1 82908:1 103005:1 283666:1 317570:1 578641:1 737318:1 820142:1 
-0.003642878534278995 83992:1 194657:1 560038:1 647796:1 662433:1 681358:1 894363:1 1056360:1 
-0.001462291830155334 317395:1 354266:1 444925:1 525259:1 553694:1 563085:1 734263:1 998770:1 
0.09530730041972121 270743:1 384917:1 406247:1 445674:1 483834:1 673560:1 701652:1 844139:1 
0.03044384314758206 97473:1 113404:1 124273:1 1072665:1 1089263:1 1098002:1 
-0.0370143322865422 941672:1 959523:1 1004025:1 1049912:1 1099928:1 1110529:1 
-0.003345970534620876 60238:1 113060:1 115574:1 803663:1 882170:1 885034:1 
-0.03689662668149278 275143:1 334267:1 367971:1 621945:1 670285:1 718509:1 
-0.1272112028227717 182577:1 209732:1 413253:1 592325:1 699082:1 866889:1 
-0.05647176149586932 11766:1 56956:1 63699:1 986775:1 1012994:1 1020217:1 
0.1891767254936097 123770:1 720978:1 755494:1 870814:1 961702:1 1049513:1 
-0.0018255281881875 353544:1 385598:1 536950:1 708004:1 790772:1 875144:1 900753:1 
-9.894446734486855e-05 46781:1 168581:1 264673:1 497886:1 529399:1 593640:1 1011525:1 
-0.008819386011948845 99532:1 225732:1 318458:1 449700:1 678542:1 713345:1 792673:1 
-0.008110641783702107 201203:1 340362:1 378280:1 387504:1 664221:1 674372:1 759879:1 
-0.01634870054874061 110536:1 195400:1 603754:1 619885:1 691284:1 757239:1 965853:1 
-0.02217830913231882 64840:1 273183:1 616625:1 709916:1 1011463:1 1017210:1 1037821:1 
-0.1619688110007895 143079:1 504450:1 630650:1 878031:1 921572:1 926973:1 1047710:1 
-0.02373967597096843 110536:1 195400:1 603754:1 619885:1 691284:1 757239:1 965853:1 
-0.002465382153597077 299933:1 317285:1 868823:1 927632:1 961034:1 1060769:1 
-0.00458039818965154 74182:1 160695:1 235201:1 382339:1 629743:1 692568:1 
-0.0224882654353102 87533:1 105726:1 144050:1 331886:1 406952:1 567680:1 921607:1 
-0.06929496098642622 54459:1 81954:1 633884:1 792328:1 821942:1 1008391:1 1083428:1 
-0.01750096989690356 35182:1 50375:1 115453:1 299620:1 362142:1 550081:1 875375:1 
-0.002523359909085437 8628:1 93910:1 350238:1 611235:1 840369:1 933638:1 984200:1 
0.1379166414758019 12133:1 240051:1 402362:1 466186:1 738858:1 771078:1 822384:1 
-0.02676656668241973 33358:1 215442:1 427463:1 536116:1 542156:1 669823:1 
-0.004381294591644446 40320:1 556308:1 592310:1 816675:1 979727:1 1102759:1 
-0.004694279778691714 59754:1 64091:1 135322:1 539894:1 545885:1 673204:1 
0.1470984370482922 259910:1 291399:1 471544:1 644764:1 738843:1 1079913:1 
-0.04769935237746081 250189:1 477481:1 507794:1 555556:1 956719:1 1009123:1 1060436:1 
-0.001001709798907912 142550:1 180160:1 684881:1 710229:1 809996:1 947219:1 1053318:1 
-0.01902728080508509 65660:1 170132:1 328062:1 357887:1 682004:1 867066:1 936301:1 
-0.09385614480432229 27874:1 118793:1 324676:1 333153:1 333236:1 441759:1 658398:1 
-0.1413532807244661 31925:1 109264:1 144674:1 276728:1 663897:1 805020:1 1065622:1 
-0.0212969813951106 102246:1 147713:1 169826:1 210768:1 710295:1 798583:1 1071012:1 
-0.001913046401768287 789680:1 838359:1 965035:1 1034739:1 
-0.02860649058677667 405208:1 406406:1 552034:1 976796:1 
-0.01334468921488985 42237:1 492430:1 576718:1 765014:1 
-0.009205135185396694 362142:1 532219:1 656486:1 971951:1 
-0.06397555936558695 74017:1 603754:1 633884:1 753350:1 
-0.00085433726210285 401936:1 434363:1 547548:1 981053:1 
-0.003983465938690544 358312:1 657644:1 686331:1 1114425:1 
0.1711556242010769 565165:1 653652:1 750848:1 832511:1 
-0.00879302899000836 273523:1 379085:1 616200:1 730828:1 749961:1 757368:1 870110:1 892979:1 
-0.03141818421629074 124565:1 182577:1 292789:1 465673:1 783905:1 831071:1 907286:1 1086465:1 
-0.01230527749533634 27075:1 126992:1 227263:1 477828:1 683806:1 703183:1 890019:1 893342:1 
-0.06235137242605837 84025:1 340321:1 427369:1 459543:1 477223:1 567531:1 607194:1 1098393:1 
0.0156495180937939 128349:1 302738:1 322680:1 498561:1 628061:1 648664:1 682389:1 1080440:1 
-0.003412316027154935 301983:1 540973:1 632666:1 703035:1 710406:1 753274:1 
-0.01083064946236832 50537:1 121396:1 324199:1 703311:1 741410:1 1047103:1 
-0.08271873522188747 127681:1 204780:1 431149:1 470772:1 607749:1 819422:1 
-0.01700174166717364 122091:1 353047:1 598776:1 623800:1 875011:1 984863:1 
0.1340424493483791 209647:1 358586:1 459913:1 496709:1 983186:1 1070808:1 
-0.03420605875333648 129732:1 257510:1 782624:1 939350:1 
-0.000345021172293481 612643:1 869838:1 934112:1 1043827:1 
0.1540569959602024 38112:1 52790:1 307333:1 1038502:1 
-0.002344646122508487 2056:1 133094:1 571936:1 864216:1 1054591:1 1081159:1 
-0.000979408698824974 80307:1 564979:1 663393:1 680275:1 746156:1 1091491:1 
0.007838471252114999 4894:1 38086:1 154076:1 731745:1 898688:1 914608:1 
-0.005574057229556981 173773:1 276936:1 733701:1 848489:1 868351:1 935592:1 
-0.0389507430630797 148007:1 394798:1 442222:1 798219:1 886857:1 1085550:1 
-0.1064167557986583 106437:1 246808:1 254702:1 465152:1 640801:1 980740:1 
-0.03488345585523494 298214:1 341423:1 445674:1 483834:1 663897:1 684537:1 
-0.002719982037286626 37314:1 438944:1 567392:1 722935:1 751164:1 769178:1 846174:1 
-0.06229870438314352 33580:1 246194:1 662086:1 810533:1 848427:1 871723:1 1115381:1 
-0.005869004498034823 248531:1 381341:1 428781:1 493826:1 616200:1 648781:1 898570:1 
-0.001361778329789857 81172:1 94625:1 416822:1 521988:1 776735:1 858246:1 867066:1 
0.1215555033881002 21320:1 160733:1 208816:1 213046:1 466344:1 474363:1 751658:1 
-0.001432513424129359 170734:1 218789:1 663119:1 736988:1 812223:1 861362:1 
-0.0002252104347093905 98915:1 180160:1 423862:1 542398:1 684881:1 944093:1 
-0.01565051475343637 442898:1 686668:1 687193:1 894788:1 921407:1 985791:1 
-0.002695764925679417 160493:1 348989:1 400734:1 535039:1 693481:1 888766:1 
-0.02021950035148204 75683:1 391053:1 421424:1 516250:1 565165:1 832511:1 
-0.1804654190286387 4429:1 259412:1 385227:1 732017:1 733702:1 1004025:1 1055837:1 
-0.01071062459755287 90233:1 405208:1 406406:1 754549:1 775179:1 1006208:1 1086405:1 
-0.0003688727194628219 90233:1 405208:1 406406:1 754549:1 775179:1 1006208:1 1086405:1 
-0.02244313166780155 205675:1 309414:1 469368:1 487853:1 851445:1 870538:1 916059:1 
-0.0175635783408279 151715:1 229260:1 564802:1 663871:1 708735:1 907440:1 1008559:1 
-0.004636113495757578 10102:1 253881:1 345761:1 394767:1 655866:1 965329:1 1050185:1 
-0.01654612054327982 19702:1 603754:1 633884:1 994308:1 1008391:1 1083428:1 1102537:1 
0.03171753004919071 405208:1 406406:1 773416:1 775179:1 843729:1 897364:1 937315:1 
-0.006850083420591482 55062:1 266232:1 361013:1 393174:1 482031:1 650844:1 927289:1 
-0.00687160390011245 176200:1 209994:1 319372:1 572578:1 624929:1 881964:1 950922:1 
-0.002345591821886969 150073:1 265331:1 457424:1 500846:1 518590:1 643357:1 649713:1 
0.1177383314964426 84128:1 347163:1 386183:1 436276:1 466567:1 479751:1 647067:1 
-0.003934574449377237 24027:1 191867:1 353278:1 565406:1 880503:1 894278:1 1053428:1 1084618:1 
-0.009926164083429789 191519:1 401936:1 549455:1 581127:1 771053:1 851939:1 945313:1 1006750:1 
0.2439222247844433 142210:1 239297:1 337194:1 384616:1 505605:1 544668:1 692726:1 914458:1 
-0.01075588601020642 471952:1 549179:1 733716:1 1005599:1 
-0.04718425046132376 296431:1 425001:1 868502:1 1072429:1 
-0.009774028954356393 29678:1 33742:1 940079:1 1110930:1 
0.008827992295845419 54033:1 71849:1 102886:1 1005245:1 
-0.01858323045999775 24199:1 122331:1 243678:1 856835:1 
0.2006640502058692 225269:1 507315:1 834846:1 933637:1 
-0.007262807886861689 16534:1 81838:1 149098:1 181769:1 426475:1 874784:1 916649:1 959676:1 1084531:1 
0.02992121811263236 155871:1 258788:1 506716:1 539711:1 555831:1 705758:1 719042:1 897783:1 1013641:1 
0.1162526676144479 108477:1 110536:1 120924:1 174131:1 479571:1 633884:1 718185:1 743277:1 773700:1 
-0.007147430904070007 142636:1 405003:1 430721:1 554613:1 600183:1 724822:1 731500:1 736143:1 794952:1 
-0.01297336700307633 10935:1 129575:1 138076:1 170786:1 196185:1 305908:1 355400:1 645438:1 829770:1 
0.06340223580714081 79571:1 87970:1 371185:1 535562:1 655467:1 730467:1 755965:1 847567:1 1030168:1 
-0.01709924810233301 83501:1 308765:1 612129:1 629586:1 927377:1 982038:1 1008037:1 1049688:1 1112887:1 
-0.01529914427629588 293954:1 588906:1 635669:1 822732:1 864421:1 918968:1 
-0.02313314429415286 74848:1 428336:1 540441:1 883147:1 1007964:1 1112317:1 
-0.3446649685233268 332737:1 405208:1 406406:1 733968:1 775179:1 897364:1 
-0.004997814543112768 116779:1 260100:1 296388:1 488958:1 725264:1 1112610:1 
0.01740254355581343 355659:1 444429:1 465904:1 543484:1 602973:1 812131:1 
-0.01121688036118214 9663:1 186466:1 872517:1 930272:1 957837:1 1059995:1 
-0.001662084757624449 8381:1 376525:1 394680:1 887743:1 918523:1 1104010:1 
-0.06643834797385739 549882:1 603754:1 633884:1 968298:1 1008391:1 1083428:1 
0.2460056991498761 73477:1 167402:1 175856:1 258788:1 539597:1 1009489:1 
-0.03074095121646257 86329:1 147981:1 210134:1 508293:1 831162:1 
-0.01411231073687978 182032:1 351971:1 374143:1 466344:1 1022228:1 
-0.01824968052136729 297610:1 355733:1 651739:1 836510:1 965021:1 
0.2607439124472771 122179:1 145457:1 236646:1 837119:1 1108516:1 
-1 354142:1 602849:1 615257:1 731500:1 794952:1 814507:1 817645:1 850317:1 1116061:1 
0.02093098530685252 168850:1 193872:1 398102:1 485476:1 519257:1 634754:1 666077:1 668289:1 746065:1 
-0.05317051926847798 47251:1 113829:1 257453:1 321176:1 360651:1 420303:1 479571:1 633884:1 1008391:1 
-0.05883510458683087 195990:1 399058:1 402362:1 687654:1 735426:1 743980:1 822384:1 855658:1 1010064:1 
-0.01544696435910476 179474:1 285123:1 409854:1 499124:1 555092:1 717917:1 869705:1 980675:1 1028391:1 
-0.05734724558881787 189922:1 235201:1 486756:1 549052:1 694303:1 733547:1 795811:1 942594:1 949570:1 
-0.008702650487532099 46631:1 83899:1 212226:1 222990:1 308390:1 379588:1 382254:1 711090:1 1096759:1 
1 354142:1 602849:1 615257:1 731500:1 794952:1 814507:1 817645:1 850317:1 1116061:1 
-0.006983517058777607 44881:1 322876:1 742755:1 945714:1 
-0.0250217191234634 248755:1 340799:1 381977:1 1004253:1 
-0.02613514427193005 424725:1 583277:1 676184:1 822841:1 
-0.02680370427495126 80730:1 593275:1 907824:1 1007413:1 
-0.008342683528311478 159042:1 551750:1 601517:1 648781:1 
0.2624121683324503 614759:1 663263:1 848052:1 1080913:1 
-0.02412730870191205 103565:1 446962:1 776174:1 791738:1 833020:1 961608:1 
-0.01811438710866987 65396:1 175278:1 643338:1 753971:1 943498:1 983412:1 
-0.006178446880468712 309488:1 320013:1 613362:1 809451:1 948219:1 973031:1 
-0.05863092691557039 92256:1 101537:1 417256:1 494161:1 643287:1 1090798:1 
-0.005222153531380044 127118:1 502211:1 507025:1 604044:1 736868:1 781387:1 
0.3268564313547612 253412:1 671460:1 741764:1 979247:1 1016960:1 1112747:1 
-0.00710334879808429 98818:1 100589:1 277799:1 372995:1 784807:1 
-0.002628124712710884 330562:1 616200:1 778431:1 877699:1 896507:1 
-0.01409610725756431 217643:1 387186:1 497139:1 500767:1 1060768:1 
-0.01117840202071485 296388:1 402745:1 436805:1 967850:1 1096470:1 
-0.005078878626106798 166570:1 345761:1 563375:1 657284:1 782342:1 
0.0007168814997983615 324071:1 449137:1 574378:1 685664:1 886857:1 
-0.002454463248072196 433773:1 499124:1 530852:1 814286:1 968737:1 
0.01154385929097216 15083:1 115483:1 864267:1 867813:1 976914:1 
-0.004639845629690599 78561:1 106373:1 161972:1 357517:1 675927:1 743868:1 971373:1 
-0.001537269473001188 91425:1 290583:1 296424:1 366597:1 794762:1 964597:1 1000108:1 
-0.001205619674182324 191232:1 526057:1 552254:1 560128:1 863181:1 880372:1 1023674:1 
0.002680031906968691 141513:1 198393:1 242222:1 421080:1 739319:1 802716:1 1031054:1 
0.0145985881231725 477604:1 535415:1 958943:1 979780:1 1053738:1 1084186:1 1116166:1 
0.03073565606561772 700113:1 788727:1 797074:1 805586:1 887743:1 1039104:1 
-0.007306772749845651 81817:1 168174:1 386153:1 405003:1 448545:1 1116061:1 
-0.01172069692338749 198716:1 209141:1 522024:1 631027:1 746816:1 1007435:1 
-0.04265534043094235 148455:1 214840:1 635535:1 827367:1 910122:1 918010:1 922911:1 944575:1 
-0.007589100696627417 176234:1 247155:1 513698:1 803015:1 809769:1 844462:1 960334:1 1076634:1 
0.01465135093177069 110536:1 271692:1 402640:1 603754:1 633272:1 757239:1 819867:1 1008391:1 
-0.4557763671537271 245866:1 270743:1 298214:1 445674:1 483834:1 500890:1 875048:1 1083280:1 
-0.001399022032690522 190067:1 458936:1 469414:1 473097:1 621945:1 670285:1 718509:1 1060691:1 
-0.02780725615877732 99335:1 292349:1 374143:1 587924:1 613511:1 790448:1 853708:1 922303:1 
-0.01151036917189647 42458:1 106585:1 272805:1 411576:1 757249:1 801304:1 952392:1 997572:1 
-0.02331470721262888 18101:1 191755:1 525259:1 766898:1 777270:1 833156:1 842122:1 998770:1 
-0.005465960055572481 16880:1 112391:1 543654:1 671947:1 815975:1 988552:1 1031941:1 1083617:1 
0.01561676757286798 80794:1 232649:1 526815:1 550752:1 554123:1 920559:1 927787:1 1095834:1 
-0.01317114991131405 67964:1 76572:1 267295:1 314988:1 538214:1 761669:1 918798:1 1050036:1 
-0.01094541586890916 154858:1 430512:1 533344:1 593503:1 636446:1 857775:1 919930:1 1047710:1 
-0.003319181961115195 10060:1 197458:1 250410:1 333786:1 437288:1 654283:1 999986:1 1067994:1 
-0.0004436902155054082 13319:1 52214:1 239026:1 396212:1 701033:1 742270:1 848934:1 854382:1 
-0.0001257093358711164 7856:1 257964:1 275658:1 287020:1 321687:1 576294:1 602884:1 626390:1 
-0.04016105373417678 2849:1 134442:1 160453:1 253867:1 695279:1 846767:1 1091517:1 
-0.001604283597084158 15290:1 174131:1 368987:1 633884:1 743277:1 837787:1 998527:1 
0.003246047561276748 22084:1 160426:1 274487:1 323746:1 472358:1 1008385:1 1011336:1 
-0.2622257238812836 176390:1 500295:1 689634:1 790235:1 804630:1 
-0.00180322090485826 35115:1 412180:1 481960:1 851813:1 1110139:1 
0.003916025287802095 52372:1 514115:1 583096:1 768271:1 1107496:1 
-0.002609053285723841 415801:1 531420:1 662388:1 734392:1 864294:1 
-0.006078545355677796 82495:1 230012:1 937312:1 984249:1 1004873:1 
-0.006340158748968098 407241:1 557176:1 595480:1 626010:1 709310:1 
0.3616453022893157 4567:1 160695:1 195963:1 311158:1 639452:1 
-0.004871621067501509 379181:1 477828:1 684973:1 780453:1 896330:1 1005245:1 
-0.0005142837221890099 85255:1 247525:1 354518:1 418760:1 624941:1 1032972:1 
-0.01626562139598915 122091:1 306626:1 447601:1 605310:1 819138:1 977937:1 
-0.03236668210911183 339431:1 776753:1 850874:1 922141:1 1082402:1 1093597:1 
-0.06988785640303179 6466:1 324354:1 388479:1 827965:1 851361:1 986775:1 
-0.04360638021324104 129306:1 477431:1 755688:1 800251:1 866990:1 1005640:1 
-0.002353092717911391 222322:1 442002:1 454900:1 518722:1 718553:1 875058:1 973637:1 1103168:1 
-0.007700856335822643 36968:1 320943:1 321655:1 467606:1 597445:1 823539:1 855509:1 1112815:1 
-0.1445283539512447 270546:1 401936:1 410459:1 549455:1 601630:1 641733:1 1006750:1 1058717:1 
-0.04122813959318959 47287:1 178345:1 225560:1 348039:1 677448:1 769040:1 939831:1 1031795:1 
-0.001809407645622572 179719:1 206912:1 223074:1 274027:1 331603:1 526498:1 583062:1 1023373:1 
0.1647849980140363 396156:1 660526:1 681358:1 707066:1 765210:1 834606:1 1033994:1 1056360:1 
-0.01067849579222556 11243:1 121376:1 252609:1 373849:1 667081:1 697962:1 916261:1 
-0.02613261351746043 167187:1 167402:1 352256:1 487705:1 566256:1 1009489:1 1084167:1 
-0.02077112631777326 37191:1 117574:1 179380:1 181773:1 583011:1 601047:1 800110:1 
-0.01735206597158113 68814:1 87430:1 144356:1 857147:1 860211:1 1010808:1 1050802:1 
-0.001953324230639342 229788:1 231540:1 472427:1 641645:1 776374:1 893342:1 911074:1 
-0.05192907618113703 42327:1 52831:1 307710:1 388767:1 725976:1 859833:1 1043722:1 
0.1044024248869972 603105:1 608419:1 741681:1 809718:1 912107:1 963678:1 1012994:1 
-0.004595352577052393 98817:1 186333:1 438672:1 707970:1 1014386:1 
-0.0540971531930235 98818:1 955774:1 991082:1 1082229:1 1088621:1 
-0.0006267261298143201 105:1 133722:1 137994:1 221330:1 1083985:1 
0.00192316006198051 15430:1 948424:1 1047661:1 1071012:1 1110642:1 
-0.00396811679602529 149734:1 201203:1 340362:1 376158:1 387504:1 559791:1 664221:1 666566:1 674372:1 
-0.0002810136365890348 86798:1 146465:1 214030:1 224479:1 270900:1 584177:1 861945:1 903820:1 973458:1 
-0.03957228807793396 129264:1 136115:1 144356:1 277551:1 307333:1 418085:1 454862:1 517055:1 838826:1 
-0.07261329654437629 113646:1 200583:1 268039:1 388396:1 441688:1 442448:1 700557:1 714519:1 1024191:1 
0.03871321971979433 15877:1 365259:1 455770:1 707236:1 714784:1 744121:1 753569:1 837017:1 837796:1 
-0.03669814126725656 82127:1 133094:1 376890:1 702170:1 864216:1 1081159:1 
-0.003864215812303804 201203:1 387504:1 674372:1 753432:1 776882:1 839032:1 
-0.003497137700521896 399700:1 453419:1 594077:1 742755:1 849712:1 1098390:1 
-0.0009307498197102438 74929:1 173640:1 717301:1 929470:1 1064211:1 1097616:1 
-0.007440858772235201 64128:1 103565:1 214661:1 439268:1 455814:1 961608:1 
0.2898276309369077 18179:1 355846:1 466811:1 480585:1 554746:1 850423:1 
-0.001569348435157105 298477:1 435456:1 788293:1 798989:1 983269:1 1037821:1 1098532:1 
0.4136433324746478 18538:1 59891:1 87764:1 511629:1 528961:1 578062:1 1040210:1 
-0.001130804059429073 442002:1 469638:1 475572:1 498248:1 718553:1 
0.01368123310711546 104266:1 188919:1 348039:1 677448:1 1053882:1 
-0.008779017327829809 138758:1 148983:1 620258:1 624646:1 633135:1 
-0.006003221015909044 144647:1 502211:1 544157:1 559633:1 1099929:1 
-0.0031559938377177 60958:1 598657:1 928982:1 958520:1 1076620:1 
-0.00626570214432861 273523:1 342600:1 465232:1 516571:1 601517:1 
0.02746329447978382 311114:1 315366:1 315653:1 928312:1 955798:1 
-0.1458400610152602 189901:1 235833:1 246664:1 262586:1 310477:1 369296:1 868247:1 
0.107696088392155 217641:1 720610:1 753737:1 773676:1 777585:1 809718:1 889048:1 
0.0377029029582698 170841:1 193161:1 543484:1 544293:1 750768:1 765140:1 975777:1 
-0.03479721921265033 142076:1 187691:1 260100:1 328864:1 624470:1 948894:1 1096470:1 
-0.006973380211413805 39412:1 98315:1 117503:1 443125:1 517182:1 566016:1 975471:1 
-0.07941364869995106 52446:1 82004:1 475051:1 569383:1 706597:1 895944:1 950055:1 
-0.03928646067450169 153752:1 1024173:1 1034989:1 
-0.00315644358494146 320401:1 1032350:1 1072001:1 
-0.009730699749260373 221553:1 832917:1 879271:1 
-0.04803668995200185 24426:1 703838:1 758281:1 
0.07715296003286466 177624:1 437394:1 651911:1 
-0.04557578250410957 230878:1 512839:1 699301:1 886815:1 1017810:1 1059237:1 
-0.003767289700277873 273523:1 330562:1 465235:1 616200:1 624696:1 1104102:1 
-0.004026449474215277 39683:1 347569:1 374645:1 670103:1 704516:1 1052166:1 
-0.004512125961127512 176301:1 437569:1 738937:1 808639:1 871993:1 900992:1 
-0.004786394526780395 234635:1 278690:1 410462:1 898478:1 1093597:1 
-0.01067693601959168 326335:1 403580:1 700654:1 788303:1 957175:1 
-0.003126420988252173 79294:1 804540:1 819144:1 842725:1 873322:1 
-0.02350904199746449 81957:1 444766:1 552862:1 857983:1 1113055:1 
-0.06072546965553155 85822:1 190100:1 229821:1 264043:1 386295:1 
-0.0006748928042025221 43925:1 98915:1 270689:1 684881:1 803528:1 
0.188586951709143 19962:1 201779:1 308092:1 394877:1 1011808:1 
-0.01457214018999505 495108:1 641744:1 776399:1 868091:1 1024922:1 1038107:1 1093474:1 
-0.01689241405434994 146156:1 687461:1 715504:1 770756:1 861273:1 1026474:1 1028719:1 
-0.0005523569946652313 307061:1 487577:1 623532:1 645113:1 807935:1 810259:1 874920:1 
-0.0424702493429199 97019:1 125203:1 151852:1 246592:1 402577:1 559503:1 703601:1 
-0.01283142340909088 514140:1 675893:1 817051:1 843347:1 989234:1 1019095:1 1049491:1 
-0.0164873423542295 144356:1 307333:1 315861:1 501445:1 517055:1 580809:1 1094725:1 
0.1044428110235917 202617:1 213934:1 301370:1 385431:1 466894:1 739611:1 1064648:1 
-0.03048730169272287 66281:1 106585:1 555478:1 653833:1 815024:1 952392:1 995117:1 1032124:1 
-0.01708331693830136 18762:1 151715:1 443407:1 663871:1 907440:1 981390:1 1008559:1 1008581:1 
-0.003583967798878344 124658:1 142210:1 544668:1 896297:1 980829:1 1013950:1 1024344:1 1027345:1 
-0.006114025627534919 29330:1 335266:1 394528:1 506712:1 533383:1 633123:1 875165:1 899773:1 
-0.004957969639007249 86861:1 537629:1 575211:1 777862:1 797131:1 804875:1 958089:1 1060865:1 
0.04631193034326264 12133:1 402362:1 481545:1 484280:1 590909:1 701980:1 822384:1 851720:1 
-0.02719103974503207 46283:1 156850:1 307907:1 557197:1 689985:1 1042526:1 1083779:1 
-0.02079162614447366 227439:1 307723:1 341345:1 633122:1 855140:1 990965:1 1110079:1 
0.1343286788667217 112632:1 426622:1 466156:1 487150:1 687801:1 900761:1 956777:1 
-0.004148238171706804 25357:1 111981:1 189521:1 313066:1 380640:1 948769:1 1079796:1 
-0.01132982576425195 286461:1 288750:1 563433:1 567924:1 975986:1 1046448:1 1076038:1 
-0.08964869249017031 52035:1 200676:1 214462:1 515835:1 547080:1 585076:1 1098848:1 
-0.01063346056094618 130894:1 308954:1 322574:1 502211:1 544157:1 736868:1 976201:1 
-0.009411972674643696 146004:1 201203:1 280887:1 340362:1 387504:1 674372:1 760048:1 
0.004559405728752978 85255:1 158700:1 416655:1 560195:1 706478:1 714040:1 939749:1 
-0.01950823354652659 401936:1 434363:1 522581:1 753613:1 851085:1 901088:1 
-0.0007783281205996966 49582:1 223787:1 519443:1 909743:1 923351:1 1094005:1 
-0.0595414490792005 405208:1 406406:1 510312:1 758135:1 855246:1 897364:1 
-0.07885735439808407 2602:1 122342:1 321655:1 997240:1 1003815:1 1013043:1 
0.1449372009169498 151715:1 360778:1 612938:1 663871:1 1008559:1 1059977:1 
-0.01351914200220155 106240:1 118969:1 258320:1 339290:1 589392:1 607669:1 1081164:1 
-0.04975241513553599 9562:1 109417:1 285232:1 330543:1 389832:1 533559:1 840450:1 
0.01615933773787391 116024:1 143528:1 226035:1 417037:1 698040:1 989933:1 1057863:1 
-0.007148116823716165 141680:1 165124:1 193273:1 326531:1 710236:1 719471:1 1065466:1 
-0.004387570233069822 454707:1 598657:1 714499:1 719649:1 772038:1 847937:1 859802:1 
-0.09618904787656304 12265:1 79049:1 136115:1 244261:1 307333:1 517055:1 1038502:1 
0.0005270004206800047 152239:1 186846:1 554123:1 629289:1 714268:1 912154:1 1011868:1 
-0.01422062339353494 471669:1 481960:1 525389:1 602692:1 990949:1 1021968:1 1107686:1 
-0.06768135983570422 286723:1 306258:1 603754:1 618190:1 721326:1 756133:1 847258:1 1049735:1 
-0.004328699010602166 107373:1 173303:1 222459:1 560965:1 619068:1 643171:1 685140:1 961459:1 
-0.001690418914587445 65721:1 485864:1 509325:1 612468:1 798623:1 851333:1 870832:1 1085958:1 
0.1273569639042741 23420:1 79099:1 155210:1 233650:1 276572:1 569074:1 950637:1 1109577:1 
-0.0115827645070996 28554:1 407241:1 557176:1 712852:1 733805:1 913136:1 
-0.006781110901185874 178561:1 473525:1 656417:1 990507:1 1008912:1 1058959:1 
-0.05327108956481981 90671:1 92497:1 139891:1 278977:1 383352:1 990321:1 
-0.2757274743101526 28171:1 30116:1 102507:1 251343:1 298850:1 910175:1 
-0.02290011232586577 37324:1 215872:1 260065:1 371060:1 414949:1 560234:1 771900:1 
-0.02271698206660525 124708:1 203394:1 264785:1 637980:1 765779:1 873874:1 980889:1 
-0.008718733033911422 13180:1 84441:1 133094:1 153159:1 662658:1 1055228:1 1080068:1 
0.04946980201481452 12425:1 307823:1 431149:1 462287:1 563350:1 839504:1 977008:1 
-0.007570276534218027 142210:1 501031:1 544668:1 713208:1 844129:1 896297:1 924536:1 
0.2451166907486216 146197:1 533361:1 603754:1 633827:1 633884:1 737806:1 1008391:1 
0.07092669489643935 49435:1 85787:1 167402:1 258788:1 688744:1 704303:1 1009489:1 
-0.01735330715269764 128085:1 136115:1 357356:1 570982:1 1042716:1 1060499:1 
-0.02961104571069087 88024:1 276071:1 360070:1 434363:1 516677:1 1006750:1 
-0.003336786156934953 120229:1 182275:1 342991:1 362142:1 548566:1 711676:1 
-0.01745442624877508 86861:1 546221:1 571647:1 752510:1 764971:1 1002311:1 
-0.006627520955099385 8993:1 67551:1 215332:1 416452:1 942101:1 1002061:1 
-0.03029026201700336 115760:1 127484:1 172838:1 690716:1 857983:1 1032763:1 
-0.02217691896367707 225649:1 308383:1 311143:1 359974:1 434940:1 1084545:1 
-0.02952632373278802 163510:1 184849:1 201387:1 495552:1 667578:1 994515:1 
0.006253570415740611 44001:1 129020:1 352731:1 466344:1 751658:1 922303:1 
-0.06362642748005552 118648:1 190100:1 264043:1 321784:1 330555:1 485803:1 1032050:1 
0.006146117299222574 1469:1 50350:1 335050:1 348039:1 646454:1 704320:1 880589:1 
-0.06856283783795097 27114:1 163382:1 207429:1 698005:1 932777:1 941769:1 1051902:1 
0.1747493580122371 41490:1 603754:1 633884:1 691243:1 814346:1 819867:1 1006896:1 
0.06580478849547211 176390:1 218994:1 340058:1 535524:1 575760:1 804630:1 824980:1 
-0.007622627426676445 133164:1 241335:1 270565:1 295297:1 464928:1 598747:1 757065:1 
-0.003428292087196468 173875:1 513765:1 555851:1 593654:1 668139:1 929888:1 1028423:1 
-0.05376595709243024 129691:1 197458:1 333167:1 522157:1 661785:1 669595:1 1092124:1 
-0.005219717941542768 1878:1 587576:1 756476:1 817517:1 1060683:1 1077315:1 1078058:1 
-0.1845748028305693 377496:1 540890:1 720610:1 809718:1 904487:1 985684:1 1012994:1 
-0.03609172918872253 134442:1 214449:1 491306:1 822921:1 895971:1 941275:1 1014058:1 
-0.06975668817205437 54720:1 326445:1 364854:1 908823:1 913958:1 
-0.0001137602349543673 54493:1 218191:1 270273:1 569297:1 1083447:1 
-0.005023356458185001 306443:1 345761:1 657284:1 791875:1 996527:1 
0.09778972610788358 195963:1 235201:1 542119:1 693681:1 906798:1 
-0.01132783427110168 24199:1 384660:1 713132:1 966340:1 
-0.008601826093198961 259714:1 445786:1 700150:1 872166:1 
-0.00598305515711858 505788:1 735819:1 828216:1 983412:1 
-0.01425097092592992 119214:1 479284:1 811157:1 1015045:1 
-0.0004320593053725715 89087:1 317338:1 406952:1 567680:1 
-0.01384769177026371 113679:1 514857:1 890594:1 939587:1 
-0.01746758014283795 391708:1 810571:1 933637:1 1076859:1 
0.4847649839625212 552045:1 787676:1 1036760:1 1111179:1 
0.000127532485467939 12854:1 53758:1 627615:1 751362:1 988067:1 1011421:1 
0.05459650757120951 177126:1 201772:1 311660:1 314878:1 322660:1 1047889:1 
-0.006712495141628472 288616:1 355760:1 659148:1 702571:1 717301:1 787564:1 
-0.1285397301909581 334044:1 347809:1 649349:1 865369:1 972990:1 1047889:1 
-0.05467023371551586 45966:1 225308:1 336857:1 445786:1 813101:1 822464:1 
-0.04491662932815048 92256:1 494161:1 572661:1 693633:1 868413:1 1093119:1 
-0.59302346211354 326386:1 431149:1 563350:1 737968:1 839504:1 1025134:1 
-0.01061637983264634 48446:1 201990:1 226828:1 457281:1 530734:1 775098:1 807614:1 
0.0002417769175315639 66668:1 288386:1 376540:1 665449:1 854354:1 887621:1 1109631:1 
-0.004110448093386288 44122:1 142766:1 189880:1 243503:1 285575:1 919995:1 1026661:1 
-0.005001819428403352 56108:1 187721:1 246434:1 602884:1 612817:1 663266:1 980567:1 
-0.03609240073722073 162133:1 257620:1 641744:1 751005:1 776399:1 788144:1 935513:1 
-0.0008059744842520271 178475:1 371750:1 543931:1 666373:1 818622:1 838683:1 1090656:1 
-0.008799145106688822 90740:1 266455:1 285551:1 393200:1 898043:1 948250:1 987361:1 
-0.008459582402147713 25980:1 264114:1 370370:1 490787:1 628063:1 1023878:1 1044183:1 
-0.004398995071564318 5894:1 149194:1 374143:1 485094:1 612038:1 853708:1 892859:1 
0.02255437757115953 25395:1 67208:1 189824:1 626626:1 941769:1 945486:1 948065:1 
-0.06562413073293541 44594:1 178903:1 534071:1 556255:1 
-0.002547613363528723 154153:1 394197:1 787676:1 953387:1 
-0.06413752576838266 12133:1 235692:1 240051:1 757631:1 
0.1049902484094402 102125:1 177126:1 482322:1 1047889:1 
-0.09532347701394542 263337:1 330395:1 536116:1 541698:1 637546:1 704375:1 964981:1 
-0.0221965995295062 43657:1 424082:1 472427:1 572139:1 679486:1 893342:1 1107093:1 
-0.01673212986208915 158642:1 266264:1 492235:1 587683:1 639698:1 897078:1 948417:1 
-0.02457120232390882 85568:1 311114:1 512131:1 573684:1 955798:1 998839:1 1098474:1 
-0.0779456564017279 11549:1 58188:1 533640:1 670558:1 836121:1 843347:1 989234:1 
0.003473257967154174 323347:1 391655:1 467622:1 725447:1 735576:1 987290:1 1083860:1 
-0.01211695435025172 178561:1 252501:1 281761:1 386190:1 389932:1 420476:1 
-0.02162400933170629 140745:1 405208:1 406406:1 435949:1 697437:1 805038:1 
-0.02306914042581878 132592:1 246592:1 256571:1 569220:1 668289:1 851358:1 
-0.003357543516515266 91445:1 499744:1 542054:1 788303:1 814746:1 957175:1 
0.2626066242485798 145426:1 401936:1 430770:1 434363:1 693337:1 813276:1 
-0.06466252716976804 295201:1 394680:1 403719:1 795653:1 972738:1 1016148:1 1104010:1 
-0.01019781676557871 306793:1 398491:1 428076:1 479838:1 540163:1 663757:1 1071180:1 
-0.005270541125818009 47627:1 176301:1 437569:1 465855:1 730042:1 829930:1 1077865:1 
0.02957279582089799 226672:1 270546:1 401936:1 434363:1 693337:1 813276:1 992137:1 
-0.001205230137449246 130113:1 182437:1 243931:1 960446:1 974666:1 
-0.04242890024646925 474507:1 578008:1 640602:1 689985:1 1083779:1 
-0.01408779685418441 128049:1 317285:1 332332:1 651095:1 961034:1 
-0.006929420941586952 176301:1 208827:1 437569:1 825774:1 1104512:1 
-0.003836965070160387 317285:1 366658:1 611900:1 626155:1 696314:1 888304:1 961034:1 1086586:1 
0.01324908825815941 259412:1 404712:1 478475:1 656356:1 733702:1 766477:1 804940:1 1004025:1 
-0.000579513414380654 109965:1 142210:1 162959:1 518954:1 544668:1 571974:1 652881:1 896297:1 
-0.001047814893725261 109264:1 276728:1 500890:1 565747:1 875048:1 896743:1 963815:1 1084916:1 
-0.08302871665758337 328242:1 514115:1 589971:1 647063:1 648566:1 805131:1 860794:1 
-0.08354574014869953 133094:1 323138:1 437594:1 792012:1 864216:1 1054591:1 1081159:1 
-0.006936533634524726 597489:1 603564:1 803015:1 844462:1 955209:1 960334:1 964178:1 
-0.01242884913293262 18101:1 191755:1 523782:1 525259:1 766898:1 804392:1 833156:1 
-0.03705891886673975 644516:1 687338:1 702732:1 915685:1 925863:1 975020:1 1038059:1 
-0.01868982302831304 391409:1 441450:1 569433:1 603754:1 633884:1 965853:1 1013917:1 1083428:1 
-0.001442523253244106 286394:1 384778:1 433919:1 524511:1 558552:1 699301:1 886815:1 1017810:1 
-0.004894727778290146 15531:1 299758:1 352090:1 413589:1 916347:1 944368:1 944706:1 1097150:1 
-0.04164666737424445 481713:1 528592:1 549455:1 571635:1 845655:1 970983:1 
-0.001644371839685679 60840:1 127280:1 374022:1 388829:1 991082:1 1042572:1 
-0.01454709896697438 130569:1 188172:1 790235:1 810736:1 952566:1 1014179:1 
-0.02108491953373482 25804:1 257843:1 656087:1 703623:1 1049369:1 1104897:1 
0.01285020709444552 43531:1 697590:1 757239:1 767107:1 821942:1 1112797:1 
-0.01595376262056988 78898:1 221229:1 281378:1 557303:1 874155:1 
-0.001170048813299317 530734:1 615600:1 861362:1 976161:1 1103726:1 
-0.03767926719100448 183392:1 506867:1 647947:1 707195:1 961934:1 
0.01154090374926637 15083:1 530517:1 867813:1 976914:1 996347:1 
-0.004351912792890529 69326:1 107813:1 373849:1 379728:1 420979:1 651548:1 846715:1 
-0.02555802455653788 57412:1 150738:1 323347:1 391655:1 662585:1 846122:1 1002061:1 
-0.00886827072994846 303796:1 343494:1 518165:1 741382:1 903083:1 906785:1 1115115:1 
-0.003561910120655374 90740:1 540606:1 634891:1 735570:1 948250:1 981673:1 1028519:1 
-0.01321489636441772 71071:1 136115:1 144356:1 307333:1 517055:1 566526:1 665647:1 
-0.002378425185156497 7632:1 198008:1 523561:1 556500:1 739772:1 899773:1 900416:1 
0.1765616672598318 64128:1 103565:1 352038:1 528398:1 808689:1 937100:1 961608:1 
-0.00623997909362854 20824:1 751277:1 783678:1 854778:1 967168:1 1031929:1 
-0.002096378729116261 46639:1 84822:1 372648:1 509178:1 867328:1 1034694:1 
-0.03435429004370937 717069:1 765783:1 875165:1 899773:1 900416:1 961338:1 
-0.3599586333580253 18538:1 87764:1 130325:1 511629:1 528961:1 578062:1 
-0.005739028641445707 290128:1 591887:1 631117:1 756979:1 771636:1 925847:1 
-0.03770412171632425 82306:1 87283:1 263783:1 381141:1 773153:1 812539:1 
-0.000416153015505964 100370:1 135182:1 154134:1 698178:1 769644:1 815755:1 
-0.006788020699400206 341805:1 394374:1 453353:1 816384:1 816444:1 904677:1 
-0.004402431924691044 23918:1 59850:1 158671:1 552670:1 576508:1 632280:1 763627:1 902119:1 
-0.01677897602345092 60920:1 271094:1 271786:1 635523:1 787761:1 918224:1 958673:1 1030053:1 
0.05032696545874504 248849:1 455313:1 458108:1 558805:1 761895:1 821942:1 1008391:1 1083428:1 
-0.01274488238430989 385688:1 401936:1 434363:1 723925:1 1006750:1 
-0.07500344872237713 48731:1 122091:1 605310:1 894309:1 1081878:1 
-0.1927774165023841 196932:1 502461:1 625100:1 741698:1 1043617:1 
-0.07200409004032045 67753:1 563671:1 571810:1 745774:1 1001691:1 
-0.008379384056182573 115720:1 228634:1 230721:1 744500:1 892672:1 
0.3241885109323568 225530:1 481999:1 725337:1 857269:1 1056431:1 
-0.05949631522803745 110520:1 197379:1 676184:1 727212:1 946931:1 1036844:1 
-0.005901077022606549 122129:1 125071:1 144356:1 307333:1 964488:1 1050802:1 
-0.001905883516166762 287163:1 309488:1 320013:1 345717:1 470417:1 771207:1 
0.2224631159487969 24430:1 49726:1 489719:1 770756:1 881599:1 1028719:1 
-0.005146788121599491 67723:1 744181:1 846702:1 999980:1 1011994:1 1048320:1 1048529:1 
-0.00285825135610581 86329:1 180308:1 269719:1 327644:1 785431:1 847950:1 894000:1 
-0.02429770801092902 125369:1 487200:1 535703:1 969926:1 1095177:1 1097080:1 1100960:1 
-0.03204545027393177 285337:1 310425:1 338098:1 349505:1 604697:1 941769:1 1104103:1 
-0.0125331379248451 39653:1 103940:1 254156:1 304715:1 498859:1 710995:1 1023936:1 
-0.00915568309997962 75784:1 110995:1 202336:1 235652:1 512894:1 632324:1 709723:1 938585:1 
-0.01132798824924199 19874:1 160692:1 468078:1 678526:1 694227:1 737910:1 793273:1 877894:1 
0.0009518444377038324 188172:1 198972:1 224043:1 283731:1 645867:1 670980:1 750832:1 790235:1 
0.05608278395682949 3699:1 141680:1 650924:1 771976:1 858953:1 979004:1 1017823:1 1065466:1 
-0.04113572194804489 167754:1 279612:1 475000:1 680032:1 734309:1 806041:1 
-0.006977618789401348 52484:1 525014:1 546037:1 656417:1 728687:1 987592:1 
-0.01401091889800677 35870:1 528047:1 542119:1 639452:1 712371:1 971654:1 
-0.03543344384927991 62876:1 190286:1 334055:1 488761:1 1049351:1 1077517:1 
-0.0532326483568838 125327:1 222322:1 442002:1 694969:1 921077:1 1044548:1 
-0.0009367190145814504 73406:1 232060:1 365259:1 422841:1 714784:1 995233:1 
-0.009567269002787277 6201:1 126468:1 138588:1 658724:1 667276:1 673489:1 893460:1 1112394:1 
-0.007106194682953826 113852:1 142722:1 161954:1 366291:1 575418:1 624860:1 710293:1 722883:1 
0.1253117004953984 100814:1 151904:1 195919:1 491582:1 502461:1 625100:1 834910:1 878424:1 
-0.0189893872550337 116189:1 246194:1 741590:1 973300:1 994202:1 1115381:1 
-0.005949559960256279 381847:1 455572:1 502117:1 601771:1 673204:1 817941:1 
0.1612861277119916 167944:1 174515:1 518204:1 822817:1 985791:1 1074825:1 
-0.0002468075173750086 170809:1 280189:1 297116:1 349606:1 546960:1 948250:1 1003853:1 
-0.01055115453090836 410522:1 463027:1 519581:1 585129:1 708928:1 826656:1 911164:1 
-0.002320021701909947 70419:1 328062:1 391521:1 564918:1 784163:1 913032:1 1031262:1 
-0.005481427457381256 19399:1 81404:1 104534:1 418135:1 637592:1 764138:1 815304:1 
-0.01354593981707948 42734:1 118797:1 279915:1 643731:1 709316:1 814124:1 975789:1 
-0.05187021306455582 547176:1 555955:1 687707:1 719936:1 742499:1 853708:1 922303:1 
-0.05864722659873426 67106:1 128739:1 314627:1 613679:1 626551:1 846429:1 1018148:1 
-0.02360031920262904 273752:1 318367:1 523489:1 546475:1 621436:1 650767:1 912010:1 
-0.03885628260556076 524009:1 549935:1 680827:1 733701:1 743364:1 868351:1 935592:1 
-0.05934377349950612 329551:1 372886:1 487733:1 550515:1 589036:1 671460:1 741764:1 
-0.0002157027652369842 231876:1 390110:1 498555:1 637625:1 658925:1 710185:1 745774:1 1001691:1 
-0.02040383898468473 90234:1 166116:1 196932:1 514310:1 875782:1 984158:1 
-0.02324744635211677 558786:1 749629:1 870824:1 903652:1 1070808:1 1110578:1 
-0.001911503365596476 331774:1 688956:1 719363:1 791554:1 964635:1 1050767:1 
-0.005353259931104715 41804:1 265884:1 631836:1 652846:1 679814:1 716647:1 
0.2267030083808189 343119:1 424414:1 546602:1 655920:1 751127:1 1003171:1 
0.007143670657795764 57969:1 144476:1 332185:1 367708:1 466227:1 804834:1 
-0.003795192947703411 70419:1 328062:1 383703:1 784163:1 881755:1 1031262:1 
-0.002481009656056228 339306:1 525823:1 790006:1 1000750:1 1024396:1 1089630:1 
-0.06499976003913144 76435:1 158799:1 595720:1 625100:1 1002330:1 1091265:1 
-0.0102719029936489 39666:1 268448:1 331906:1 344561:1 720978:1 955079:1 
-0.01888018177337615 287601:1 290889:1 374143:1 506277:1 711155:1 877283:1 
-0.05005013883370664 59754:1 64091:1 125931:1 203821:1 479625:1 523877:1 
0.06245475643934628 98542:1 143215:1 188374:1 590779:1 1012994:1 1069822:1 
-0.03430560892358246 176200:1 319372:1 452237:1 625030:1 664292:1 726900:1 745150:1 
-0.02019237154026619 178127:1 593883:1 735233:1 898488:1 944459:1 992978:1 1003861:1 
-0.01234362923713495 24199:1 439374:1 611872:1 744438:1 790919:1 824375:1 863016:1 
-0.103629514852973 223699:1 300118:1 334044:1 588117:1 657300:1 1047889:1 1066992:1 
-0.009867194686123943 182023:1 349999:1 486572:1 525974:1 566354:1 605310:1 875011:1 
0.1619611751853977 127323:1 382482:1 524955:1 556619:1 587568:1 841264:1 978669:1 
-0.000451263498183837 244807:1 267498:1 542281:1 625577:1 729034:1 
-0.08417769680950564 14371:1 516607:1 683334:1 900753:1 907188:1 
-0.007383659384418622 677267:1 729260:1 971950:1 1011808:1 1100572:1 
-0.02266335456797105 259676:1 416655:1 560195:1 624941:1 
-0.04537940510988255 243839:1 821877:1 867835:1 872022:1 
-0.02725859498364706 273523:1 616200:1 850878:1 1024397:1 
-0.005488426559559547 99136:1 160493:1 348989:1 887216:1 
-0.005276733950082432 204722:1 639698:1 811228:1 930538:1 
-0.01523998513016889 366075:1 643667:1 814416:1 1076759:1 
0.00571762244375205 254107:1 645995:1 771229:1 1009123:1 
0.3902072752944994 49418:1 173303:1 580501:1 924761:1 
-0.0006973638768605874 5995:1 114424:1 186930:1 194989:1 388631:1 815808:1 
-0.001557372983172391 356894:1 544630:1 667316:1 942551:1 996518:1 1047707:1 
0.2276865887950353 130723:1 166688:1 326445:1 364854:1 595162:1 851449:1 
-0.03430837508321541 139167:1 399530:1 635643:1 728793:1 731500:1 1116061:1 
-0.0166417288644083 84972:1 208359:1 690307:1 727587:1 874571:1 887660:1 
-0.01111231427005961 46631:1 56044:1 255399:1 645898:1 690543:1 1096759:1 
0.07866833360473793 303956:1 405208:1 406406:1 531826:1 773416:1 775179:1 
-0.09263241405551888 237456:1 319372:1 440655:1 582468:1 727315:1 
-0.01366633772704067 676403:1 762147:1 828086:1 858521:1 1028194:1 
0.04406724872235177 15430:1 335149:1 341189:1 728554:1 1071012:1 
-0.006610267482245489 64349:1 65559:1 652554:1 696987:1 1086374:1 
0.4941147612069177 85514:1 379785:1 517767:1 584951:1 676184:1 
-0.003215789949075287 142210:1 194713:1 544668:1 604876:1 841172:1 896297:1 900854:1 
-0.01426430622154556 139654:1 213102:1 311114:1 664430:1 747055:1 998839:1 1000040:1 
-0.004608435836911776 181360:1 367988:1 536116:1 637546:1 669823:1 979026:1 1031572:1 
0.07842086908004962 192305:1 300779:1 392701:1 431588:1 535512:1 713998:1 915433:1 
-0.003092968311178644 58732:1 364805:1 593758:1 766098:1 793333:1 919916:1 976390:1 1004127:1 
-0.05440584324740581 298152:1 405208:1 406406:1 554123:1 582629:1 707153:1 805038:1 1108625:1 
0.0009489285351723718 78065:1 124986:1 147074:1 328977:1 630603:1 881223:1 1030574:1 1076859:1 
-0.003228316974297128 16903:1 70419:1 133798:1 310896:1 424437:1 722557:1 867066:1 983264:1 
0.0004035533819975484 83799:1 201454:1 513268:1 537801:1 614075:1 722681:1 726155:1 1083905:1 
0.04677216691510926 263547:1 285152:1 323746:1 334044:1 560946:1 664451:1 771800:1 899320:1 
-0.004655012238185614 98648:1 103132:1 190406:1 202005:1 360239:1 
-0.003669382729245784 221923:1 599545:1 702161:1 841723:1 843112:1 
-0.004190711597119139 227507:1 239412:1 463016:1 662745:1 809056:1 
-0.04527717556673497 373504:1 633546:1 689985:1 1010319:1 1083779:1 
-0.01021949372443095 112364:1 213788:1 434560:1 824049:1 827300:1 
-0.001598829371559489 518025:1 519023:1 735555:1 879227:1 1086333:1 
0.1885615656492766 201779:1 308092:1 680454:1 955688:1 1011808:1 
-0.0202005474458534 46359:1 46773:1 293679:1 459965:1 520152:1 796659:1 1070863:1 
-0.001149729492590451 257628:1 308092:1 350042:1 748005:1 818264:1 957839:1 1011808:1 
-0.07372596837311582 32595:1 184849:1 244508:1 458407:1 678418:1 881712:1 944055:1 
-0.007258356048848295 121694:1 135768:1 287855:1 401799:1 435759:1 818403:1 1045443:1 
-0.0008838441179100966 597163:1 749743:1 944020:1 997285:1 1050767:1 1055759:1 1074703:1 
0.2056641111561577 7968:1 241335:1 295297:1 462875:1 630191:1 709363:1 935315:1 
-0.01126025481091704 241628:1 405208:1 430228:1 562111:1 912154:1 923597:1 
-0.005576579967775807 65981:1 107298:1 214661:1 496625:1 716595:1 823168:1 
-0.003633730167110271 77468:1 141786:1 226028:1 323210:1 710718:1 827300:1 
-0.001604359439711385 21262:1 714728:1 714833:1 746528:1 795719:1 1083332:1 
-0.003906430707864113 198732:1 217255:1 222667:1 322662:1 609224:1 689943:1 
-0.001284691904028747 74198:1 174541:1 815179:1 826242:1 866225:1 925620:1 
0.05946820717400289 25787:1 381110:1 494012:1 565165:1 995162:1 1024597:1 
-0.04755482599768159 80520:1 99335:1 175660:1 309943:1 481768:1 922303:1 
-0.005653717858963021 105034:1 369181:1 431384:1 703211:1 780321:1 1014579:1 
-1 81714:1 314878:1 657300:1 983507:1 1047889:1 1076085:1 
0.9441451615921623 81714:1 314878:1 657300:1 983507:1 1047889:1 1076085:1 
-0.003207611068023951 266264:1 272505:1 302566:1 310344:1 457973:1 587683:1 639698:1 674498:1 749623:1 984348:1 1095781:1 
0.009680634771699788 87585:1 224027:1 531034:1 611380:1 641980:1 743122:1 813841:1 826149:1 832511:1 862699:1 1028056:1 
-0.009885609560898513 105338:1 169779:1 201571:1 491750:1 586298:1 591038:1 639551:1 875616:1 901223:1 934926:1 1023081:1 
0.01525591865358343 135074:1 162184:1 201460:1 300779:1 357195:1 541541:1 641499:1 691788:1 
-0.001812563168546086 68786:1 86861:1 158885:1 374446:1 571647:1 752510:1 1082025:1 1106598:1 
-0.03507349389100384 200583:1 246194:1 265431:1 442448:1 473420:1 780213:1 863268:1 1115381:1 
-0.002004423752695601 226574:1 226853:1 364861:1 606580:1 672388:1 915992:1 1086867:1 1091468:1 
0.08884202894521499 196932:1 356164:1 433747:1 496642:1 502461:1 617971:1 880099:1 920809:1 
-0.02958860818503339 398932:1 458478:1 644118:1 883395:1 1041487:1 1092124:1 
-0.2256071119480068 207789:1 347135:1 374798:1 515835:1 550471:1 856655:1 
-0.002497068885705872 40147:1 51420:1 230179:1 249903:1 522957:1 935454:1 
-0.001846428874493878 510202:1 520760:1 576902:1 671257:1 849415:1 975758:1 
0.1850286742171728 6131:1 185729:1 198899:1 392261:1 758084:1 799687:1 
-0.008727521711559853 172772:1 261476:1 390447:1 626029:1 673489:1 893460:1 
-0.03405512422776856 244948:1 291402:1 513837:1 640042:1 647419:1 1094574:1 
-0.005404727000753749 39001:1 44561:1 341731:1 386617:1 551912:1 802863:1 
-0.000495458694931191 162875:1 199483:1 252346:1 679105:1 790919:1 863016:1 
-0.001579194969959889 280660:1 543278:1 690857:1 717655:1 1008254:1 1048997:1 
0.2050324861514117 254702:1 417141:1 465152:1 640801:1 673503:1 980740:1 
-0.002985780638490594 211122:1 589754:1 757898:1 973458:1 982025:1 1015025:1 
-0.00607417613713445 18453:1 307419:1 406406:1 450347:1 775179:1 946377:1 
-0.05851502149977237 303430:1 313820:1 440945:1 692098:1 706102:1 1069985:1 
-0.006188583329007887 109229:1 344958:1 366075:1 503945:1 814416:1 1010320:1 
-0.01087338215107388 171988:1 230721:1 308282:1 351917:1 892672:1 978146:1 
-0.002375903722755488 68064:1 68785:1 83254:1 235715:1 293474:1 907850:1 
-0.01071370160831013 223661:1 424281:1 441573:1 443444:1 794179:1 894337:1 
-1 76917:1 405208:1 406406:1 679412:1 690291:1 735067:1 
-0.05404907290931521 112632:1 656582:1 716986:1 742771:1 928096:1 956777:1 
1 76917:1 405208:1 406406:1 679412:1 690291:1 735067:1 
-0.006031837641179806 98702:1 127273:1 332643:1 498578:1 739528:1 855631:1 872062:1 
-0.02284228276654301 274159:1 596185:1 603621:1 663337:1 753398:1 835382:1 956133:1 
-0.02285724741736512 159036:1 245824:1 266232:1 536069:1 850824:1 939417:1 1014835:1 
-0.01515786498072553 394680:1 523810:1 650716:1 681395:1 889409:1 1081159:1 1082424:1 
-0.07388268489816412 80524:1 110536:1 479571:1 501377:1 633884:1 706347:1 1099627:1 
-0.0840129946806302 466344:1 552802:1 610102:1 751658:1 917915:1 922303:1 1068613:1 
0.171359140740822 345799:1 370024:1 415607:1 463807:1 569297:1 1028550:1 1064523:1 
-0.006848511374633809 62040:1 90392:1 155668:1 201454:1 271414:1 309681:1 313536:1 437964:1 591966:1 870085:1 
-0.03404259628242549 160601:1 221553:1 419181:1 665650:1 706274:1 712869:1 814278:1 926634:1 988552:1 1047073:1 
-0.0007327672757038213 133094:1 376890:1 415973:1 532872:1 662658:1 685635:1 686096:1 879851:1 991187:1 1081159:1 
0.003240629031490075 206665:1 265739:1 322129:1 376540:1 634629:1 665449:1 858333:1 1090530:1 1103140:1 1109631:1 
-0.01895018637879218 15083:1 79760:1 528734:1 562321:1 589372:1 671780:1 746205:1 1111566:1 
-0.0365504925110663 6486:1 50329:1 105517:1 255054:1 365393:1 433171:1 467586:1 908203:1 
-0.003741525100902584 5960:1 7701:1 92894:1 159809:1 428422:1 488682:1 843425:1 967907:1 
-0.008875789853059772 134676:1 141659:1 265943:1 409399:1 808539:1 872967:1 988841:1 1080182:1 
