svm_type l2r_rank
kernel_type linear
nr_class 2
total_sv 33234
SV
2.384315114976782e-18 1:62742.41 2:2 3:2 4:0.53448013 5:0.016020672 6:0.899927 
2.384315110193541e-18 1:62742.41 2:2 3:2 4:0.0035203359 5:0.016020672 6:0.35742 
2.384315110659732e-18 1:62742.41 2:2 3:2 4:0.0047432008 5:0.01498708 6:0.436781 
2.384315107421988e-18 1:62742.41 2:2 3:2 4:0.0043778775 5:0.00051679587 6:-0.118221 
2.384315108170628e-18 1:62742.41 2:2 3:2 4:0.0014088304 5:0.0015503876 6:0.011753 
1.856837656186309e-18 1:48862.027 2:2 3:3 4:0.034211241 5:0.026356589 6:0.311689 
3.834341156180051e-23 1:1.0089662 2:0 3:0 4:0.020165398 5:0.0062015504 6:0.166297 
1.856837654512128e-18 1:48862.027 2:2 3:3 4:0.0071977873 5:0.0025839793 6:0.0390786 
1.856837656766187e-18 1:48862.027 2:2 3:3 4:0.056437223 5:0.00051679587 6:0.400041 
1.856837655237482e-18 1:48862.027 2:2 3:3 4:0.0069197305 5:0.037726098 6:0.162977 
3.83426644271556e-23 1:1.0089662 2:0 3:0 4:0.0051751966 5:0.0046511628 6:0.0459986 
1.856837654731206e-18 1:48862.027 2:2 3:3 4:0.02196907 5:0.00051679587 6:0.0689676 
3.834254618746736e-23 1:1.0089662 2:0 3:0 4:0.002176494 5:0.00051679587 6:0.0273651 
3.834345959346633e-23 1:1.0089662 2:0 3:0 4:0.0047341965 5:0.0015503876 6:0.182712 
3.834150640981913e-23 1:1.0089662 2:0 3:0 4:0.0040822435 5:0.037726098 6:-0.152753 
1.82892381119918e-21 1:48.127309 2:1 3:0 4:0.0002473657 5:0.0015503876 6:0.899722 
1.828918486122873e-21 1:48.127309 2:1 3:0 4:0.0003960374 5:0.0025839793 6:-0.0139641 
1.124314099714765e-22 1:2.9584759 2:1 3:1 4:0.0023960129 5:0.01498708 6:0.259415 
1.124298089840876e-22 1:2.9584759 2:1 3:1 4:0.0003960374 5:0.0025839793 6:-0.0139641 
1.124301944864925e-22 1:2.9584759 2:1 3:1 4:0.00077343794 5:0.0010335917 6:0.0520068 
1.124305185296307e-22 1:2.9584759 2:1 3:1 4:0.0008457774 5:0.00051679587 6:0.107573 
1.124302922644616e-22 1:2.9584759 2:1 3:1 4:0.00043836105 5:0.00051679587 6:0.0689676 
1.238986655242648e-18 1:32603.496 2:1 3:1 4:0.0028291377 5:0.037726098 6:0.899906 
1.238986651023043e-18 1:32603.496 2:1 3:1 4:0.0026958385 5:0.0015503876 6:0.176758 
1.238986650440921e-18 1:32603.496 2:1 3:1 4:0.0031268654 5:0.0010335917 6:0.0766717 
1.238986650547329e-18 1:32603.496 2:1 3:1 4:0.013724544 5:0.037726098 6:0.0886543 
1.238986650479708e-18 1:32603.496 2:1 3:1 4:0.015811241 5:0.0015503876 6:0.0766717 
3.892415826970986e-18 1:102427.55 2:2 3:3 4:0.012091671 5:0.037726098 6:0.900134 
3.89241582857931e-18 1:102427.55 2:2 3:3 4:0.26499546 5:0.037726098 6:1.04359 
3.892415823073197e-18 1:102427.55 2:2 3:3 4:0.00053190061 5:0.0020671835 6:0.238173 
7.78645020553638e-19 1:20489.768 2:0 3:0 4:0.7538447 5:0.034625323 6:0.903455 
7.786450160319342e-19 1:20489.768 2:0 3:0 4:0.0018298346 5:0.034625323 6:0.521609 
7.786450144863433e-19 1:20489.768 2:0 3:0 4:0.0091898044 5:0.037726098 6:0.252526 
7.786450138370781e-19 1:20489.768 2:0 3:0 4:0.0022216794 5:0.049612403 6:0.144552 
7.786450123502922e-19 1:20489.768 2:0 3:0 4:0.0014255809 5:0.012919897 6:-0.109387 
1.090331635064259e-18 1:28691.691 2:2 3:2 4:0.019856892 5:0.0010335917 6:0.925114 
1.090331629704579e-18 1:28691.691 2:2 3:2 4:0.0069197305 5:0.037726098 6:0.011644 
1.090331630949032e-18 1:28691.691 2:2 3:2 4:0.056437223 5:0.00051679587 6:0.199941 
1.090331629011522e-18 1:28691.691 2:2 3:2 4:0.034211241 5:0.026356589 6:-0.121331 
1.090331628997634e-18 1:28691.691 2:2 3:2 4:0.0071977873 5:0.0025839793 6:-0.109096 
6.700163380527476e-22 1:17.631024 2:1 3:1 4:0.0002473657 5:0.0015503876 6:0.925114 
9.111651656885518e-22 1:23.976922 2:1 3:1 4:0.0003960374 5:0.0025839793 6:-0.0617779 
2.935472552158995e-22 1:7.7244808 2:1 3:1 4:0.00048429743 5:0.00051679587 6:0.22527 
7.444956209431202e-23 1:1.9590024 2:1 3:1 4:0.00048429743 5:0.00051679587 6:0.22527 
7.444788893118385e-23 1:1.9590024 2:1 3:1 4:0.0003960374 5:0.0025839793 6:-0.0617779 
6.700122594411901e-22 1:17.631024 2:1 3:1 4:0.00048429743 5:0.00051679587 6:0.22527 
2.935472361946303e-22 1:7.7244808 2:1 3:1 4:0.00077316343 5:0.0015503876 6:0.221835 
6.70010586278062e-22 1:17.631024 2:1 3:1 4:0.0003960374 5:0.0025839793 6:-0.0617779 
2.935455820527712e-22 1:7.7244808 2:1 3:1 4:0.0003960374 5:0.0025839793 6:-0.0617779 
7.445364070586947e-23 1:1.9590024 2:1 3:1 4:0.0002473657 5:0.0015503876 6:0.925114 
9.111662269056361e-22 1:23.976922 2:1 3:1 4:0.00025423595 5:0.00051679587 6:0.120403 
1.445074287563624e-18 1:38026.619 2:2 3:2 4:0.065165315 5:0.0015503876 6:0.899729 
1.445074287394131e-18 1:38026.619 2:2 3:2 4:0.0096903175 5:0.00051679587 6:0.899729 
1.445074288158001e-18 1:38026.619 2:2 3:2 4:0.25951165 5:0.010335917 6:0.899729 
1.4450742822747e-18 1:38026.619 2:2 3:2 4:0.015234279 5:0.00051679587 6:0.0185183 
1.445074284729677e-18 1:38026.619 2:2 3:2 4:0.0092029314 5:0.011369509 6:0.442648 
1.385231582033751e-19 1:3645.1879 2:0 3:1 4:0.010628438 5:0.00051679587 6:0.330317 
7.915023293669363e-23 1:2.0827263 2:1 3:1 4:0.0010792591 5:0.0010335917 6:0.0460338 
1.385231593603057e-19 1:3645.1879 2:0 3:1 4:0.0017697109 5:0.0010335917 6:0.533434 
1.385231565172633e-19 1:3645.1879 2:0 3:1 4:0.0010792591 5:0.0010335917 6:0.0460338 
5.091977219640824e-19 1:13399.358 2:1 3:2 4:0.0004457993 5:0.0010335917 6:0.0627027 
5.091977233413758e-19 1:13399.358 2:1 3:2 4:0.0044337723 5:0.0036175711 6:0.296856 
1.3852315690835e-19 1:3645.1879 2:0 3:1 4:0.0046377003 5:0.0010335917 6:0.111266 
5.091977238904331e-19 1:13399.358 2:1 3:2 4:0.0080602973 5:0.0020671835 6:0.389185 
1.385231594663845e-19 1:3645.1879 2:0 3:1 4:0.068102853 5:0.090956072 6:0.515118 
3.548141031980653e-19 1:9336.8076 2:1 3:0 4:0.0094810646 5:0.016537468 6:0.899935 
3.548141007912951e-19 1:9336.8076 2:1 3:0 4:0.043259048 5:0.090956072 6:0.467864 
3.548140985822312e-19 1:9336.8076 2:1 3:0 4:0.010336616 5:0.0010335917 6:0.107884 
3.548141004371534e-19 1:9336.8076 2:1 3:0 4:0.12436244 5:0.00051679587 6:0.366403 
3.548141020686128e-19 1:9336.8076 2:1 3:0 4:0.021014114 5:0.090956072 6:0.698657 
5.341645357439829e-19 1:14056.351 2:2 3:2 4:0.0075893192 5:0.00051679587 6:0.176675 
5.341645363835994e-19 1:14056.351 2:2 3:2 4:0.015660441 5:0.00051679587 6:0.282182 
5.341645349139367e-19 1:14056.351 2:2 3:2 4:0.0078073339 5:0.00051679587 6:0.0341553 
5.341645358404675e-19 1:14056.351 2:2 3:2 4:0.046792913 5:0.00051679587 6:0.172693 
5.3416453559902e-19 1:14056.351 2:2 3:2 4:0.053996776 5:0.00051679587 6:0.127496 
9.338758245007671e-19 1:24574.612 2:1 3:1 4:0.19547015 5:0.037726098 6:0.900241 
9.338758221095169e-19 1:24574.612 2:1 3:1 4:0.10235666 5:0.0036175711 6:0.539435 
1.977922564154675e-22 1:5.2047407 2:1 3:1 4:0.00047050968 5:0.00051679587 6:0.102321 
9.459910786704966e-23 1:2.4892339 2:0 3:2 4:0.010246381 5:0.00051679587 6:0.176376 
1.977918835052678e-22 1:5.2047407 2:1 3:1 4:0.00020739855 5:0.00051679587 6:0.0384811 
9.459910289914144e-23 1:2.4892339 2:0 3:2 4:0.0010172427 5:0.00051679587 6:0.180358 
9.338758192733029e-19 1:24574.612 2:1 3:1 4:0.011698035 5:0.0020671835 6:0.100363 
9.459913943136735e-23 1:2.4892339 2:0 3:2 4:0.0021941378 5:0.037726098 6:0.185277 
1.977916519170435e-22 1:5.2047407 2:1 3:1 4:0.0012737342 5:0.0025839793 6:-0.00185018 
1.97791392534388e-22 1:5.2047407 2:1 3:1 4:0.0017992492 5:0.0010335917 6:-0.0465955 
9.338758193212587e-19 1:24574.612 2:1 3:1 4:0.026997338 5:0.012919897 6:0.100363 
9.338758213825452e-19 1:24574.612 2:1 3:1 4:0.030312899 5:0.0082687339 6:0.452359 
1.977918558890845e-22 1:5.2047407 2:1 3:1 4:0.00031521501 5:0.00051679587 6:0.0336867 
9.459911944106679e-23 1:2.4892339 2:0 3:2 4:0.001117418 5:0.0051679587 6:0.183052 
9.459883773938418e-23 1:2.4892339 2:0 3:2 4:0.00092237211 5:0.00051679587 6:0.134916 
5.999593978507554e-19 1:15787.72 2:1 3:1 4:0.00068536288 5:0.01498708 6:0.0407372 
5.999593997615831e-19 1:15787.72 2:1 3:1 4:0.00075179282 5:0.037726098 6:0.368083 
5.999593981627956e-19 1:15787.72 2:1 3:1 4:0.001189445 5:0.0051679587 6:0.094201 
5.9995940603397e-19 1:15787.72 2:1 3:1 4:0.92965082 5:0.014470284 6:0.958086 
5.999593992864555e-19 1:15787.72 2:1 3:1 4:0.0011557603 5:0.0036175711 6:0.287028 
3.315110557882858e-22 1:8.7235051 2:1 3:1 4:0.0012956228 5:0.016020672 6:0.0923693 
3.315105543704427e-22 1:8.7235051 2:1 3:1 4:0.0016510983 5:0.0010335917 6:0.00645306 
1.669472133214508e-22 1:4.3929387 2:1 3:1 4:0.040711894 5:0.0010335917 6:0.900164 
4.92447866225868e-23 1:1.2958284 2:0 3:0 4:0.0044102309 5:0.0020671835 6:0.198107 
4.924676006418837e-23 1:1.2958284 2:0 3:0 4:0.020485167 5:0.011369509 6:0.528074 
5.55018943410715e-22 1:14.604968 2:1 3:1 4:0.021901355 5:0.011369509 6:0.528074 
5.550167167222406e-22 1:14.604968 2:1 3:1 4:0.0021421026 5:0.0020671835 6:0.156589 
5.290697092001863e-22 1:13.922099 2:1 3:0 4:0.10773491 5:0.0010335917 6:0.900164 
5.290665399978319e-22 1:13.922099 2:1 3:0 4:0.0020153019 5:0.0010335917 6:0.411822 
4.924429466487397e-23 1:1.2958284 2:0 3:0 4:0.0044648227 5:0.00051679587 6:0.113707 
5.131658443728338e-23 1:1.3503228 2:1 3:0 4:0.010155577 5:0.00051679587 6:0.113707 
1.669431254318877e-22 1:4.3929387 2:1 3:1 4:0.0018013052 5:0.024806202 6:0.218746 
5.550163899233442e-22 1:14.604968 2:1 3:1 4:0.0023631644 5:0.00051679587 6:0.100437 
5.131691382167181e-23 1:1.3503228 2:1 3:0 4:0.036848065 5:0.0020671835 6:0.156205 
5.131681009720505e-23 1:1.3503228 2:1 3:0 4:0.0021421026 5:0.0020671835 6:0.156589 
1.669424571300094e-22 1:4.3929387 2:1 3:1 4:0.0039082555 5:0.0010335917 6:0.103454 
5.290645693280111e-22 1:13.922099 2:1 3:0 4:0.0039700189 5:0.0010335917 6:0.0727034 
5.290643236079442e-22 1:13.922099 2:1 3:0 4:0.00087088544 5:0.0010335917 6:0.0321702 
5.550209393716538e-22 1:14.604968 2:1 3:1 4:0.014032035 5:0.038242894 6:0.874101 
1.669422181132605e-22 1:4.3929387 2:1 3:1 4:0.00091223572 5:0.00051679587 6:0.064027 
5.550169973214124e-22 1:14.604968 2:1 3:1 4:0.014785116 5:0.0020671835 6:0.198107 
5.290656987031771e-22 1:13.922099 2:1 3:0 4:0.016338593 5:0.0010335917 6:0.259984 
1.669423037063985e-22 1:4.3929387 2:1 3:1 4:0.012363107 5:0.0010335917 6:0.0727034 
4.92440742401966e-23 1:1.2958284 2:0 3:0 4:0.0091316244 5:0.038242894 6:0.0727034 
5.131709069637697e-23 1:1.3503228 2:1 3:0 4:0.014785116 5:0.0020671835 6:0.198107 
9.556022415054918e-23 1:2.5144739 2:1 3:1 4:0.020485167 5:0.011369509 6:0.528074 
4.924454937598045e-23 1:1.2958284 2:0 3:0 4:0.0059664821 5:0.0020671835 6:0.156589 
2.379825897258394e-22 1:6.262198 2:0 3:0 4:0.80023869 5:0.0046511628 6:1.07847 
2.379744563070764e-22 1:6.262198 2:0 3:0 4:0.0038013751 5:0.0046511628 6:0.100255 
2.379772360505247e-22 1:6.262198 2:0 3:0 4:0.011298519 5:0.0046511628 6:0.57323 
2.379757964896162e-22 1:6.262198 2:0 3:0 4:0.035655588 5:0.00051679587 6:0.313577 
2.379750139086439e-22 1:6.262198 2:0 3:0 4:0.0015110871 5:0.0036175711 6:0.197139 
1.903059538369596e-22 1:5.0076661 2:1 3:3 4:2.8839836e-05 5:0.016537468 6:0.0683542 
1.584066118066726e-21 1:41.683991 2:0 3:3 4:1.0067875e-05 5:0.0010335917 6:0.187762 
4.782744687413833e-19 1:12585.624 2:1 3:2 4:0.00011492817 5:0.00051679587 6:0.185196 
1.584064733432442e-21 1:41.683991 2:0 3:3 4:1.8686784e-05 5:0.0010335917 6:-0.049795 
1.584073577102482e-21 1:41.683991 2:0 3:3 4:0.99270247 5:0.090956072 6:0.945708 
4.782744677146383e-19 1:12585.624 2:1 3:2 4:0.00013633649 5:0.0010335917 6:0.00902282 
4.782744692938283e-19 1:12585.624 2:1 3:2 4:0.00015470716 5:0.090956072 6:0.278175 
1.584066655815972e-21 1:41.683991 2:0 3:3 4:0.00015470716 5:0.090956072 6:0.278175 
5.09691851392207e-19 1:13412.361 2:1 3:5 4:0.00086103877 5:0.0010335917 6:0.00902282 
4.782744677324563e-19 1:12585.624 2:1 3:2 4:2.764855e-05 5:0.00051679587 6:0.0121468 
1.385521137769667e-22 1:3.6458695 2:1 3:2 4:8.7164851e-05 5:0.0020671835 6:-0.239152 
5.096918522772803e-19 1:13412.361 2:1 3:5 4:0.00011863831 5:0.00051679587 6:0.161268 
1.584068241850684e-21 1:41.683991 2:0 3:3 4:0.00035022787 5:0.090956072 6:0.550178 
5.096918523461072e-19 1:13412.361 2:1 3:5 4:0.00034581594 5:0.0041343669 6:0.172886 
5.096918597921525e-19 1:13412.361 2:1 3:5 4:0.96050029 5:0.090956072 6:0.945708 
4.782744762151148e-19 1:12585.624 2:1 3:2 4:0.99270247 5:0.090956072 6:0.945708 
5.096918529710549e-19 1:13412.361 2:1 3:5 4:0.00076739992 5:0.090956072 6:0.278175 
2.289397337174551e-19 1:6024.4679 2:2 3:1 4:0.76609228 5:0.01498708 6:0.900055 
2.289397308538652e-19 1:6024.4679 2:2 3:1 4:0.016667732 5:0.026356589 6:0.8011 
2.289397264206573e-19 1:6024.4679 2:2 3:1 4:0.0078265976 5:0.037726098 6:0.0449314 
2.289397277589265e-19 1:6024.4679 2:2 3:1 4:0.027830821 5:0.016020672 6:0.264478 
2.289397276827176e-19 1:6024.4679 2:2 3:1 4:0.040288185 5:0.037726098 6:0.244451 
5.970499641599384e-19 1:15711.159 2:1 3:2 4:0.0023548151 5:0.037726098 6:0.282645 
5.970499658733852e-19 1:15711.159 2:1 3:2 4:0.0050817978 5:0.013953488 6:0.575649 
5.970499622052385e-19 1:15711.159 2:1 3:2 4:0.00089851919 5:0.012919897 6:-0.0514589 
5.970499675139102e-19 1:15711.159 2:1 3:2 4:0.38156631 5:0.037726098 6:0.659429 
5.970499624758471e-19 1:15711.159 2:1 3:2 4:0.00076251942 5:0.0082687339 6:-0.00486966 
8.088210008153306e-20 1:2128.3838 2:1 3:1 4:0.0133461 5:0.00051679587 6:0.266399 
8.088209898259498e-20 1:2128.3838 2:1 3:1 4:0.014470002 5:0.00051679587 6:0.0772728 
8.088210277123996e-20 1:2128.3838 2:1 3:1 4:0.099012268 5:0.0046511628 6:0.6829 
8.088209903371374e-20 1:2128.3838 2:1 3:1 4:0.021988781 5:0.00051679587 6:0.0821045 
8.08820991294545e-20 1:2128.3838 2:1 3:1 4:0.018313979 5:0.00051679587 6:0.100455 
1.654476091007514e-18 1:43536.953 2:2 3:3 4:0.011660626 5:0.01498708 6:0.900077 
1.654476087922825e-18 1:43536.953 2:2 3:3 4:0.028800622 5:0.00051679587 6:0.362164 
1.654476087415149e-18 1:43536.953 2:2 3:3 4:0.01426732 5:0.022222222 6:0.282251 
1.654476090608118e-18 1:43536.953 2:2 3:3 4:0.2467356 5:0.026356589 6:0.708197 
1.654476087033601e-18 1:43536.953 2:2 3:3 4:0.011722049 5:0.0025839793 6:0.218511 
5.797948565921612e-19 1:15257.097 2:1 3:1 4:0.013116084 5:0.0041343669 6:0.899736 
5.797948540225471e-19 1:15257.097 2:1 3:1 4:0.071327239 5:0.019121447 6:0.428098 
5.797948526941263e-19 1:15257.097 2:1 3:1 4:0.0068462095 5:0.0020671835 6:0.234301 
5.797948533468336e-19 1:15257.097 2:1 3:1 4:0.022867285 5:0.0010335917 6:0.33791 
5.797948525467536e-19 1:15257.097 2:1 3:1 4:0.0032506157 5:0.0041343669 6:0.21086 
5.438901957818221e-19 1:14312.278 2:0 3:0 4:0.046203763 5:0.00051679587 6:0.900025 
5.438901951497726e-19 1:14312.278 2:0 3:0 4:0.036858775 5:0.090956072 6:0.794704 
5.438901912575785e-19 1:14312.278 2:0 3:0 4:0.00055068772 5:0.0010335917 6:0.147734 
5.438901919795017e-19 1:14312.278 2:0 3:0 4:0.017538832 5:0.0010335917 6:0.262691 
5.438901899633782e-19 1:14312.278 2:0 3:0 4:0.00059076347 5:0.0010335917 6:-0.0743243 
5.482420616270132e-19 1:14426.796 2:0 3:0 4:0.92493269 5:0.019121447 6:0.778607 
5.482420553122952e-19 1:14426.796 2:0 3:0 4:0.00018908218 5:0.0020671835 6:0.179958 
5.482420555988215e-19 1:14426.796 2:0 3:0 4:0.00010271003 5:0.0010335917 6:0.229181 
5.482420547482049e-19 1:14426.796 2:0 3:0 4:0.00014866851 5:0.0010335917 6:0.0832223 
5.482420544023781e-19 1:14426.796 2:0 3:0 4:0.00023742289 5:0.0041343669 6:0.0237836 
4.56545551610315e-23 1:1.201307 2:0 3:2 4:0.0025945476 5:0.0020671835 6:-0.0263467 
4.565580141793981e-23 1:1.201307 2:0 3:2 4:0.00213544 5:0.038242894 6:0.186994 
4.565591033615163e-23 1:1.201307 2:0 3:2 4:0.0023499692 5:0.038242894 6:0.205568 
4.879152759220435e-23 1:1.2838761 2:0 3:2 4:0.003848841 5:0.0020671835 6:-0.162662 
4.879356456749956e-23 1:1.2838761 2:0 3:2 4:0.00213544 5:0.038242894 6:0.186994 
4.565376444264458e-23 1:1.201307 2:0 3:2 4:0.003848841 5:0.0020671835 6:-0.162662 
4.565501494884356e-23 1:1.201307 2:0 3:2 4:0.0031385214 5:0.00051679587 6:0.0522816 
4.879277809840332e-23 1:1.2838761 2:0 3:2 4:0.0031385214 5:0.00051679587 6:0.0522816 
4.879231831059125e-23 1:1.2838761 2:0 3:2 4:0.0025945476 5:0.0020671835 6:-0.0263467 
4.87936734857114e-23 1:1.2838761 2:0 3:2 4:0.0023499692 5:0.038242894 6:0.205568 
1.031342284640689e-18 1:27139.408 2:1 3:1 4:0.95678705 5:0.013953488 6:0.900087 
1.031342275793904e-18 1:27139.408 2:1 3:1 4:0.0026425077 5:0.0020671835 6:-0.117673 
1.031342277987801e-18 1:27139.408 2:1 3:1 4:0.002603768 5:0.037726098 6:0.258038 
1.031342277356328e-18 1:27139.408 2:1 3:1 4:0.00021311296 5:0.0087855297 6:0.151522 
1.031342277674066e-18 1:27139.408 2:1 3:1 4:0.00040212711 5:0.00051679587 6:0.206098 
1.014545955926614e-18 1:26697.418 2:2 3:2 4:0.29763534 5:0.022222222 6:1.09977 
9.873874768627012e-22 1:25.982396 2:2 3:2 4:0.42540974 5:0.022222222 6:1.09977 
8.595620315275264e-23 1:2.2618543 2:0 3:0 4:0.00051350134 5:0.0015503876 6:0.343851 
8.595537795203082e-23 1:2.2618543 2:0 3:1 4:0.0046664134 5:0.037726098 6:-0.062553 
1.014545952148965e-18 1:26697.418 2:2 3:2 4:0.031600598 5:0.026356589 6:0.590934 
8.595480050929829e-23 1:2.2618543 2:0 3:1 4:0.0014507248 5:0.0082687339 6:-0.159357 
8.595684811389133e-23 1:2.2618543 2:0 3:1 4:0.0014724154 5:0.016020672 6:0.191773 
9.873794797722297e-22 1:25.982396 2:2 3:2 4:0.041084939 5:0.037726098 6:-0.0712296 
8.5956652836205e-23 1:2.2618543 2:0 3:1 4:0.0087833893 5:0.00051679587 6:0.154746 
9.873812023763779e-22 1:25.982396 2:2 3:2 4:0.010874995 5:0.0020671835 6:0.240832 
1.014545950055967e-18 1:26697.418 2:2 3:2 4:0.012846981 5:0.037726098 6:0.241452 
6.338675231105563e-23 1:1.6678561 2:2 3:2 4:0.00042131739 5:0.0025839793 6:-0.0652378 
8.595465020361327e-23 1:2.2618543 2:0 3:0 4:0.00046435306 5:0.0015503876 6:0.0774476 
1.014545948256922e-18 1:26697.418 2:2 3:2 4:0.020543233 5:0.037726098 6:-0.0712296 
9.873808458515438e-22 1:25.982396 2:2 3:2 4:0.013373829 5:0.00051679587 6:0.178387 
1.014545950092385e-18 1:26697.418 2:2 3:2 4:0.027298121 5:0.0020671835 6:0.240832 
8.595773880506511e-23 1:2.2618543 2:0 3:1 4:0.0014902307 5:0.0025839793 6:0.344838 
6.338738633204421e-23 1:1.6678561 2:2 3:2 4:0.0013352624 5:0.00051679587 6:0.0430989 
6.338790027797087e-23 1:1.6678561 2:2 3:2 4:0.0010352375 5:0.0015503876 6:0.13141 
9.873833071286126e-22 1:25.982396 2:2 3:2 4:0.030955602 5:0.026356589 6:0.590934 
1.003991502382624e-18 1:26419.681 2:1 3:1 4:0.8897709 5:0.026873385 6:0.980647 
9.518900423693237e-23 1:2.5048609 2:0 3:0 4:0.0045681184 5:0.01498708 6:0.0240368 
1.391180828739091e-22 1:3.6607759 2:1 3:1 4:0.0010560601 5:0.016020672 6:-0.063556 
1.391186025537687e-22 1:3.6607759 2:1 3:1 4:0.0040830192 5:0.01498708 6:0.0240368 
1.003991493622379e-18 1:26419.681 2:1 3:1 4:0.0012478731 5:0.037726098 6:-0.0570865 
9.733920526706438e-23 1:2.561391 2:0 3:1 4:0.0018225579 5:0.0031007752 6:0.100532 
2.858711428769548e-22 1:7.5225609 2:0 3:1 4:0.0014004912 5:0.037726098 6:-0.0208906 
9.518873530287459e-23 1:2.5048609 2:0 3:0 4:0.0014004912 5:0.037726098 6:-0.0208906 
1.003991493654114e-18 1:26419.681 2:1 3:1 4:0.0016302626 5:0.012919897 6:-0.0513542 
1.003991494538882e-18 1:26419.681 2:1 3:1 4:0.0018225579 5:0.0031007752 6:0.100532 
1.391190449209883e-22 1:3.6607759 2:1 3:1 4:0.0098861666 5:0.0010335917 6:0.0971656 
1.003991493833822e-18 1:26419.681 2:1 3:1 4:0.0014004912 5:0.037726098 6:-0.0208906 
2.858796916787653e-22 1:7.5225609 2:0 3:1 4:0.8897709 5:0.026873385 6:0.980647 
9.51894403625983e-23 1:2.5048609 2:0 3:0 4:0.0018225579 5:0.0031007752 6:0.100532 
9.733850020734065e-23 1:2.561391 2:0 3:1 4:0.0014004912 5:0.037726098 6:-0.0208906 
2.858709631688398e-22 1:7.5225609 2:0 3:1 4:0.0016302626 5:0.012919897 6:-0.0513542 
9.73383204992256e-23 1:2.561391 2:0 3:1 4:0.0016302626 5:0.012919897 6:-0.0513542 
9.734704900915113e-23 1:2.561391 2:0 3:1 4:0.8897709 5:0.026873385 6:0.980647 
2.858718479366785e-22 1:7.5225609 2:0 3:1 4:0.0018225579 5:0.0031007752 6:0.100532 
1.391184482337811e-22 1:3.6607759 2:1 3:1 4:0.0019079214 5:0.0010335917 6:-0.00102497 
9.519728410468507e-23 1:2.5048609 2:0 3:0 4:0.8897709 5:0.026873385 6:0.980647 
2.858714118110126e-22 1:7.5225609 2:0 3:1 4:0.0045681184 5:0.01498708 6:0.0240368 
1.391195743454276e-22 1:3.6607759 2:1 3:1 4:0.0017112122 5:0.01498708 6:0.192003 
9.733876914139846e-23 1:2.561391 2:0 3:1 4:0.0045681184 5:0.01498708 6:0.0240368 
9.518855559475954e-23 1:2.5048609 2:0 3:0 4:0.0016302626 5:0.012919897 6:-0.0513542 
1.318366992211927e-18 1:34692.361 2:2 3:2 4:0.01318585 5:0.0015503876 6:0.632094 
1.318366994703916e-18 1:34692.361 2:2 3:2 4:0.39493972 5:0.00051679587 6:0.859682 
1.318366991471742e-18 1:34692.361 2:2 3:2 4:0.16173492 5:0.0015503876 6:0.427294 
1.318366989189887e-18 1:34692.361 2:2 3:2 4:0.018137909 5:0.037726098 6:0.110317 
1.318366991066489e-18 1:34692.361 2:2 3:2 4:0.029021838 5:0.0010335917 6:0.427294 
1.612366965561096e-18 1:42428.867 2:2 3:3 4:0.024218601 5:0.0025839793 6:0.609371 
1.612366963044714e-18 1:42428.867 2:2 3:3 4:0.00094703289 5:0.0025839793 6:0.189842 
1.612366962780145e-18 1:42428.867 2:2 3:3 4:0.0012958492 5:0.0025839793 6:0.144269 
4.944834026226788e-20 1:1301.2156 2:0 3:0 4:0.001163016 5:0.0025839793 6:-0.278891 
1.612366962866362e-18 1:42428.867 2:2 3:3 4:0.0017420032 5:0.0025839793 6:0.158827 
1.612366965490587e-18 1:42428.867 2:2 3:3 4:0.0011248905 5:0.0025839793 6:0.609371 
1.00293137442169e-21 1:26.391728 2:0 3:1 4:0.010366753 5:0.0051679587 6:0.100444 
1.001591860372001e-22 1:2.6355999 2:1 3:0 4:0.00039017331 5:0.01498708 6:0.109897 
7.705058647220813e-23 1:2.0274759 2:1 3:1 4:0.0013084826 5:0.016020672 6:0.038795 
7.705088554591713e-23 1:2.0274759 2:1 3:1 4:0.0028583507 5:0.00051679587 6:0.0895983 
7.705165692679695e-23 1:2.0274759 2:1 3:1 4:0.0014130566 5:0.012919897 6:0.222452 
7.705192344437274e-23 1:2.0274759 2:1 3:1 4:0.0012070663 5:0.026873385 6:0.26801 
1.002931317902663e-21 1:26.391728 2:0 3:1 4:0.00569288 5:0.0031007752 6:0.0932363 
1.001581636154308e-22 1:2.6355999 2:1 3:0 4:0.00099353169 5:0.0025839793 6:-0.0655851 
7.7053073803984e-23 1:2.0274759 2:1 3:1 4:0.0057242261 5:0.049612403 6:0.462556 
1.00293347600513e-21 1:26.391728 2:0 3:1 4:0.0057242261 5:0.049612403 6:0.462556 
1.002932223355678e-21 1:26.391728 2:0 3:1 4:0.0070245953 5:0.037726098 6:0.2472 
1.002933998753332e-21 1:26.391728 2:0 3:1 4:0.0093675584 5:0.0036175711 6:0.551237 
9.167283760712237e-19 1:24123.383 2:2 3:2 4:2.9190118e-05 5:0.00051679587 6:-0.0171235 
9.167283766909323e-19 1:24123.383 2:2 3:2 4:0.010956842 5:0.00051679587 6:0.0834718 
9.167283780555382e-19 1:24123.383 2:2 3:2 4:0.0021848669 5:0.00051679587 6:0.322183 
9.167283763066542e-19 1:24123.383 2:2 3:2 4:0.00022995782 5:0.00051679587 6:0.0231626 
9.167283774465627e-19 1:24123.383 2:2 3:2 4:0.00021296688 5:0.00051679587 6:0.218738 
4.668803628377706e-21 1:122.85782 2:0 3:1 4:0.099921458 5:0.034625323 6:0.352422 
4.668803872592471e-21 1:122.85782 2:0 3:1 4:0.0040381794 5:0.049612403 6:0.44425 
4.66880229466662e-21 1:122.85782 2:0 3:1 4:0.023856862 5:0.014470284 6:0.163846 
4.668803052516858e-21 1:122.85782 2:0 3:1 4:0.011107708 5:0.049612403 6:0.299852 
4.668802106299669e-21 1:122.85782 2:0 3:1 4:0.0036742736 5:0.0051679587 6:0.142284 
1.346061810738775e-22 1:3.541911 2:1 3:2 4:0.057915136 5:0.00051679587 6:0.530254 
5.546198926313281e-23 1:1.4593905 2:1 3:2 4:0.010999385 5:0.0046511628 6:-0.298988 
1.346045110516212e-22 1:3.541911 2:1 3:2 4:0.013886543 5:0.00051679587 6:0.266802 
7.115403841558957e-23 1:1.8721903 2:1 3:2 4:0.057915136 5:0.00051679587 6:0.530254 
9.261307938898491e-23 1:2.4368774 2:1 3:2 4:0.057915136 5:0.00051679587 6:0.530254 
3.824885940247179e-22 1:10.064892 2:1 3:1 4:0.024895448 5:0.00051679587 6:0.530254 
2.402759481667379e-22 1:6.3227045 2:1 3:2 4:0.010999385 5:0.0046511628 6:-0.298988 
1.346012048618049e-22 1:3.541911 2:1 3:2 4:0.010999385 5:0.0046511628 6:-0.298988 
5.546486655447388e-23 1:1.4593905 2:1 3:2 4:0.0065818742 5:0.00051679587 6:0.197045 
7.114906220351696e-23 1:1.8721903 2:1 3:2 4:0.010999385 5:0.0046511628 6:-0.298988 
5.54652954529492e-23 1:1.4593905 2:1 3:2 4:0.013886543 5:0.00051679587 6:0.266802 
2.402804062732547e-22 1:6.3227045 2:1 3:2 4:0.1391388 5:0.0046511628 6:0.398739 
1.346056629683216e-22 1:3.541911 2:1 3:2 4:0.1391388 5:0.0046511628 6:0.398739 
9.261256128342905e-23 1:2.4368774 2:1 3:2 4:0.1391388 5:0.0046511628 6:0.398739 
9.261508235499667e-23 1:2.4368774 2:1 3:2 4:0.0086196342 5:0.00051679587 6:0.899711 
3.824837395452857e-22 1:10.064892 2:1 3:1 4:0.017850786 5:0.0046511628 6:-0.298988 
5.546696547520542e-23 1:1.4593905 2:1 3:2 4:0.057915136 5:0.00051679587 6:0.530254 
5.546644736964959e-23 1:1.4593905 2:1 3:2 4:0.1391388 5:0.0046511628 6:0.398739 
7.115352031003373e-23 1:1.8721903 2:1 3:2 4:0.1391388 5:0.0046511628 6:0.398739 
7.115193949485804e-23 1:1.8721903 2:1 3:2 4:0.0065818742 5:0.00051679587 6:0.197045 
3.824858473277317e-22 1:10.064892 2:1 3:1 4:0.010152087 5:0.00051679587 6:0.0667442 
2.402809243788105e-22 1:6.3227045 2:1 3:2 4:0.057915136 5:0.00051679587 6:0.530254 
3.824867779986953e-22 1:10.064892 2:1 3:1 4:0.066218682 5:0.00051679587 6:0.197045 
9.261140936672869e-23 1:2.4368774 2:1 3:2 4:0.013886543 5:0.00051679587 6:0.266802 
3.824870159836717e-22 1:10.064892 2:1 3:1 4:0.010993459 5:0.00051679587 6:0.266802 
2.402792543565543e-22 1:6.3227045 2:1 3:2 4:0.013886543 5:0.00051679587 6:0.266802 
7.115236839333336e-23 1:1.8721903 2:1 3:2 4:0.013886543 5:0.00051679587 6:0.266802 
9.260810317691229e-23 1:2.4368774 2:1 3:2 4:0.010999385 5:0.0046511628 6:-0.298988 
2.402829273448223e-22 1:6.3227045 2:1 3:2 4:0.0086196342 5:0.00051679587 6:0.899711 
1.34604082153146e-22 1:3.541911 2:1 3:2 4:0.0065818742 5:0.00051679587 6:0.197045 
1.849003329630102e-19 1:4865.5867 2:0 3:0 4:0.84064502 5:0.038242894 6:0.899839 
6.033932260496313e-23 1:1.5877409 2:0 3:0 4:0.00074991983 5:0.0010335917 6:0.436742 
1.849003257490326e-19 1:4865.5867 2:0 3:0 4:0.0001576869 5:0.0020671835 6:0.103152 
4.298484507764673e-23 1:1.1311171 2:0 3:0 4:0.00024971102 5:0.0010335917 6:0.0904602 
4.29845514857156e-23 1:1.1311171 2:0 3:0 4:6.9789655e-05 5:0.00051679587 6:0.040195 
1.849003275668355e-19 1:4865.5867 2:0 3:0 4:0.0036023485 5:0.0020671835 6:0.413216 
4.298586271251617e-23 1:1.1311171 2:0 3:0 4:9.7546267e-05 5:0.024806202 6:0.264661 
1.849003275527693e-19 1:4865.5867 2:0 3:0 4:0.015994199 5:0.038242894 6:0.4036 
6.033833823432438e-23 1:1.5877409 2:0 3:0 4:0.0062943028 5:0.016020672 6:0.264661 
4.830442823443979e-19 1:12711.139 2:2 3:2 4:0.0051143119 5:0.019638243 6:0.306142 
4.830442822639895e-19 1:12711.139 2:2 3:2 4:0.020154163 5:0.016020672 6:0.28454 
4.830442830639664e-19 1:12711.139 2:2 3:2 4:0.060894301 5:0.01498708 6:0.400467 
4.830442809007955e-19 1:12711.139 2:2 3:2 4:0.0067965358 5:0.037726098 6:0.0572357 
4.830442849917629e-19 1:12711.139 2:2 3:2 4:0.030892011 5:0.026356589 6:0.746698 
4.261861970474629e-19 1:11214.939 2:1 3:2 4:0.089447713 5:0.016537468 6:0.900069 
4.261861979096549e-19 1:11214.939 2:1 3:2 4:0.19388126 5:0.090956072 6:0.991822 
5.736763433776816e-22 1:15.095944 2:1 3:3 4:0.0030365369 5:0.0020671835 6:-0.0720129 
4.261861932991217e-19 1:11214.939 2:1 3:2 4:0.046752453 5:0.090956072 6:0.277891 
4.261861936525318e-19 1:11214.939 2:1 3:2 4:0.029067568 5:0.0041343669 6:0.349495 
4.261861942057996e-19 1:11214.939 2:1 3:2 4:0.021624964 5:0.0010335917 6:0.448375 
4.4712525031872e-23 1:1.1764478 2:1 3:3 4:0.0030365369 5:0.0020671835 6:-0.0720129 
2.565133364489783e-22 1:6.7499047 2:1 3:3 4:0.00061768863 5:0.00051679587 6:-0.0277848 
5.736785145432057e-22 1:15.095944 2:1 3:3 4:0.013880188 5:0.0036175711 6:0.294769 
1.923144551971118e-18 1:50606.869 2:0 3:0 4:0.4976102 5:0.0015503876 6:0.899786 
4.021848211719513e-23 1:1.0582875 2:0 3:1 4:0.00086996778 5:0.037726098 6:0.0473728 
1.02862624885022e-22 1:2.7067745 2:0 3:0 4:0.0001502248 5:0.00051679587 6:0.124642 
3.901612645792174e-23 1:1.0266527 2:0 3:1 4:0.001038231 5:0.016020672 6:0.0170139 
3.901645061455187e-23 1:1.0266527 2:0 3:1 4:0.0011479408 5:0.0041343669 6:0.0728037 
4.352298568641894e-23 1:1.1452491 2:0 3:1 4:0.001038231 5:0.016020672 6:0.0170139 
3.901645141081318e-23 1:1.0266527 2:0 3:1 4:0.00097984739 5:0.0015503876 6:0.0730792 
1.028622834319991e-22 1:2.7067745 2:0 3:0 4:0.00042438909 5:0.0010335917 6:0.0659074 
1.028628918365682e-22 1:2.7067745 2:0 3:0 4:0.00015996003 5:0.00051679587 6:0.170436 
3.901630538794743e-23 1:1.0266527 2:0 3:1 4:0.00086996778 5:0.037726098 6:0.0473728 
3.901645061455187e-23 1:1.0266527 2:0 3:1 4:0.0011479408 5:0.0041343669 6:0.0728037 
4.352330984304906e-23 1:1.1452491 2:0 3:1 4:0.0011479408 5:0.0041343669 6:0.0728037 
4.021733890468225e-23 1:1.0582875 2:0 3:1 4:0.00078312654 5:0.016020672 6:-0.148288 
4.021862734379958e-23 1:1.0582875 2:0 3:1 4:0.0011479408 5:0.0041343669 6:0.0728037 
3.901612645792174e-23 1:1.0266527 2:0 3:1 4:0.001038231 5:0.016020672 6:0.0170139 
4.228272156778235e-23 1:1.1126034 2:0 3:1 4:0.0011479408 5:0.0041343669 6:0.0728037 
1.92314454813404e-18 1:50606.869 2:0 3:0 4:0.0015534381 5:0.01498708 6:0.501059 
1.028620869234658e-22 1:2.7067745 2:0 3:0 4:0.00016330051 5:0.0010335917 6:0.0323305 
1.923144546248962e-18 1:50606.869 2:0 3:0 4:0.001544442 5:0.0010335917 6:0.177928 
1.923144547495299e-18 1:50606.869 2:0 3:0 4:0.2093907 5:0.016020672 6:0.282587 
3.901536313519331e-23 1:1.0266527 2:0 3:1 4:0.0031409335 5:0.0015503876 6:-0.114761 
4.228143312866502e-23 1:1.1126034 2:0 3:1 4:0.00078312654 5:0.016020672 6:-0.148288 
1.92314454730478e-18 1:50606.869 2:0 3:0 4:0.0015105024 5:0.026873385 6:0.358577 
4.021830318716946e-23 1:1.0582875 2:0 3:1 4:0.001038231 5:0.016020672 6:0.0170139 
3.901630538794743e-23 1:1.0266527 2:0 3:1 4:0.00086996778 5:0.037726098 6:0.0473728 
4.021862814006089e-23 1:1.0582875 2:0 3:1 4:0.00097984739 5:0.0015503876 6:0.0730792 
3.901516217543453e-23 1:1.0266527 2:0 3:1 4:0.00078312654 5:0.016020672 6:-0.148288 
1.028628983148818e-22 1:2.7067745 2:0 3:0 4:0.00038860743 5:0.0025839793 6:0.171387 
3.901645141081318e-23 1:1.0266527 2:0 3:1 4:0.00097984739 5:0.0015503876 6:0.0730792 
4.352202140393172e-23 1:1.1452491 2:0 3:1 4:0.00078312654 5:0.016020672 6:-0.148288 
4.352316461644462e-23 1:1.1452491 2:0 3:1 4:0.00086996778 5:0.037726098 6:0.0473728 
4.228272236404366e-23 1:1.1126034 2:0 3:1 4:0.00097984739 5:0.0015503876 6:0.0730792 
4.228239741115223e-23 1:1.1126034 2:0 3:1 4:0.001038231 5:0.016020672 6:0.0170139 
4.228257634117791e-23 1:1.1126034 2:0 3:1 4:0.00086996778 5:0.037726098 6:0.0473728 
4.352331063931037e-23 1:1.1452491 2:0 3:1 4:0.00097984739 5:0.0015503876 6:0.0730792 
1.851404588887434e-19 1:4871.9055 2:0 3:1 4:0.7817749 5:0.012919897 6:0.900065 
3.915913965226215e-23 1:1.0303603 2:0 3:0 4:0.051471816 5:0.037726098 6:0.615297 
1.851404511677632e-19 1:4871.9055 2:0 3:1 4:0.0074528028 5:0.037726098 6:-0.0194629 
3.915689441287817e-23 1:1.0303603 2:0 3:0 4:0.0021205811 5:0.00051679587 6:0.256679 
1.162863248248881e-22 1:3.060029 2:0 3:0 4:0.0026168796 5:0.00051679587 6:0.0284559 
1.851404556136981e-19 1:4871.9055 2:0 3:1 4:0.023829254 5:0.0082687339 6:0.735298 
1.851404557836027e-19 1:4871.9055 2:0 3:1 4:0.0061201687 5:0.037726098 6:0.773144 
3.915765698847481e-23 1:1.0303603 2:0 3:0 4:0.0033727461 5:0.037726098 6:0.386121 
1.162869738971249e-22 1:3.060029 2:0 3:0 4:8.714771e-05 5:0.00051679587 6:0.141138 
1.162867358501274e-22 1:3.060029 2:0 3:0 4:0.00055810735 5:0.0010335917 6:0.100041 
3.915820731436608e-23 1:1.0303603 2:0 3:0 4:0.0027873344 5:0.0051679587 6:0.481484 
3.915736661098679e-23 1:1.0303603 2:0 3:0 4:0.0010416296 5:0.016020672 6:0.337951 
1.162870429772236e-22 1:3.060029 2:0 3:0 4:0.00011566791 5:0.0025839793 6:0.152934 
1.16287094606043e-22 1:3.060029 2:0 3:0 4:6.6578001e-05 5:0.00051679587 6:0.161858 
1.851404528771375e-19 1:4871.9055 2:0 3:1 4:0.0039133919 5:0.0010335917 6:0.276379 
5.378473175180833e-21 1:141.53244 2:1 3:0 4:0.03622751 5:0.037726098 6:0.899747 
9.047097974772059e-22 1:23.807006 2:0 3:2 4:0.019139992 5:0.0015503876 6:0.201291 
9.0471392492298e-22 1:23.807006 2:0 3:2 4:0.03622751 5:0.037726098 6:0.899747 
9.047095238845725e-22 1:23.807006 2:0 3:2 4:0.01190024 5:0.037726098 6:0.157433 
5.378467845632573e-21 1:141.53244 2:1 3:0 4:0.0010953087 5:0.0020671835 6:0.00449609 
5.378469430259161e-21 1:141.53244 2:1 3:0 4:0.0014817625 5:0.00051679587 6:0.276188 
5.378468781217655e-21 1:141.53244 2:1 3:0 4:0.0023724605 5:0.01498708 6:0.164085 
5.378468490940712e-21 1:141.53244 2:1 3:0 4:0.00082577578 5:0.00051679587 6:0.115379 
8.402757718325108e-23 1:2.2111179 2:0 3:1 4:0.00082552425 5:0.0025839793 6:-0.0139641 
8.402871797642089e-23 1:2.2111179 2:0 3:1 4:0.00050770931 5:0.0015503876 6:0.181941 
9.047119329171671e-22 1:23.807006 2:0 3:2 4:0.023435704 5:0.026356589 6:0.564916 
9.047098086971401e-22 1:23.807006 2:0 3:2 4:0.14574185 5:0.00051679587 6:0.136921 
2.582881479088372e-22 1:6.7967571 2:0 3:0 4:0.0023375246 5:0.01498708 6:0.0263314 
3.679976053087765e-18 1:96837.269 2:3 3:3 4:0.0083575342 5:0.00051679587 6:0.899963 
3.679976048825559e-18 1:96837.269 2:3 3:3 4:0.015358202 5:0.0025839793 6:0.165017 
3.679976050861843e-18 1:96837.269 2:3 3:3 4:0.069340213 5:0.00051679587 6:0.486133 
3.679976048941085e-18 1:96837.269 2:3 3:3 4:0.018491181 5:0.0025839793 6:0.183196 
3.679976051035684e-18 1:96837.269 2:3 3:3 4:0.0081133425 5:0.0031007752 6:0.547978 
7.627204317926862e-23 1:2.0068121 2:1 3:2 4:0.056734569 5:0.016020672 6:0.899979 
1.971716645447716e-19 1:5188.5024 2:2 3:3 4:0.070170236 5:0.037726098 6:0.341792 
1.971716642116593e-19 1:5188.5024 2:2 3:3 4:0.0026047352 5:0.01498708 6:0.320481 
3.266249627073789e-22 1:8.5949999 2:0 3:0 4:0.002404313 5:0.00051679587 6:0.132901 
3.266241869549311e-22 1:8.5949999 2:0 3:0 4:0.0010093489 5:0.0020671835 6:0.000510508 
1.971716630206405e-19 1:5188.5024 2:2 3:3 4:0.0046501673 5:0.037726098 6:0.114627 
1.971716634907111e-19 1:5188.5024 2:2 3:3 4:0.0046870828 5:0.0025839793 6:0.195946 
3.266247647898412e-22 1:8.5949999 2:0 3:0 4:0.00039729709 5:0.00051679587 6:0.0999969 
7.627191454229615e-23 1:2.0068121 2:1 3:2 4:0.097469302 5:0.026356589 6:0.856369 
7.627051928400257e-23 1:2.0068121 2:1 3:2 4:0.11380549 5:0.0072351421 6:0.608813 
7.626883315671101e-23 1:2.0068121 2:1 3:2 4:0.070170236 5:0.037726098 6:0.341792 
1.971716676261572e-19 1:5188.5024 2:2 3:3 4:0.097469302 5:0.026356589 6:0.856369 
7.626754727277799e-23 1:2.0068121 2:1 3:2 4:0.010972248 5:0.016020672 6:0.152617 
1.067914927034299e-22 1:2.8100688 2:0 3:2 4:0.00067664982 5:0.00051679587 6:0.203502 
1.067919105586447e-22 1:2.8100688 2:0 3:2 4:0.00066605144 5:0.0072351421 6:0.275064 
5.472940431108115e-19 1:14401.849 2:3 3:4 4:0.00067545803 5:0.0072351421 6:0.275064 
5.472940426935437e-19 1:14401.849 2:3 3:4 4:0.00087847761 5:0.00051679587 6:0.203502 
3.696295304316555e-19 1:9726.6703 2:0 3:0 4:0.74017909 5:0.016020672 6:0.899643 
6.248465654210816e-23 1:1.6442068 2:0 3:0 4:0.002352661 5:0.01498708 6:0.35637 
5.70411188793978e-23 1:1.5009825 2:0 3:0 4:0.00011790964 5:0.0025839793 6:0.223907 
4.885943432087841e-23 1:1.2856561 2:0 3:0 4:0.0013969604 5:0.026356589 6:0.407511 
3.6962952589603e-19 1:9726.6703 2:0 3:0 4:0.12686639 5:0.016020672 6:0.442755 
6.248495301627441e-23 1:1.6442068 2:0 3:0 4:0.0013969604 5:0.026356589 6:0.407511 
6.248554033709976e-23 1:1.6442068 2:0 3:0 4:0.12686639 5:0.016020672 6:0.442755 
5.704093368316308e-23 1:1.5009825 2:0 3:0 4:0.00010731755 5:0.0015503876 6:0.19216 
3.696295262624005e-19 1:9726.6703 2:0 3:0 4:0.031195663 5:0.016020672 6:0.555724 
6.248410107108448e-23 1:1.6442068 2:0 3:0 4:0.0006042733 5:0.022222222 6:0.261845 
6.248590670764817e-23 1:1.6442068 2:0 3:0 4:0.031195663 5:0.016020672 6:0.555724 
3.696295262938479e-19 1:9726.6703 2:0 3:0 4:0.0075119049 5:0.016020672 6:0.573525 
4.886041945964643e-23 1:1.2856561 2:0 3:0 4:0.0075119049 5:0.016020672 6:0.573525 
4.885913784671216e-23 1:1.2856561 2:0 3:0 4:0.002352661 5:0.01498708 6:0.35637 
4.886038801225218e-23 1:1.2856561 2:0 3:0 4:0.031195663 5:0.016020672 6:0.555724 
3.696295233075717e-19 1:9726.6703 2:0 3:0 4:0.0034539831 5:0.00051679587 6:0.0636201 
4.886002164170375e-23 1:1.2856561 2:0 3:0 4:0.12686639 5:0.016020672 6:0.442755 
7.617114615635161e-19 1:20044.168 2:2 3:2 4:0.89094421 5:0.026356589 6:1.1003 
4.703450240882708e-23 1:1.2375349 2:2 3:2 4:0.00042295188 5:0.0025839793 6:0.0490984 
4.703711265064806e-23 1:1.2375349 2:2 3:2 4:0.0050749512 5:0.037726098 6:0.493792 
4.703496076928495e-23 1:1.2375349 2:2 3:2 4:9.2536854e-05 5:0.00051679587 6:0.12795 
7.617114545099277e-19 1:20044.168 2:2 3:2 4:0.00093408744 5:0.022222222 6:0.35644 
7.617114557510883e-19 1:20044.168 2:2 3:2 4:0.0011722283 5:0.00051679587 6:0.56968 
7.617114527146972e-19 1:20044.168 2:2 3:2 4:0.00042295188 5:0.0025839793 6:0.0490984 
7.617114553249391e-19 1:20044.168 2:2 3:2 4:0.0050749512 5:0.037726098 6:0.493792 
1.158399337581889e-18 1:30482.869 2:1 3:2 4:0.13108859 5:0.0041343669 6:0.899788 
1.158399334207256e-18 1:30482.869 2:1 3:2 4:0.046162948 5:0.01498708 6:0.365096 
1.158399334686172e-18 1:30482.869 2:1 3:2 4:0.021348197 5:0.026356589 6:0.460035 
1.158399334869002e-18 1:30482.869 2:1 3:2 4:0.031502951 5:0.0072351421 6:0.486459 
1.158399333382964e-18 1:30482.869 2:1 3:2 4:0.030652998 5:0.01498708 6:0.231802 
9.177662002717215e-19 1:24150.693 2:1 3:1 4:0.00028160244 5:0.00051679587 6:0.899819 
1.390831694192833e-18 1:36599.244 2:1 3:3 4:0.0046097605 5:0.0087855297 6:0.108514 
1.39083169499222e-18 1:36599.244 2:1 3:3 4:0.0044857807 5:0.016020672 6:0.245582 
1.390831693467422e-18 1:36599.244 2:1 3:3 4:0.0017993665 5:0.0025839793 6:-0.0143458 
1.390831694804522e-18 1:36599.244 2:1 3:3 4:0.0031933248 5:0.00051679587 6:0.214362 
1.39083169479331e-18 1:36599.244 2:1 3:3 4:0.0052397233 5:0.0020671835 6:0.211336 
2.190853738987785e-19 1:5765.154 2:2 3:3 4:0.0003734742 5:0.00051679587 6:0.0358843 
2.19085374150525e-19 1:5765.154 2:2 3:3 4:0.0011234166 5:0.0015503876 6:0.0786616 
2.190853740188016e-19 1:5765.154 2:2 3:3 4:0.00087705972 5:0.0025839793 6:0.0561714 
2.345795494824642e-19 1:6172.8776 2:2 3:3 4:0.28471608 5:0.026356589 6:0.899664 
2.345795426102485e-19 1:6172.8776 2:2 3:3 4:0.0075162015 5:0.022222222 6:-0.134075 
2.345795435215881e-19 1:6172.8776 2:2 3:3 4:0.0018350614 5:0.0025839793 6:0.0256397 
2.345795445671632e-19 1:6172.8776 2:2 3:3 4:0.011695019 5:0.00051679587 6:0.199898 
2.345795446837111e-19 1:6172.8776 2:2 3:3 4:0.0060778582 5:0.0025839793 6:0.222795 
2.187667751820989e-18 1:57567.704 2:2 3:2 4:0.0011745857 5:0.00051679587 6:0.899945 
2.187667749415117e-18 1:57567.704 2:2 3:2 4:0.0023151606 5:0.037726098 6:0.485856 
2.18766774661155e-18 1:57567.704 2:2 3:2 4:0.00074203362 5:0.00051679587 6:0.0064227 
2.1876677473222e-18 1:57567.704 2:2 3:2 4:0.0010725703 5:0.00051679587 6:0.128171 
2.187667747806451e-18 1:57567.704 2:2 3:2 4:0.0055443091 5:0.014470284 6:0.208634 
1.465130503753957e-18 1:38554.391 2:2 3:2 4:0.34501287 5:0.02377261 6:0.89964 
1.465130501861211e-18 1:38554.391 2:2 3:2 4:0.15808387 5:0.00051679587 6:0.673287 
1.465130499726467e-18 1:38554.391 2:2 3:2 4:0.10895008 5:0.00051679587 6:0.33278 
1.465130500237989e-18 1:38554.391 2:2 3:2 4:0.012867358 5:0.090956072 6:0.469088 
1.465130498591366e-18 1:38554.391 2:2 3:2 4:0.0070428597 5:0.0010335917 6:0.191408 
1.287008367416459e-18 1:33867.17 2:2 3:1 4:0.40773219 5:0.00051679587 6:0.900175 
1.287008365462914e-18 1:33867.17 2:2 3:1 4:0.061360562 5:0.0036175711 6:0.74639 
1.287008363520887e-18 1:33867.17 2:2 3:1 4:0.063479944 5:0.0015503876 6:0.41214 
1.287008362603896e-18 1:33867.17 2:2 3:1 4:0.023343491 5:0.037726098 6:0.27513 
1.287008364383905e-18 1:33867.17 2:2 3:1 4:0.011045036 5:0.026356589 6:0.58718 
4.590172067640426e-19 1:12078.875 2:1 3:1 4:0.28398748 5:0.037726098 6:0.899945 
4.590172038317462e-19 1:12078.875 2:1 3:1 4:0.0009407546 5:0.037726098 6:0.545133 
4.590172026084788e-19 1:12078.875 2:1 3:1 4:0.00041341252 5:0.0020671835 6:0.336243 
4.590172017162166e-19 1:12078.875 2:1 3:1 4:0.00025588406 5:0.0082687339 6:0.183124 
4.590172016172692e-19 1:12078.875 2:1 3:1 4:0.00022305338 5:0.00051679587 6:0.166318 
2.319977998767069e-18 1:61049.401 2:2 3:2 4:0.0011708197 5:0.0020671835 6:0.899922 
2.319977994262497e-18 1:61049.401 2:2 3:2 4:0.0029603156 5:0.0020671835 6:0.126165 
4.01515725249845e-23 1:1.0565479 2:0 3:0 4:0.029834837 5:0.00051679587 6:0.157583 
2.319977994098032e-18 1:61049.401 2:2 3:2 4:0.00035104665 5:0.0020671835 6:0.0993156 
4.015120799066742e-23 1:1.0565479 2:0 3:0 4:0.0010582745 5:0.01498708 6:0.109831 
2.319977993738474e-18 1:61049.401 2:2 3:2 4:0.00050955218 5:0.0020671835 6:0.0375458 
5.339885853951806e-18 1:140517.21 2:3 3:3 4:0.31886309 5:0.0036175711 6:0.992843 
9.134112701696025e-23 1:2.4035503 2:0 3:0 4:8.9045786e-05 5:0.090956072 6:0.384306 
5.339885848301075e-18 1:140517.21 2:3 3:3 4:0.0022391975 5:0.0020671835 6:0.189266 
9.133814059172209e-23 1:2.4035503 2:0 3:0 4:0.0013742454 5:0.0010335917 6:-0.126959 
5.339885846824107e-18 1:140517.21 2:3 3:3 4:0.00018176957 5:0.0010335917 6:-0.0630298 
4.334484554326875e-18 1:114060.43 2:3 3:3 4:0.0015681687 5:0.0025839793 6:0.607768 
4.334484551524098e-18 1:114060.43 2:3 3:3 4:0.0035632683 5:0.0025839793 6:0.125869 
1.418060587513142e-18 1:37315.763 2:2 3:2 4:0.653645 5:0.01498708 6:0.899886 
1.418060583177741e-18 1:37315.763 2:2 3:2 4:0.017146872 5:0.01498708 6:0.489494 
1.418060582293343e-18 1:37315.763 2:2 3:2 4:0.0046810673 5:0.016020672 6:0.344273 
1.418060582644872e-18 1:37315.763 2:2 3:2 4:0.01929996 5:0.016020672 6:0.396925 
1.418060582793598e-18 1:37315.763 2:2 3:2 4:0.0037459247 5:0.0015503876 6:0.430873 
4.240656024763803e-19 1:11159.136 2:1 3:1 4:0.91175535 5:0.038242894 6:0.960113 
4.240655943227736e-19 1:11159.136 2:1 3:1 4:0.00094627307 5:0.00051679587 6:0.0390858 
4.240655983052587e-19 1:11159.136 2:1 3:1 4:0.0040007298 5:0.038242894 6:0.719992 
2.970067224954909e-22 1:7.8155152 2:0 3:0 4:0.01459181 5:0.038242894 6:0.719992 
4.240655961058447e-19 1:11159.136 2:1 3:1 4:0.00062729689 5:0.0020671835 6:0.345132 
4.24065596264916e-19 1:11159.136 2:1 3:1 4:0.00077437737 5:0.038242894 6:0.371634 
2.970083374873438e-22 1:7.8155152 2:0 3:0 4:0.085137291 5:0.038242894 6:0.960113 
2.970024569693153e-22 1:7.8155152 2:0 3:0 4:0.01779615 5:0.00051679587 6:-0.0127521 
2.970049517333659e-22 1:7.8155152 2:0 3:0 4:0.015760979 5:0.00051679587 6:0.416324 
2.970047041937262e-22 1:7.8155152 2:0 3:0 4:0.01858449 5:0.038242894 6:0.371634 
1.735662230076701e-18 1:45673.338 2:2 3:3 4:0.52255124 5:0.0015503876 6:1.02944 
1.735662226979415e-18 1:45673.338 2:2 3:3 4:0.010625844 5:0.0036175711 6:0.76617 
1.735662225811109e-18 1:45673.338 2:2 3:3 4:0.027022227 5:0.00051679587 6:0.557204 
1.73566222501654e-18 1:45673.338 2:2 3:3 4:0.014629254 5:0.0025839793 6:0.427336 
1.73566222229475e-18 1:45673.338 2:2 3:3 4:0.0092948294 5:0.0010335917 6:-0.0367988 
1.224682639223198e-22 1:3.2224567 2:2 3:4 4:0.00045377324 5:0.01498708 6:0.117935 
6.508453164755348e-19 1:17126.764 2:1 3:3 4:0.00031082227 5:0.0025839793 6:0.0406874 
2.305198500710006e-20 1:606.60462 2:2 3:2 4:0.12406413 5:0.01498708 6:0.387327 
2.305198308341103e-20 1:606.60462 2:2 3:2 4:0.0010665564 5:0.0020671835 6:0.121974 
9.40208676894295e-22 1:24.741099 2:2 3:2 4:0.00058194736 5:0.0025839793 6:0.0406874 
2.305198657497328e-20 1:606.60462 2:2 3:2 4:0.005619587 5:0.0025839793 6:0.718603 
2.305198310028443e-20 1:606.60462 2:2 3:2 4:0.00085152213 5:0.00051679587 6:0.125012 
2.305198256778363e-20 1:606.60462 2:2 3:2 4:0.00083983434 5:0.0020671835 6:0.03363 
6.508453169295804e-19 1:17126.764 2:1 3:3 4:0.0010857408 5:0.01498708 6:0.117935 
9.402093126771535e-22 1:24.741099 2:2 3:2 4:0.0003142331 5:0.0015503876 6:0.149925 
1.019813999874234e-18 1:26836.045 2:2 3:2 4:0.017976654 5:0.00051679587 6:0.900489 
1.019813994511435e-18 1:26836.045 2:2 3:2 4:0.0022509505 5:0.0010335917 6:-0.0113437 
1.019813994803447e-18 1:26836.045 2:2 3:2 4:0.0057600163 5:0.026356589 6:0.0364186 
1.019813995168743e-18 1:26836.045 2:2 3:2 4:0.0031369986 5:0.0015503876 6:0.100952 
1.019813993884954e-18 1:26836.045 2:2 3:2 4:0.0027859398 5:0.037726098 6:-0.119827 
1.990825891762552e-18 1:52387.88 2:2 3:3 4:0.01608592 5:0.090956072 6:0.899747 
1.990825891613165e-18 1:52387.88 2:2 3:3 4:1.2661623e-06 5:0.090956072 6:0.882543 
1.990825888390063e-18 1:52387.88 2:2 3:3 4:0.00083925563 5:0.007751938 6:0.330775 
1.990825887270537e-18 1:52387.88 2:2 3:3 4:0.00082506814 5:0.016537468 6:0.13854 
1.990825891144287e-18 1:52387.88 2:2 3:3 4:0.0055940908 5:0.090956072 6:0.799171 
5.930485833176234e-23 1:1.5604452 2:0 3:0 4:0.038930262 5:0.01498708 6:0.899837 
5.930394099582773e-23 1:1.5604452 2:0 3:0 4:0.028653209 5:0.01498708 6:0.747839 
2.126547769994019e-21 1:55.95925 2:0 3:0 4:0.096539078 5:0.049612403 6:0.624742 
2.126546478209964e-21 1:55.95925 2:0 3:0 4:0.20352683 5:0.049612403 6:0.347078 
2.126548023321395e-21 1:55.95925 2:0 3:0 4:0.0686873 5:0.01498708 6:0.683474 
5.93001656513567e-23 1:1.5604452 2:0 3:0 4:0.0031172112 5:0.00051679587 6:0.113789 
2.126544528822232e-21 1:55.95925 2:0 3:0 4:0.0092816467 5:0.0036175711 6:0.115287 
5.929983272747386e-23 1:1.5604452 2:0 3:0 4:0.007462195 5:0.037726098 6:0.0536634 
2.126544292665365e-21 1:55.95925 2:0 3:0 4:0.0082579161 5:0.0072351421 6:0.0752362 
5.930092104522607e-23 1:1.5604452 2:0 3:0 4:0.0084338316 5:0.00051679587 6:0.240602 
8.893553361288141e-19 1:23403.071 2:0 3:0 4:0.0049195146 5:0.0020671835 6:0.0880215 
8.89355335925219e-19 1:23403.071 2:0 3:0 4:0.0093770458 5:0.0010335917 6:0.0507775 
7.182852059878323e-23 1:1.8901149 2:0 3:0 4:0.0022305759 5:0.090956072 6:0.174882 
4.312077100283566e-23 1:1.1346884 2:0 3:0 4:0.00032775646 5:0.0010335917 6:0.1269 
7.182801232606692e-23 1:1.8901149 2:0 3:0 4:0.0049195146 5:0.0020671835 6:0.0880215 
7.182807707767665e-23 1:1.8901149 2:0 3:0 4:0.0030779114 5:0.007751938 6:0.0999833 
5.589882747405761e-23 1:1.4709384 2:0 3:0 4:0.00032775646 5:0.0010335917 6:0.1269 
4.312054398307853e-23 1:1.1346884 2:0 3:0 4:0.0011979105 5:0.0020671835 6:0.0874756 
8.893553401331027e-19 1:23403.071 2:0 3:0 4:0.11451651 5:0.0010335917 6:0.717623 
5.589847490183822e-23 1:1.4709384 2:0 3:0 4:0.0014129442 5:0.0010335917 6:0.0658431 
8.893553375685432e-19 1:23403.071 2:0 3:0 4:0.0033153999 5:0.00051679587 6:0.335897 
5.58997075214401e-23 1:1.4709384 2:0 3:0 4:0.00010444685 5:0.0036175711 6:0.27795 
4.312165105021814e-23 1:1.1346884 2:0 3:0 4:0.00010444685 5:0.0036175711 6:0.27795 
5.589860045430048e-23 1:1.4709384 2:0 3:0 4:0.0011979105 5:0.0020671835 6:0.0874756 
7.182951410209145e-23 1:1.8901149 2:0 3:0 4:0.0018392737 5:0.0041343669 6:0.347244 
4.312137108862235e-23 1:1.1346884 2:0 3:0 4:0.0024959547 5:0.0010335917 6:0.228717 
8.893553388463276e-19 1:23403.071 2:0 3:0 4:0.0041801539 5:0.00051679587 6:0.554665 
7.182787222905289e-23 1:1.8901149 2:0 3:0 4:0.0014129442 5:0.0010335917 6:0.0658431 
7.705015971783348e-19 1:20275.477 2:2 3:2 4:0.78955222 5:0.016020672 6:0.899837 
2.315359279343412e-22 1:6.092774 2:0 3:0 4:0.00084780899 5:0.0015503876 6:0.0786616 
7.705015907391343e-19 1:20275.477 2:2 3:2 4:0.0044601939 5:0.016020672 6:0.206345 
1.334826240827651e-22 1:3.5123803 2:2 3:2 4:0.0013937786 5:0.037726098 6:0.0893786 
1.334828474141932e-22 1:3.5123803 2:2 3:2 4:0.00055988373 5:0.0036175711 6:0.128802 
1.334864625827524e-22 1:3.5123803 2:2 3:2 4:0.0008762126 5:0.01498708 6:0.748643 
1.334844183040747e-22 1:3.5123803 2:2 3:2 4:0.00053330424 5:0.016020672 6:0.398079 
7.705015915983502e-19 1:20275.477 2:2 3:2 4:0.001972553 5:0.016020672 6:0.355058 
2.315356774183671e-22 1:6.092774 2:0 3:0 4:0.0005008871 5:0.00051679587 6:0.0358843 
7.705015901541366e-19 1:20275.477 2:2 3:2 4:0.0061240139 5:0.0015503876 6:0.105394 
7.70501593365168e-19 1:20275.477 2:2 3:2 4:0.035355194 5:0.016020672 6:0.640693 
1.334833335545948e-22 1:3.5123803 2:2 3:2 4:0.0012092955 5:0.01498708 6:0.211642 
2.905787885504002e-21 1:76.464779 2:0 3:0 4:0.0044324192 5:0.00051679587 6:0.0149091 
2.905789723614281e-21 1:76.464779 2:0 3:1 4:0.00045970947 5:0.00051679587 6:0.0703997 
5.628983380766756e-23 1:1.4811122 2:1 3:1 4:0.00060565503 5:0.0015503876 6:0.377861 
4.867526716652248e-23 1:1.280811 2:0 3:0 4:0.031035259 5:0.011369509 6:0.384275 
4.333257376044022e-23 1:1.1402378 2:0 3:1 4:0.00055598804 5:0.00051679587 6:0.0216958 
1.441394479377422e-22 1:3.7929424 2:0 3:0 4:0.0037378655 5:0.038242894 6:0.233298 
4.036776204353411e-23 1:1.0622199 2:0 3:1 4:0.00039831572 5:0.00051679587 6:0.0216958 
6.600049981069684e-23 1:1.7367433 2:0 3:0 4:0.0031623805 5:0.038242894 6:0.236096 
4.333465002888175e-23 1:1.1402378 2:0 3:1 4:0.00060565503 5:0.0015503876 6:0.377861 
2.905789439820715e-21 1:76.464779 2:0 3:1 4:0.00048897074 5:0.00051679587 6:0.0216958 
6.599924105114372e-23 1:1.7367433 2:0 3:0 4:0.0022613395 5:0.0010335917 6:0.0213431 
4.86736006762723e-23 1:1.280811 2:0 3:0 4:0.0035412874 5:0.0020671835 6:0.112951 
4.333286618311908e-23 1:1.1402378 2:0 3:1 4:0.00088169225 5:0.0020671835 6:0.0716637 
1.441382201966048e-22 1:3.7929424 2:0 3:0 4:0.0070007258 5:0.00051679587 6:0.0216958 
5.628813837560228e-23 1:1.4811122 2:1 3:1 4:0.00044491653 5:0.0031007752 6:0.0870407 
4.867409826813102e-23 1:1.280811 2:0 3:0 4:0.21496816 5:0.0020671835 6:0.0875721 
4.333323799993846e-23 1:1.1402378 2:0 3:1 4:0.00034016195 5:0.00051679587 6:0.135768 
5.628808809910252e-23 1:1.4811122 2:1 3:1 4:0.00046846988 5:0.00051679587 6:0.0784536 
4.867554849000013e-23 1:1.280811 2:0 3:0 4:0.18511221 5:0.0046511628 6:0.351965 
6.600048525889683e-23 1:1.7367433 2:0 3:0 4:0.0037378655 5:0.038242894 6:0.233298 
4.333320480371155e-23 1:1.1402378 2:0 3:1 4:0.00065626156 5:0.0010335917 6:0.129897 
4.036781951894856e-23 1:1.0622199 2:0 3:1 4:0.00044160279 5:0.00051679587 6:0.0315338 
2.905790115415341e-21 1:76.464779 2:0 3:1 4:0.0039922893 5:0.00051679587 6:0.135768 
4.867189221848717e-23 1:1.280811 2:0 3:0 4:0.013508225 5:0.00051679587 6:-0.185348 
6.600135811271639e-23 1:1.7367433 2:0 3:0 4:0.0024043142 5:0.011369509 6:0.384275 
1.441381727971808e-22 1:3.7929424 2:0 3:0 4:0.0044324192 5:0.00051679587 6:0.0149091 
5.628775753922604e-23 1:1.4811122 2:1 3:1 4:0.00055598804 5:0.00051679587 6:0.0216958 
1.441388400652763e-22 1:3.7929424 2:0 3:0 4:0.0036125685 5:0.038242894 6:0.129075 
1.441388702307983e-22 1:3.7929424 2:0 3:0 4:0.0049363693 5:0.0010335917 6:0.134289 
4.036772304513639e-23 1:1.0622199 2:0 3:1 4:0.00058159711 5:0.00051679587 6:0.0149091 
4.036983879337381e-23 1:1.0622199 2:0 3:1 4:0.00060565503 5:0.0015503876 6:0.377861 
5.62880499619049e-23 1:1.4811122 2:1 3:1 4:0.00088169225 5:0.0020671835 6:0.0716637 
2.905789742067829e-21 1:76.464779 2:0 3:1 4:0.0040324721 5:0.0020671835 6:0.0716637 
4.036805494761114e-23 1:1.0622199 2:0 3:1 4:0.00088169225 5:0.0020671835 6:0.0716637 
6.59998773864309e-23 1:1.7367433 2:0 3:0 4:0.0036125685 5:0.038242894 6:0.129075 
2.617845487892562e-22 1:6.888479 2:1 3:1 4:0.91954794 5:0.0015503876 6:0.900334 
2.617786974769977e-22 1:6.888479 2:1 3:1 4:0.00093080499 5:0.037726098 6:0.376932 
2.617791303326782e-22 1:6.888479 2:1 3:1 4:0.0026990777 5:0.016020672 6:0.450695 
2.61777942706328e-22 1:6.888479 2:1 3:1 4:0.00094243618 5:0.016020672 6:0.247862 
2.617775716666568e-22 1:6.888479 2:1 3:1 4:0.00044463079 5:0.00051679587 6:0.184771 
3.402890803010985e-18 1:89545.869 2:1 3:1 4:0.0052926794 5:0.049612403 6:0.345558 
3.402890800005407e-18 1:89545.869 2:1 3:1 4:0.0035208124 5:0.034625323 6:-0.168866 
3.402890801975209e-18 1:89545.869 2:1 3:1 4:0.0025124084 5:0.00051679587 6:0.170279 
3.402890808031313e-18 1:89545.869 2:1 3:1 4:0.59245218 5:0.014470284 6:0.899994 
3.402890801956012e-18 1:89545.869 2:1 3:1 4:0.0088522617 5:0.0031007752 6:0.163614 
3.948805677794406e-22 1:10.390924 2:0 3:2 4:0.00052911417 5:0.0046511628 6:0.900068 
1.549474427204752e-18 1:40773.872 2:2 3:2 4:0.33779385 5:0.0046511628 6:0.900068 
1.549474426220012e-18 1:40773.872 2:2 3:2 4:0.015359192 5:0.0020671835 6:0.900068 
3.948759234102177e-22 1:10.390924 2:0 3:2 4:0.0064803769 5:0.024806202 6:0.0997506 
1.549474422311879e-18 1:40773.872 2:2 3:2 4:0.092347318 5:0.00051679587 6:0.189279 
1.549474420680474e-18 1:40773.872 2:2 3:2 4:0.0053450519 5:0.0020671835 6:-0.0450682 
1.549474423664455e-18 1:40773.872 2:2 3:2 4:0.029587633 5:0.011369509 6:0.453992 
1.060913669305538e-18 1:27917.568 2:2 3:3 4:0.20263423 5:0.0062015504 6:0.900184 
1.060913664496113e-18 1:27917.568 2:2 3:3 4:0.0089356705 5:0.0036175711 6:0.176575 
4.455046439914661e-23 1:1.1722903 2:0 3:1 4:0.0020809348 5:0.0015503876 6:-0.00621526 
4.455073340160979e-23 1:1.1722903 2:0 3:1 4:0.00053336857 5:0.0010335917 6:0.0407565 
1.060913664963702e-18 1:27917.568 2:2 3:3 4:0.012200656 5:0.00051679587 6:0.255147 
4.455111762556513e-23 1:1.1722903 2:0 3:1 4:0.00073047428 5:0.0010335917 6:0.106572 
1.060913665215063e-18 1:27917.568 2:2 3:3 4:0.022316123 5:0.0025839793 6:0.292932 
4.455072143626076e-23 1:1.1722903 2:0 3:1 4:0.00080995696 5:0.0025839793 6:0.0385283 
4.455153131138641e-23 1:1.1722903 2:0 3:1 4:0.0069556695 5:0.0025839793 6:0.174254 
1.060913663225726e-18 1:27917.568 2:2 3:3 4:0.010659752 5:0.037726098 6:-0.042951 
4.808811293345942e-23 1:1.2653899 2:0 3:0 4:0.0094339723 5:0.011886305 6:0.202462 
3.702958763726217e-19 1:9744.2051 2:0 3:1 4:0.0010235895 5:0.00051679587 6:0.325062 
8.145384499335225e-23 1:2.1433345 2:1 3:1 4:0.0013910204 5:0.0015503876 6:0.115089 
8.145598794912993e-23 1:2.1433345 2:1 3:1 4:0.0038785498 5:0.00051679587 6:0.481459 
3.702958770370474e-19 1:9744.2051 2:0 3:1 4:0.0072340436 5:0.00051679587 6:0.4358 
3.702958764936767e-19 1:9744.2051 2:0 3:1 4:0.03651662 5:0.00051679587 6:0.327239 
2.513312913736824e-19 1:6613.694 2:1 3:1 4:0.0072355954 5:0.00051679587 6:0.327239 
7.032786049033383e-23 1:1.8505232 2:0 3:1 4:0.22330283 5:0.0015503876 6:0.466097 
7.032383041806953e-23 1:1.8505232 2:0 3:1 4:0.00053996226 5:0.00051679587 6:-0.10861 
5.833558117317742e-23 1:1.5349506 2:0 3:1 4:0.22330283 5:0.0015503876 6:0.466097 
3.933694384343173e-23 1:1.0350359 2:1 3:1 4:0.0012600633 5:0.0072351421 6:0.161775 
2.513312922112114e-19 1:6613.694 2:1 3:1 4:0.016420077 5:0.0015503876 6:0.466097 
2.513312918035425e-19 1:6613.694 2:1 3:1 4:0.0014572557 5:0.00051679587 6:0.404014 
3.702958770194547e-19 1:9744.2051 2:0 3:1 4:0.00064459843 5:0.0015503876 6:0.436213 
2.513312899743672e-19 1:6613.694 2:1 3:1 4:0.00091772828 5:0.0010335917 6:0.090467 
6.794269712664047e-23 1:1.787704 2:1 3:2 4:0.0006685426 5:0.0015503876 6:0.436213 
5.833444433007184e-23 1:1.5349506 2:0 3:1 4:0.00092536 5:0.0072351421 6:0.387428 
3.702958778734513e-19 1:9744.2051 2:0 3:1 4:0.22330283 5:0.0015503876 6:0.466097 
5.833279510410566e-23 1:1.5349506 2:0 3:1 4:0.00013207587 5:0.00051679587 6:0.105029 
6.794208187602699e-23 1:1.787704 2:1 3:2 4:0.0072355954 5:0.00051679587 6:0.327239 
2.513312894198969e-19 1:6613.694 2:1 3:1 4:0.01714358 5:0.0015503876 6:-0.0131692 
6.794291940492296e-23 1:1.787704 2:1 3:2 4:0.016420077 5:0.0015503876 6:0.466097 
6.794533691868478e-23 1:1.787704 2:1 3:2 4:0.32860363 5:0.0015503876 6:0.717329 
8.145443984623778e-23 1:2.1433345 2:1 3:1 4:0.0014150985 5:0.0025839793 6:0.217111 
1.777670903723162e-18 1:46778.781 2:2 3:3 4:0.0070635259 5:0.0020671835 6:0.900347 
1.777670899608294e-18 1:46778.781 2:2 3:3 4:0.0076106178 5:0.0046511628 6:0.194049 
1.777670900784159e-18 1:46778.781 2:2 3:3 4:0.087293308 5:0.0010335917 6:0.354117 
1.777670900815518e-18 1:46778.781 2:2 3:3 4:0.15921264 5:0.00051679587 6:0.321835 
1.777670900540732e-18 1:46778.781 2:2 3:3 4:0.0075441476 5:0.0015503876 6:0.354117 
6.34947256401774e-19 1:16708.412 2:1 3:1 4:0.095543525 5:0.014470284 6:0.899953 
1.380752788843394e-20 1:363.34 2:1 3:1 4:0.095543525 5:0.014470284 6:0.899953 
6.349472522695302e-19 1:16708.412 2:1 3:1 4:0.022891666 5:0.01498708 6:0.229057 
6.349472523540303e-19 1:16708.412 2:1 3:1 4:0.019623564 5:0.0087855297 6:0.245388 
6.349472514216929e-19 1:16708.412 2:1 3:1 4:0.019731118 5:0.0015503876 6:0.0855191 
6.349472516665683e-19 1:16708.412 2:1 3:1 4:0.0050494001 5:0.0051679587 6:0.13515 
4.04667724545415e-23 1:1.064812 2:0 3:1 4:0.0011307586 5:0.012919897 6:0.107468 
6.34947250525323e-19 1:16708.412 2:1 3:0 4:0.0028429131 5:0.037726098 6:0.201812 
1.38075229653398e-20 1:363.34 2:1 3:1 4:0.00079356671 5:0.00051679587 6:0.105236 
1.380752353878159e-20 1:363.34 2:1 3:1 4:0.0028429131 5:0.037726098 6:0.201812 
4.046733043460349e-23 1:1.064812 2:0 3:1 4:0.0028429131 5:0.037726098 6:0.201812 
5.386050570039061e-19 1:14173.201 2:3 3:4 4:0.019856892 5:0.0010335917 6:0.900043 
5.386050537898102e-19 1:14173.201 2:3 3:4 4:0.056437223 5:0.00051679587 6:0.329471 
5.386050532251873e-19 1:14173.201 2:3 3:4 4:0.0069197305 5:0.037726098 6:0.257808 
5.386050543771749e-19 1:14173.201 2:3 3:4 4:0.034211241 5:0.026356589 6:0.441375 
5.386050544386868e-19 1:14173.201 2:3 3:4 4:0.0055052907 5:0.022222222 6:0.467046 
2.216956113085203e-20 1:583.38412 2:0 3:1 4:0.00037150194 5:0.01498708 6:0.0272282 
4.606579160377216e-21 1:121.22046 2:0 3:1 4:0.00037150194 5:0.01498708 6:0.0272282 
4.606578890533733e-21 1:121.22046 2:0 3:1 4:0.00027870306 5:0.0025839793 6:-0.0187744 
2.216956086100855e-20 1:583.38412 2:0 3:1 4:0.00027870306 5:0.0025839793 6:-0.0187744 
1.056700597331875e-18 1:27806.703 2:2 3:1 4:0.0094810646 5:0.016537468 6:0.899898 
1.056700596202638e-18 1:27806.703 2:2 3:1 4:0.021014114 5:0.090956072 6:0.698657 
1.05670059352203e-18 1:27806.703 2:2 3:1 4:0.0024505997 5:0.0010335917 6:0.250256 
1.056700594571179e-18 1:27806.703 2:2 3:1 4:0.12436244 5:0.00051679587 6:0.366403 
1.634522730129559e-18 1:43011.888 2:0 3:0 4:0.64995443 5:0.026873385 6:0.899917 
1.634522723624874e-18 1:43011.888 2:0 3:0 4:0.0017761836 5:0.016020672 6:0.123687 
1.634522723915215e-18 1:43011.888 2:0 3:0 4:0.0024633401 5:0.0036175711 6:0.173383 
1.634522723577723e-18 1:43011.888 2:0 3:0 4:0.021275778 5:0.0051679587 6:0.105597 
1.634522724105975e-18 1:43011.888 2:0 3:0 4:0.0017385878 5:0.049612403 6:0.205585 
2.615531865433299e-18 1:68826.797 2:2 3:3 4:0.0018810017 5:0.011886305 6:0.899964 
2.615531860294896e-18 1:68826.797 2:2 3:3 4:0.00069194923 5:0.0036175711 6:0.0191881 
2.615531865426107e-18 1:68826.797 2:2 3:3 4:0.030324883 5:0.0025839793 6:0.884014 
2.615531862507879e-18 1:68826.797 2:2 3:3 4:0.019140589 5:0.0072351421 6:0.38912 
2.615531860556234e-18 1:68826.797 2:2 3:3 4:0.0009582619 5:0.0010335917 6:0.0639353 
1.358224153660355e-18 1:35741.189 2:1 3:1 4:0.0058285154 5:0.0025839793 6:0.884014 
1.366841758376487e-22 1:3.5967442 2:0 3:1 4:0.0035077072 5:0.00051679587 6:0.0725013 
7.73868792637749e-23 1:2.0363839 2:0 3:0 4:0.00070579642 5:0.0046511628 6:0.159102 
3.220393085816526e-20 1:847.43494 2:0 3:1 4:0.07826231 5:0.0010335917 6:0.487134 
3.220392785427637e-20 1:847.43494 2:0 3:1 4:0.0011352093 5:0.0010335917 6:0.0121767 
7.738703230359912e-23 1:2.0363839 2:0 3:0 4:0.00043030918 5:0.0025839793 6:0.185543 
1.366901087490416e-22 1:3.5967442 2:0 3:1 4:0.41489405 5:0.038242894 6:0.874141 
1.366848824154119e-22 1:3.5967442 2:0 3:1 4:0.018534432 5:0.00051679587 6:0.185853 
1.3668613756685e-22 1:3.5967442 2:0 3:1 4:0.012518286 5:0.038242894 6:0.4036 
1.366866658507389e-22 1:3.5967442 2:0 3:1 4:0.0066137543 5:0.038242894 6:0.497327 
3.220392788125397e-20 1:847.43494 2:0 3:1 4:0.0031346663 5:0.00051679587 6:0.0157679 
3.220392810285939e-20 1:847.43494 2:0 3:1 4:0.0023102339 5:0.024806202 6:0.0537412 
3.2203928862811e-20 1:847.43494 2:0 3:1 4:0.00043030918 5:0.0025839793 6:0.185543 
7.738629263092034e-23 1:2.0363839 2:0 3:0 4:0.0089521916 5:0.024806202 6:0.0537412 
1.504919349838163e-18 1:39601.421 2:2 3:1 4:0.30641994 5:0.022222222 6:0.970615 
1.504919345264939e-18 1:39601.421 2:2 3:1 4:0.033820656 5:0.0020671835 6:0.329204 
1.504919344287646e-18 1:39601.421 2:2 3:1 4:0.10888768 5:0.00051679587 6:0.122246 
1.504919344145297e-18 1:39601.421 2:2 3:1 4:0.05116293 5:0.00051679587 6:0.128061 
1.504919346863723e-18 1:39601.421 2:2 3:1 4:0.03830669 5:0.026356589 6:0.600669 
6.927920021159443e-19 1:18230.576 2:1 3:1 4:0.94737223 5:0.0010335917 6:1.09509 
6.927919944823176e-19 1:18230.576 2:1 3:1 4:0.00043584715 5:0.00051679587 6:0.281464 
6.927919934248221e-19 1:18230.576 2:1 3:1 4:0.00026693727 5:0.00051679587 6:0.100125 
6.927919960196629e-19 1:18230.576 2:1 3:1 4:0.0013085129 5:0.00051679587 6:0.544759 
6.927919944315785e-19 1:18230.576 2:1 3:1 4:0.00039549254 5:0.0010335917 6:0.27277 
1.822152505997437e-18 1:47949.299 2:1 3:1 4:0.3922651 5:0.022222222 6:1.09981 
1.822152499826613e-18 1:47949.299 2:1 3:1 4:0.013519091 5:0.01498708 6:0.239656 
1.822152502021953e-18 1:47949.299 2:1 3:1 4:0.071538461 5:0.026356589 6:0.585681 
1.822152499359093e-18 1:47949.299 2:1 3:1 4:0.012824617 5:0.037726098 6:0.159363 
1.822152500411253e-18 1:47949.299 2:1 3:1 4:0.0046700394 5:0.0025839793 6:0.344838 
2.481644010932806e-18 1:65303.585 2:1 3:1 4:0.0035307888 5:0.0010335917 6:0.00380848 
2.481644011530007e-18 1:65303.585 2:1 3:1 4:0.010324299 5:0.00051679587 6:0.102718 
2.481644012217234e-18 1:65303.585 2:1 3:1 4:0.0053463996 5:0.090956072 6:0.221449 
2.481644012296517e-18 1:65303.585 2:1 3:1 4:0.0033178776 5:0.00051679587 6:0.237893 
7.006491102283509e-23 1:1.8436001 2:1 3:1 4:6.2964069e-05 5:0.0036175711 6:0.367455 
7.006335911971888e-23 1:1.8436001 2:1 3:1 4:0.0027567291 5:0.0020671835 6:0.0998248 
2.481644013015247e-18 1:65303.585 2:1 3:1 4:0.0058442435 5:0.090956072 6:0.358098 
1.408864580033785e-18 1:37073.773 2:3 3:3 4:0.735974 5:0.0031007752 6:0.899926 
1.408864577305864e-18 1:37073.773 2:3 3:3 4:0.0099910465 5:0.011369509 6:0.812029 
1.408864573584317e-18 1:37073.773 2:3 3:3 4:0.0074148872 5:0.00051679587 6:0.175111 
1.408864575041e-18 1:37073.773 2:3 3:3 4:0.0065744977 5:0.0020671835 6:0.425434 
1.408864573401139e-18 1:37073.773 2:3 3:3 4:0.0026863296 5:0.0010335917 6:0.146151 
1.048104374566178e-18 1:27580.496 2:1 3:1 4:0.0027344713 5:0.00051679587 6:0.554665 
1.048104377896373e-18 1:27580.496 2:1 3:1 4:0.43072 5:0.090956072 6:0.900042 
1.048104372128114e-18 1:27580.496 2:1 3:1 4:0.00098271217 5:0.0041343669 6:0.137229 
1.048104370871217e-18 1:27580.496 2:1 3:1 4:0.001523996 5:0.0010335917 6:-0.078631 
1.048104372477113e-18 1:27580.496 2:1 3:1 4:0.0024385668 5:0.00051679587 6:0.196413 
8.785875380019297e-23 1:2.3119627 2:0 3:0 4:6.7854507e-05 5:0.0025839793 6:0.0610197 
8.785801748577806e-23 1:2.3119627 2:0 3:0 4:8.7028032e-05 5:0.0010335917 6:-0.0652844 
1.718258139052493e-18 1:45215.356 2:0 3:0 4:0.00068536288 5:0.01498708 6:0.0407372 
8.785835342827497e-23 1:2.3119627 2:0 3:0 4:6.0655576e-05 5:0.00051679587 6:-0.007625 
6.979885765090404e-23 1:1.8366738 2:0 3:0 4:0.00011291618 5:0.037726098 6:0.380701 
1.237417716132534e-21 1:32.562195 2:0 3:0 4:0.001189445 5:0.0051679587 6:0.094201 
1.718258147101891e-18 1:45215.356 2:0 3:0 4:0.92965082 5:0.014470284 6:0.935128 
6.97993079373627e-23 1:1.8366738 2:0 3:0 4:0.00075179282 5:0.037726098 6:0.457619 
1.718258140812127e-18 1:45215.356 2:0 3:0 4:0.0016353454 5:0.037726098 6:0.341681 
1.237419836803278e-21 1:32.562195 2:0 3:0 4:0.00075179282 5:0.037726098 6:0.457619 
1.237418631372696e-21 1:32.562195 2:0 3:0 4:0.00012541501 5:0.0082687339 6:0.251719 
1.718258141485203e-18 1:45215.356 2:0 3:0 4:0.00075179282 5:0.037726098 6:0.457619 
8.785770797713838e-23 1:2.3119627 2:0 3:0 4:0.00024248863 5:0.00051679587 6:-0.118456 
6.979690623829422e-23 1:1.8366738 2:0 3:0 4:4.3484462e-05 5:0.037726098 6:0.0459465 
8.785887488045814e-23 1:2.3119627 2:0 3:0 4:4.9021219e-05 5:0.0025839793 6:0.0818025 
1.718258139364532e-18 1:45215.356 2:0 3:0 4:0.001189445 5:0.0051679587 6:0.094201 
1.237418096257031e-21 1:32.562195 2:0 3:0 4:0.00022326126 5:0.012919897 6:0.15977 
1.237425453490583e-21 1:32.562195 2:0 3:0 4:0.92965082 5:0.014470284 6:0.935128 
3.962192124425043e-18 1:104263.69 2:3 3:5 4:0.96466773 5:0.011886305 6:0.90026 
3.962192115129768e-18 1:104263.69 2:3 3:5 4:0.00011363305 5:0.0010335917 6:-0.189012 
2.989277327323424e-22 1:7.866122 2:0 3:1 4:0.0018199416 5:0.0015503876 6:0.100076 
2.989327662292937e-22 1:7.866122 2:0 3:1 4:0.0013697625 5:0.011886305 6:0.963672 
3.962192118975645e-18 1:104263.69 2:3 3:5 4:9.7309511e-05 5:0.0072351421 6:0.470686 
3.96219211777419e-18 1:104263.69 2:3 3:5 4:0.00015161194 5:0.00051679587 6:0.264664 
2.989288853984176e-22 1:7.866122 2:0 3:1 4:0.00093905058 5:0.00051679587 6:0.298313 
2.32294730771626e-19 1:6112.7535 2:1 3:1 4:0.35121702 5:0.049612403 6:0.905617 
5.691976559365696e-23 1:1.49764 2:0 3:1 4:0.053759333 5:0.049612403 6:0.905617 
1.085629326737619e-22 1:2.8565878 2:0 3:1 4:0.35121702 5:0.049612403 6:0.905617 
2.322947312765078e-19 1:6112.7535 2:1 3:1 4:0.55631104 5:0.049612403 6:0.884806 
1.085583218112287e-22 1:2.8565878 2:0 3:1 4:0.0021143465 5:0.0015503876 6:0.298371 
5.691808884535691e-23 1:1.49764 2:0 3:1 4:0.03238108 5:0.026873385 6:0.629594 
7.04498119038971e-23 1:1.8538086 2:0 3:1 4:0.00036738864 5:0.00051679587 6:0.0851821 
5.691978773699937e-23 1:1.49764 2:0 3:1 4:0.10074203 5:0.049612403 6:0.884806 
7.044963549582394e-23 1:1.8538086 2:0 3:1 4:0.0022674984 5:0.014470284 6:0.0536471 
7.045105998118146e-23 1:1.8538086 2:0 3:1 4:0.0021143465 5:0.0015503876 6:0.298371 
5.691428662040704e-23 1:1.49764 2:0 3:1 4:0.025816149 5:0.012919897 6:-0.0190151 
1.085571791547531e-22 1:2.8565878 2:0 3:1 4:0.0027469676 5:0.00051679587 6:0.102022 
1.085634375555963e-22 1:2.8565878 2:0 3:1 4:0.55631104 5:0.049612403 6:0.884806 
1.0855536849953e-22 1:2.8565878 2:0 3:0 4:0.00093324807 5:0.0010335917 6:0.0542625 
7.044990229101502e-23 1:1.8538086 2:0 3:1 4:0.00041098978 5:0.013953488 6:0.100402 
7.044993660536603e-23 1:1.8538086 2:0 3:1 4:0.00045670646 5:0.0051679587 6:0.106438 
5.6914707644304e-23 1:1.49764 2:0 3:1 4:0.024937131 5:0.014470284 6:0.0536471 
2.32294725018107e-19 1:6112.7535 2:1 3:1 4:0.0027469676 5:0.00051679587 6:0.102022 
1.085556716367224e-22 1:2.8565878 2:0 3:0 4:0.00045670646 5:0.0051679587 6:0.106438 
2.322947247362781e-19 1:6112.7535 2:1 3:1 4:0.0022674984 5:0.014470284 6:0.0536471 
2.322947261607635e-19 1:6112.7535 2:1 3:1 4:0.0021143465 5:0.0015503876 6:0.298371 
1.085556127171775e-22 1:2.8565878 2:0 3:0 4:0.00046134638 5:0.016020672 6:0.0961136 
1.085553705271803e-22 1:2.8565878 2:0 3:0 4:0.0022674984 5:0.014470284 6:0.0536471 
1.085568973258712e-22 1:2.8565878 2:0 3:1 4:0.0022674984 5:0.014470284 6:0.0536471 
1.085551411905812e-22 1:2.8565878 2:0 3:0 4:0.00014921712 5:0.0010335917 6:0.0156753 
1.328599117516649e-18 1:34961.616 2:1 3:2 4:0.83096608 5:0.0072351421 6:0.90016 
1.328599113587573e-18 1:34961.616 2:1 3:2 4:0.066851455 5:0.026356589 6:0.625949 
1.328599110922321e-18 1:34961.616 2:1 3:2 4:0.0014576676 5:0.0025839793 6:0.203411 
1.328599109856201e-18 1:34961.616 2:1 3:2 4:0.0014653486 5:0.037726098 6:0.0198085 
1.328599110518468e-18 1:34961.616 2:1 3:2 4:0.0016477208 5:0.01498708 6:0.133781 
4.071851352979098e-23 1:1.0713913 2:1 3:1 4:0.014552658 5:0.090956072 6:0.15389 
3.399238645732556e-18 1:89449.764 2:1 3:1 4:0.00020764543 5:0.0010335917 6:0.0245567 
4.071833005676372e-23 1:1.0713913 2:1 3:1 4:0.056869092 5:0.090956072 6:0.100247 
4.072202781112698e-23 1:1.0713913 2:1 3:1 4:0.033481007 5:0.090956072 6:0.746897 
4.072267992427892e-23 1:1.0713913 2:1 3:1 4:0.036241885 5:0.00051679587 6:0.859109 
4.071992632719343e-23 1:1.0713913 2:1 3:1 4:0.035637586 5:0.016537468 6:0.386694 
1.24869274724036e-18 1:32858.908 2:0 3:0 4:0.29020108 5:0.049612403 6:1.03248 
1.248692746832868e-18 1:32858.908 2:0 3:0 4:0.3799442 5:0.049612403 6:0.915561 
6.343588277375687e-23 1:1.669272 2:0 3:0 4:6.7446246e-05 5:0.0025839793 6:0.135905 
1.248692742285374e-18 1:32858.908 2:0 3:0 4:0.043297235 5:0.01498708 6:0.312398 
1.248692740118274e-18 1:32858.908 2:0 3:0 4:0.0024316337 5:0.0031007752 6:-0.0377573 
6.343494735810592e-23 1:1.669272 2:0 3:0 4:0.00025136457 5:0.00051679587 6:-0.0246337 
1.24869274085202e-18 1:32858.908 2:0 3:0 4:0.0030432091 5:0.0010335917 6:0.0878469 
6.34355659027813e-23 1:1.669272 2:0 3:0 4:0.00012668509 5:0.00051679587 6:0.0815512 
6.343555457600846e-23 1:1.669272 2:0 3:0 4:8.8832868e-05 5:0.0010335917 6:0.0796176 
2.368319460525329e-18 1:62321.49 2:2 3:2 4:0.12036862 5:0.090956072 6:0.910676 
2.368319459449929e-18 1:62321.49 2:2 3:2 4:0.0041530314 5:0.0041343669 6:0.78876 
2.368319459826399e-18 1:62321.49 2:2 3:2 4:0.0064517715 5:0.007751938 6:0.852073 
2.368319457121434e-18 1:62321.49 2:2 3:2 4:0.00062296026 5:0.02377261 6:0.390738 
2.368319455545343e-18 1:62321.49 2:2 3:2 4:0.00061958986 5:0.00051679587 6:0.120798 
2.375320357514786e-22 1:6.2504258 2:1 3:1 4:0.035436046 5:0.00051679587 6:0.430342 
3.101210007008115e-19 1:8160.7243 2:1 3:2 4:0.0023703356 5:0.0046511628 6:0.899945 
3.101209980640932e-19 1:8160.7243 2:1 3:2 4:0.035436046 5:0.00051679587 6:0.430342 
9.894113404363959e-20 1:2603.6008 2:1 3:2 4:0.035436046 5:0.00051679587 6:0.430342 
9.894113484535652e-20 1:2603.6008 2:1 3:2 4:0.012207933 5:0.0046511628 6:0.579973 
9.894113140326082e-20 1:2603.6008 2:1 3:2 4:0.0015474027 5:0.00051679587 6:-0.00489901 
2.375302735850456e-22 1:6.2504258 2:1 3:1 4:0.0055890124 5:0.00051679587 6:0.143653 
9.894113173308441e-20 1:2603.6008 2:1 3:2 4:0.00010093481 5:0.00051679587 6:0.0524443 
4.384609024347712e-23 1:1.1537277 2:0 3:0 4:0.0080600436 5:0.00051679587 6:0.430342 
2.375309979742863e-22 1:6.2504258 2:1 3:1 4:0.002361298 5:0.0046511628 6:0.269541 
2.375328374684243e-22 1:6.2504258 2:1 3:1 4:0.012207933 5:0.0046511628 6:0.579973 
2.375293953727062e-22 1:6.2504258 2:1 3:1 4:0.0015474027 5:0.00051679587 6:-0.00489901 
3.101209988658101e-19 1:8160.7243 2:1 3:2 4:0.012207933 5:0.0046511628 6:0.579973 
1.944401803211107e-18 1:51166.246 2:2 3:2 4:0.041376209 5:0.090956072 6:0.899947 
1.94440179996887e-18 1:51166.246 2:2 3:2 4:0.003492393 5:0.016537468 6:0.365006 
1.944401800732538e-18 1:51166.246 2:2 3:2 4:0.014931973 5:0.02377261 6:0.489889 
1.94440179905044e-18 1:51166.246 2:2 3:2 4:0.22001122 5:0.00051679587 6:0.0943377 
1.944401799043268e-18 1:51166.246 2:2 3:2 4:0.040768424 5:0.090956072 6:0.185217 
3.800177818017382e-21 1:100 2:2 3:3 4:0.03235454 5:0.037726098 6:0.912142 
3.800173352872907e-21 1:100 2:2 3:3 4:0.016124402 5:0.0051679587 6:0.155229 
3.800175749700039e-21 1:100 2:2 3:3 4:0.0016555307 5:0.037726098 6:0.573375 
3.800173027273039e-21 1:100 2:2 3:3 4:0.0014641126 5:0.01498708 6:0.106854 
3.800177000163453e-21 1:100 2:2 3:3 4:0.031759375 5:0.037726098 6:0.77214 
1.621030259440677e-18 1:42656.838 2:2 3:2 4:0.71878266 5:0.038242894 6:0.899657 
1.621030256220158e-18 1:42656.838 2:2 3:2 4:0.17478312 5:0.0020671835 6:0.632798 
1.621030253800281e-18 1:42656.838 2:2 3:2 4:0.0017851749 5:0.038242894 6:0.307542 
1.621030253118111e-18 1:42656.838 2:2 3:2 4:0.0060672651 5:0.00051679587 6:0.189006 
1.621030253053363e-18 1:42656.838 2:2 3:2 4:0.0015202063 5:0.038242894 6:0.179537 
1.595798849122997e-19 1:4199.288 2:2 3:2 4:0.22869372 5:0.026356589 6:1.02896 
1.595798789287123e-19 1:4199.288 2:2 3:2 4:0.011412566 5:0.037726098 6:0.115986 
1.595798795849668e-19 1:4199.288 2:2 3:2 4:0.012377292 5:0.00051679587 6:0.228802 
1.595798813177313e-19 1:4199.288 2:2 3:2 4:0.066593932 5:0.0025839793 6:0.497641 
1.595798802136959e-19 1:4199.288 2:2 3:2 4:0.0079923967 5:0.01498708 6:0.338681 
5.736365301296337e-20 1:1509.504 2:1 3:1 4:0.13426879 5:0.00051679587 6:0.899858 
1.051990605194624e-19 1:2768.2759 2:1 3:1 4:0.13426879 5:0.00051679587 6:0.899858 
1.051990549279116e-19 1:2768.2759 2:1 3:1 4:0.011966802 5:0.0020671835 6:0.00458532 
1.051990546192973e-19 1:2768.2759 2:1 3:1 4:0.0033312495 5:0.0020671835 6:-0.0438382 
1.051990556622073e-19 1:2768.2759 2:1 3:1 4:0.00069313944 5:0.038242894 6:0.135757 
2.214756222317178e-18 1:58280.527 2:2 3:2 4:0.77253587 5:0.038242894 6:0.905586 
2.214756216309422e-18 1:58280.527 2:2 3:2 4:0.024478406 5:0.038242894 6:0.266715 
2.214756215440528e-18 1:58280.527 2:2 3:2 4:0.050794807 5:0.038242894 6:0.10386 
2.214756218400774e-18 1:58280.527 2:2 3:2 4:0.024289985 5:0.038242894 6:0.625613 
2.214756216824423e-18 1:58280.527 2:2 3:2 4:0.023942064 5:0.0020671835 6:0.356063 
1.286982380997745e-18 1:33866.486 2:1 3:1 4:0.086484141 5:0.0036175711 6:0.899926 
1.286982378233888e-18 1:33866.486 2:1 3:1 4:0.0019477693 5:0.0020671835 6:0.470061 
5.720776957944317e-19 1:15054.022 2:2 3:2 4:0.57148163 5:0.0031007752 6:0.926049 
5.72077691171659e-19 1:15054.022 2:2 3:2 4:0.0052119596 5:0.00051679587 6:0.429619 
4.641314326032129e-23 1:1.2213145 2:0 3:0 4:0.0014173523 5:0.090956072 6:0.199204 
5.720776925821566e-19 1:15054.022 2:2 3:2 4:0.092480744 5:0.090956072 6:0.624117 
4.64141610314605e-23 1:1.2213145 2:0 3:0 4:0.1518732 5:0.090956072 6:0.295006 
4.64138839233327e-23 1:1.2213145 2:0 3:0 4:0.0046873673 5:0.016537468 6:0.326026 
5.720776905680768e-19 1:15054.022 2:2 3:2 4:0.0046873673 5:0.016537468 6:0.326026 
5.720776908451849e-19 1:15054.022 2:2 3:2 4:0.1518732 5:0.090956072 6:0.295006 
4.641589800310494e-23 1:1.2213145 2:0 3:0 4:0.092480744 5:0.090956072 6:0.624117 
6.816270303268746e-19 1:17936.774 2:2 3:3 4:0.011862839 5:0.0046511628 6:0.900106 
6.816270254142483e-19 1:17936.774 2:2 3:3 4:0.14248421 5:0.0031007752 6:-0.0111108 
6.816270251630331e-19 1:17936.774 2:2 3:3 4:0.012259786 5:0.00051679587 6:0.0140535 
6.816270254593808e-19 1:17936.774 2:2 3:3 4:0.028314849 5:0.011369509 6:0.0562726 
6.8162702552974e-19 1:17936.774 2:2 3:3 4:0.010700617 5:0.00051679587 6:0.0777837 
1.444853309329451e-19 1:3802.0804 2:0 3:1 4:0.0014037973 5:0.024806202 6:0.14482 
1.444853312088878e-19 1:3802.0804 2:0 3:1 4:0.00088431665 5:0.0025839793 6:0.192871 
1.444853353296298e-19 1:3802.0804 2:0 3:1 4:0.00029746224 5:0.0046511628 6:0.900106 
1.444853304309766e-19 1:3802.0804 2:0 3:1 4:0.0012758609 5:0.0015503876 6:0.0592252 
2.31550366027816e-18 1:60931.661 2:2 3:3 4:0.021966124 5:0.00051679587 6:0.0768102 
2.315503659279422e-18 1:60931.661 2:2 3:3 4:0.00092586738 5:0.0015503876 6:-0.083536 
2.315503661667562e-18 1:60931.661 2:2 3:3 4:0.00056464128 5:0.00051679587 6:0.326391 
2.315503661110767e-18 1:60931.661 2:2 3:3 4:0.00067195993 5:0.0072351421 6:0.230677 
2.315503659359084e-18 1:60931.661 2:2 3:3 4:0.0049360705 5:0.0015503876 6:-0.0719694 
8.051650384985665e-19 1:21187.633 2:2 3:2 4:0.94509991 5:0.0031007752 6:0.964193 
3.619301941242167e-20 1:952.4064 2:0 3:1 4:0.0011425347 5:0.0031007752 6:0.5359 
3.619301701289127e-20 1:952.4064 2:0 3:1 4:0.0034293807 5:0.0051679587 6:0.12299 
8.051650305523869e-19 1:21187.633 2:2 3:2 4:0.00061205491 5:0.00051679587 6:0.0957025 
8.05165033309873e-19 1:21187.633 2:2 3:2 4:0.00045809876 5:0.0025839793 6:0.568826 
3.619301696772358e-20 1:952.4064 2:0 3:1 4:0.00020758864 5:0.00051679587 6:0.11702 
3.619301812309022e-20 1:952.4064 2:0 3:1 4:0.00051657373 5:0.01498708 6:0.314792 
8.051650339714404e-19 1:21187.633 2:2 3:2 4:0.0010022622 5:0.0046511628 6:0.682001 
8.051650314393338e-19 1:21187.633 2:2 3:2 4:0.00038567283 5:0.0025839793 6:0.247948 
1.406897343152383e-18 1:37022.006 2:2 3:3 4:0.38422241 5:0.0025839793 6:0.899773 
1.406897338347459e-18 1:37022.006 2:2 3:3 4:0.010057456 5:0.022222222 6:0.271029 
1.406897337912391e-18 1:37022.006 2:2 3:3 4:0.034708762 5:0.01498708 6:0.183617 
1.406897338773008e-18 1:37022.006 2:2 3:3 4:0.026926588 5:0.026356589 6:0.33512 
1.406897339695451e-18 1:37022.006 2:2 3:3 4:0.010503656 5:0.0015503876 6:0.502468 
6.323903333277546e-19 1:16641.128 2:0 3:1 4:0.92083951 5:0.019121447 6:1.0193 
6.323903250170833e-19 1:16641.128 2:0 3:1 4:0.00013209003 5:0.0020671835 6:0.0761044 
5.68864421196594e-23 1:1.4968783 2:0 3:1 4:2.6618962e-06 5:0.0020671835 6:0.183399 
7.036605935780728e-23 1:1.851584 2:0 3:1 4:0.00011076584 5:0.0020671835 6:0.220208 
5.688587935937621e-23 1:1.4968783 2:0 3:1 4:8.7042852e-06 5:0.0020671835 6:0.0868468 
1.000282764201792e-22 1:2.632089 2:0 3:2 4:0.0058434715 5:0.00051679587 6:0.25359 
6.323903259198716e-19 1:16641.128 2:0 3:1 4:9.3508715e-05 5:0.0020671835 6:0.23101 
7.036557701830911e-23 1:1.851584 2:0 3:1 4:2.5283847e-05 5:0.0020671835 6:0.137501 
9.799008274487917e-23 1:2.5783778 2:1 3:3 4:0.0058434715 5:0.00051679587 6:0.25359 
6.323903251400167e-19 1:16641.128 2:0 3:1 4:0.0001333686 5:0.00051679587 6:0.0972251 
5.688633341322893e-23 1:1.4968783 2:0 3:1 4:4.1393633e-05 5:0.0041343669 6:0.164688 
5.677285585823158e-23 1:1.4938379 2:0 3:2 4:0.0058434715 5:0.00051679587 6:0.25359 
6.323903305387234e-19 1:16641.128 2:0 3:1 4:0.0073482122 5:0.019121447 6:1.0193 
5.677319555369274e-23 1:1.4938379 2:0 3:2 4:0.0024353314 5:0.0020671835 6:0.313624 
7.036497667259787e-23 1:1.851584 2:0 3:1 4:6.3433992e-05 5:0.0020671835 6:0.0344837 
1.000286161156404e-22 1:2.632089 2:0 3:2 4:0.0024353314 5:0.0020671835 6:0.313624 
5.677174288353499e-23 1:1.4938379 2:0 3:2 4:0.0049634786 5:0.038242894 6:0.062363 
5.688574280002113e-23 1:1.4968783 2:0 3:1 4:0.00066435384 5:0.038242894 6:0.062363 
7.03650525197637e-23 1:1.851584 2:0 3:1 4:7.1258069e-05 5:0.00051679587 6:0.0475227 
9.799042244034032e-23 1:2.5783778 2:1 3:3 4:0.0024353314 5:0.0020671835 6:0.313624 
9.799042031568263e-23 1:2.5783778 2:1 3:3 4:0.0017976793 5:0.00051679587 6:0.313624 
1.25304412634363e-17 1:329734.13 2:0 3:1 4:0.86612554 5:0.0067183463 6:0.899784 
1.139376091485215e-22 1:2.998163 2:0 3:2 4:0.022136163 5:0.00051679587 6:-0.112479 
1.223873343359099e-22 1:3.2203996 2:0 3:1 4:0.021088885 5:0.0067183463 6:0.899784 
3.357505259351397e-22 1:8.8350704 2:0 3:2 4:7.8048343e-07 5:0.0020671835 6:0.0375136 
6.180864149469519e-22 1:16.264561 2:1 3:3 4:0.00014731449 5:0.0025839793 6:0.0499022 
1.182864243548144e-22 1:3.1126006 2:0 3:2 4:0.022136163 5:0.00051679587 6:-0.112479 
1.099397890035147e-22 1:2.8930191 2:0 3:1 4:0.027999339 5:0.0020671835 6:-0.226764 
1.223858431524468e-22 1:3.2203996 2:0 3:1 4:0.16377832 5:0.0020671835 6:0.569301 
1.099413158022056e-22 1:2.8930191 2:0 3:2 4:0.027999339 5:0.0020671835 6:-0.226764 
1.182908309140384e-22 1:3.1126006 2:0 3:2 4:0.16377832 5:0.0020671835 6:0.569301 
1.139435068912087e-22 1:2.998163 2:0 3:2 4:0.021088885 5:0.0067183463 6:0.899784 
1.13938174454702e-22 1:2.998163 2:0 3:2 4:0.017686679 5:0.00051679587 6:-0.0131625 
1.099423775124252e-22 1:2.8930191 2:0 3:1 4:0.039701256 5:0.0010335917 6:0.21122 
6.180876244959284e-22 1:16.264561 2:1 3:3 4:0.00011147191 5:0.024806202 6:0.256998 
1.223833770423222e-22 1:3.2203996 2:0 3:1 4:0.039701256 5:0.0010335917 6:0.21122 
1.253044125615069e-17 1:329734.13 2:0 3:1 4:0.0059026917 5:0.038242894 6:0.099815 
1.253044125889087e-17 1:329734.13 2:0 3:1 4:0.0084592176 5:0.0020671835 6:0.569301 
1.253044125679901e-17 1:329734.13 2:0 3:1 4:0.0069590251 5:0.0010335917 6:0.21122 
1.223807885334116e-22 1:3.2203996 2:0 3:1 4:0.027999339 5:0.0020671835 6:-0.226764 
1.09946334806013e-22 1:2.8930191 2:0 3:1 4:0.021088885 5:0.0067183463 6:0.899784 
1.139369610887104e-22 1:2.998163 2:0 3:2 4:0.027999339 5:0.0020671835 6:-0.226764 
1.099419638620167e-22 1:2.8930191 2:0 3:2 4:0.022136163 5:0.00051679587 6:-0.112479 
1.09945072098478e-22 1:2.8930191 2:0 3:2 4:0.049841718 5:0.00051679587 6:0.406268 
6.180868255830021e-22 1:16.264561 2:1 3:3 4:0.00015424417 5:0.0015503876 6:0.120369 
1.099439043111161e-22 1:2.8930191 2:0 3:2 4:0.039701256 5:0.0010335917 6:0.21122 
1.099463704212407e-22 1:2.8930191 2:0 3:2 4:0.16377832 5:0.0020671835 6:0.569301 
1.223845448296841e-22 1:3.2203996 2:0 3:1 4:0.049841718 5:0.00051679587 6:0.406268 
1.182895325912758e-22 1:3.1126006 2:0 3:2 4:0.049841718 5:0.00051679587 6:0.406268 
1.182883648039138e-22 1:3.1126006 2:0 3:2 4:0.039701256 5:0.0010335917 6:0.21122 
1.099404370633258e-22 1:2.8930191 2:0 3:1 4:0.022136163 5:0.00051679587 6:-0.112479 
6.180867353900391e-22 1:16.264561 2:1 3:3 4:0.0002252312 5:0.0046511628 6:0.104797 
1.13939549597621e-22 1:2.998163 2:0 3:2 4:0.039701256 5:0.0010335917 6:0.21122 
1.253044125721806e-17 1:329734.13 2:0 3:1 4:0.0024119098 5:0.038242894 6:0.284764 
1.099410023695062e-22 1:2.8930191 2:0 3:1 4:0.017686679 5:0.00051679587 6:-0.0131625 
1.182857762950033e-22 1:3.1126006 2:0 3:2 4:0.027999339 5:0.0020671835 6:-0.226764 
1.746752578643774e-18 1:45965.177 2:1 3:0 4:0.95747342 5:0.034625323 6:0.900444 
1.746752570512035e-18 1:45965.177 2:1 3:0 4:0.00062393039 5:0.0010335917 6:0.0072035 
1.746752571893634e-18 1:45965.177 2:1 3:0 4:0.00029686539 5:0.0031007752 6:0.244366 
1.746752572997687e-18 1:45965.177 2:1 3:0 4:0.0003287819 5:0.034625323 6:0.433144 
1.746752571097261e-18 1:45965.177 2:1 3:0 4:0.00054916567 5:0.0010335917 6:0.107646 
1.79669700616528e-19 1:4727.9444 2:1 3:1 4:0.50583015 5:0.0082687339 6:0.899937 
1.796696952214341e-19 1:4727.9444 2:1 3:1 4:0.0046276892 5:0.0031007752 6:0.236973 
1.796696973061781e-19 1:4727.9444 2:1 3:1 4:0.037722472 5:0.037726098 6:0.576622 
1.796696979880129e-19 1:4727.9444 2:1 3:1 4:0.010258036 5:0.037726098 6:0.707986 
1.796696951014165e-19 1:4727.9444 2:1 3:1 4:0.0040141808 5:0.026873385 6:0.216236 
4.353143239945174e-23 1:1.145353 2:1 3:1 4:0.041316839 5:0.01498708 6:0.527609 
4.352991219555924e-23 1:1.145353 2:1 3:1 4:0.00071762039 5:0.01498708 6:0.288064 
4.35293200084884e-23 1:1.145353 2:1 3:1 4:0.00068634185 5:0.0020671835 6:0.186737 
4.970336626317828e-21 1:130.79254 2:1 3:1 4:0.0022036541 5:0.0010335917 6:0.230359 
4.970334169386547e-21 1:130.79254 2:1 3:1 4:0.0019490926 5:0.0010335917 6:-0.191027 
4.97033695972907e-21 1:130.79254 2:1 3:1 4:0.00071762039 5:0.01498708 6:0.288064 
8.180255036513219e-23 1:2.1525155 2:1 3:1 4:0.00070642492 5:0.0015503876 6:0.0827846 
4.352712185303559e-23 1:1.145353 2:1 3:1 4:0.0019490926 5:0.0010335917 6:-0.191027 
4.970338479932963e-21 1:130.79254 2:1 3:1 4:0.041316839 5:0.01498708 6:0.527609 
4.970336290833969e-21 1:130.79254 2:1 3:1 4:0.0075286194 5:0.0010335917 6:0.170013 
4.352957878431695e-23 1:1.145353 2:1 3:1 4:0.0022036541 5:0.0010335917 6:0.230359 
7.011157187230791e-19 1:18449.612 2:2 3:2 4:0.40451219 5:0.090956072 6:0.90015 
7.011157132744839e-19 1:18449.612 2:2 3:2 4:0.026146219 5:0.00051679587 6:0.165342 
7.011157136460808e-19 1:18449.612 2:2 3:2 4:0.013042985 5:0.00051679587 6:0.235958 
7.011157128439427e-19 1:18449.612 2:2 3:2 4:0.0083224478 5:0.0010335917 6:0.100803 
7.011157118650706e-19 1:18449.612 2:2 3:2 4:0.0037918371 5:0.0010335917 6:-0.0647624 
1.23735834316647e-18 1:32560.648 2:0 3:0 4:0.0046503221 5:0.090956072 6:0.181143 
4.077142425722791e-23 1:1.0728611 2:0 3:0 4:8.0285664e-05 5:0.0036175711 6:0.159815 
1.23735834479313e-18 1:32560.648 2:0 3:0 4:0.0011155034 5:0.0010335917 6:0.463839 
1.237358345415789e-18 1:32560.648 2:0 3:0 4:0.038015408 5:0.0041343669 6:0.551275 
1.23735834507339e-18 1:32560.648 2:0 3:0 4:0.029578719 5:0.007751938 6:0.49688 
4.077100346535204e-23 1:1.0728611 2:0 3:0 4:0.00041904341 5:0.0020671835 6:0.0874756 
1.23735834238629e-18 1:32560.648 2:0 3:0 4:0.0013751945 5:0.0010335917 6:0.0507775 
1.239307547077686e-18 1:32611.94 2:0 3:0 4:0.88630995 5:0.013953488 6:0.900138 
1.239307541610965e-18 1:32611.94 2:0 3:0 4:0.016173526 5:0.037726098 6:0.417567 
1.239307540909885e-18 1:32611.94 2:0 3:0 4:0.0009751864 5:0.0020671835 6:0.30595 
1.239307540141206e-18 1:32611.94 2:0 3:0 4:0.00031439399 5:0.0051679587 6:0.174358 
1.239307539762286e-18 1:32611.94 2:0 3:0 4:0.00056164652 5:0.0010335917 6:0.109301 
1.148401858502193e-18 1:30219.789 2:0 3:0 4:0.34402594 5:0.049612403 6:0.821721 
1.148401856582419e-18 1:30219.789 2:0 3:0 4:0.10306866 5:0.049612403 6:0.618574 
5.332752992995186e-23 1:1.4032861 2:0 3:0 4:0.012273748 5:0.016020672 6:0.0520214 
1.148401853313479e-18 1:30219.789 2:0 3:0 4:0.023980594 5:0.014470284 6:0.0998622 
1.148401853770594e-18 1:30219.789 2:0 3:0 4:0.060491133 5:0.0015503876 6:0.159416 
5.332608963485048e-23 1:1.4032861 2:0 3:0 4:0.00033140858 5:0.037726098 6:-0.189252 
1.148401853700791e-18 1:30219.789 2:0 3:0 4:0.016337171 5:0.00051679587 6:0.170589 
5.332834332529094e-23 1:1.4032861 2:0 3:0 4:0.0003786298 5:0.016020672 6:0.197801 
5.332757182807584e-23 1:1.4032861 2:0 3:0 4:0.00035726743 5:0.00051679587 6:0.0657566 
5.332803462783192e-23 1:1.4032861 2:0 3:0 4:0.0010805917 5:0.0072351421 6:0.144645 
1.034291289075932e-19 1:2721.7007 2:3 3:4 4:0.0088411056 5:0.012919897 6:0.347586 
1.034291321686745e-19 1:2721.7007 2:3 3:4 4:0.012698462 5:0.0082687339 6:0.905139 
1.034291300898866e-19 1:2721.7007 2:3 3:4 4:0.053657258 5:0.037726098 6:0.526461 
4.5978741834713e-22 1:12.098973 2:2 3:2 4:0.0084142194 5:0.0010335917 6:0.101663 
1.034291284076063e-19 1:2721.7007 2:3 3:4 4:0.0021221897 5:0.016020672 6:0.265265 
1.034291279375466e-19 1:2721.7007 2:3 3:4 4:0.0017133881 5:0.0010335917 6:0.185129 
6.462293190406051e-19 1:17005.296 2:1 3:1 4:0.40275259 5:0.0010335917 6:0.900099 
3.806100045231202e-23 1:1.0015561 2:0 3:0 4:0.00060941849 5:0.0020671835 6:0.0364566 
1.200511705578547e-22 1:3.1590086 2:1 3:1 4:0.0060906423 5:0.0010335917 6:0.118151 
1.200504285551953e-22 1:3.1590086 2:1 3:1 4:0.002354593 5:0.016020672 6:-0.00748736 
6.462293138276299e-19 1:17005.296 2:1 3:1 4:0.033435654 5:0.0020671835 6:0.199175 
8.798467205008668e-23 1:2.3152174 2:0 3:1 4:0.0095329057 5:0.014470284 6:0.17685 
8.798473787461382e-23 1:2.3152174 2:0 3:1 4:0.0019364962 5:0.0087855297 6:0.192234 
3.806078548643247e-23 1:1.0015561 2:0 3:0 4:0.00083176143 5:0.00051679587 6:-0.000509625 
8.79844621177889e-23 1:2.3152174 2:0 3:1 4:0.0012404724 5:0.0051679587 6:0.14536 
1.200498558463777e-22 1:3.1590086 2:1 3:1 4:0.0089518064 5:0.0010335917 6:-0.108904 
1.200505171959155e-22 1:3.1590086 2:1 3:1 4:0.00059509986 5:0.0010335917 6:0.00893666 
8.798401585100266e-23 1:2.3152174 2:0 3:1 4:0.0011913487 5:0.0082687339 6:0.0687617 
3.806163750543156e-23 1:1.0015561 2:0 3:0 4:0.0012404724 5:0.0051679587 6:0.14536 
6.462293150599706e-19 1:17005.296 2:1 3:1 4:0.0076361181 5:0.049612403 6:0.423178 
8.798381863938211e-23 1:2.3152174 2:0 3:1 4:0.00082844786 5:0 6:0.0352802 
6.462293149547579e-19 1:17005.296 2:1 3:1 4:0.014554242 5:0.026873385 6:0.401951 
1.200507154089156e-22 1:3.1590086 2:1 3:1 4:0.00091973068 5:0.0010335917 6:0.0427727 
6.462293150376463e-19 1:17005.296 2:1 3:1 4:0.0064814498 5:0 6:0.420929 
3.806357164317495e-23 1:1.0015561 2:0 3:0 4:0.00051029974 5:0.037726098 6:0.476929 
3.806172464764213e-23 1:1.0015561 2:0 3:0 4:0.001081776 5:0.016020672 6:0.16018 
6.881810728254699e-19 1:18109.242 2:0 3:1 4:0.71006888 5:0.0072351421 6:0.896211 
9.16607111793927e-23 1:2.4119343 2:0 3:1 4:0.0091365877 5:0.049612403 6:0.285706 
7.859763990756636e-23 1:2.0682481 2:0 3:0 4:0.01618079 5:0.012919897 6:0.12825 
6.881810692799546e-19 1:18109.242 2:0 3:1 4:0.0066960969 5:0.037726098 6:0.655764 
9.166640485639502e-23 1:2.4119343 2:0 3:1 4:0.71006888 5:0.0072351421 6:0.896211 
6.521505754491255e-23 1:1.7161029 2:0 3:0 4:0.0085132239 5:0.0015503876 6:0.0495899 
7.859715670324148e-23 1:2.0682481 2:0 3:0 4:0.0085132239 5:0.0015503876 6:0.0495899 
9.166076683839954e-23 1:2.4119343 2:0 3:1 4:0.0077187544 5:0.01498708 6:0.296679 
7.859859603942887e-23 1:2.0682481 2:0 3:0 4:0.0077187544 5:0.01498708 6:0.296679 
6.521644122209307e-23 1:1.7161029 2:0 3:0 4:0.0091365877 5:0.049612403 6:0.285706 
6.881810662313201e-19 1:18109.242 2:0 3:1 4:0.01618079 5:0.012919897 6:0.12825 
6.52155407492374e-23 1:1.7161029 2:0 3:0 4:0.01618079 5:0.012919897 6:0.12825 
6.521649688109993e-23 1:1.7161029 2:0 3:0 4:0.0077187544 5:0.01498708 6:0.296679 
7.86006885419748e-23 1:2.0682481 2:0 3:0 4:0.0066960969 5:0.037726098 6:0.655764 
7.859854038042201e-23 1:2.0682481 2:0 3:0 4:0.0091365877 5:0.049612403 6:0.285706 
6.881810657481159e-19 1:18109.242 2:0 3:1 4:0.0085132239 5:0.0015503876 6:0.0495899 
9.165981070653704e-23 1:2.4119343 2:0 3:1 4:0.01618079 5:0.012919897 6:0.12825 
9.165932750221216e-23 1:2.4119343 2:0 3:1 4:0.0085132239 5:0.0015503876 6:0.0495899 
6.52221348990954e-23 1:1.7161029 2:0 3:0 4:0.71006888 5:0.0072351421 6:0.896211 
6.881810671317929e-19 1:18109.242 2:0 3:1 4:0.0091365877 5:0.049612403 6:0.285706 
1.13066168491028e-18 1:29752.962 2:2 3:2 4:0.2903866 5:0.00051679587 6:0.960557 
6.90785824313349e-23 1:1.8177283 2:0 3:1 4:0.001102355 5:0.0010335917 6:0.0647022 
1.130661681163478e-18 1:29752.962 2:2 3:2 4:0.0097179017 5:0.0010335917 6:0.46475 
1.130661681852736e-18 1:29752.962 2:2 3:2 4:0.020275461 5:0.026356589 6:0.576973 
1.130661681179504e-18 1:29752.962 2:2 3:2 4:0.014947382 5:0.0015503876 6:0.46475 
1.130661680819713e-18 1:29752.962 2:2 3:2 4:0.0057548569 5:0.0020671835 6:0.407828 
1.350532307705356e-18 1:35538.78 2:2 3:2 4:0.085770614 5:0.01498708 6:0.56166 
4.996975022849283e-23 1:1.3148666 2:0 3:1 4:0.021437578 5:0.00051679587 6:0.181679 
4.997092291129581e-23 1:1.3148666 2:0 3:1 4:0.014143437 5:0.037726098 6:0.385957 
5.610928504950981e-23 1:1.4764686 2:0 3:0 4:0.00142629 5:0.034625323 6:0.177273 
1.350532305359619e-18 1:35538.78 2:2 3:2 4:0.0048006442 5:0.00051679587 6:0.201915 
5.610914315389559e-23 1:1.4764686 2:0 3:0 4:0.0013881382 5:0.0036175711 6:0.153559 
1.350532305876517e-18 1:35538.78 2:2 3:2 4:0.0082316182 5:0.0025839793 6:0.288758 
5.610892121919329e-23 1:1.4764686 2:0 3:0 4:0.0046548029 5:0.012919897 6:0.113589 
1.3505323050177e-18 1:35538.78 2:2 3:2 4:0.01017513 5:0.00051679587 6:0.140439 
4.996873218171058e-23 1:1.3148666 2:0 3:1 4:0.0035578333 5:0.0025839793 6:0.0163444 
4.997326113245149e-23 1:1.3148666 2:0 3:1 4:0.0027451036 5:0.01498708 6:0.793528 
5.610914561948256e-23 1:1.4764686 2:0 3:0 4:0.0021956918 5:0.0036175711 6:0.153559 
1.350532306465146e-18 1:35538.78 2:2 3:2 4:0.014143437 5:0.037726098 6:0.385957 
4.996905910483999e-23 1:1.3148666 2:0 3:1 4:0.0029071147 5:0.016020672 6:0.0725089 
5.610900695983318e-23 1:1.4764686 2:0 3:0 4:0.013430857 5:0.0036175711 6:0.123885 
8.712755738675067e-19 1:22927.309 2:1 3:1 4:0.014931973 5:0.02377261 6:1.09987 
8.712755696858711e-19 1:22927.309 2:1 3:1 4:0.041376209 5:0.090956072 6:0.367281 
8.712755683733861e-19 1:22927.309 2:1 3:1 4:0.040768424 5:0.090956072 6:0.142425 
8.712755680871511e-19 1:22927.309 2:1 3:1 4:0.0048792484 5:0.0010335917 6:0.113886 
8.712755681695686e-19 1:22927.309 2:1 3:1 4:0.22001122 5:0.00051679587 6:0.0153478 
1.941876187070823e-18 1:51099.786 2:1 3:2 4:0.18999319 5:0.0010335917 6:0.853089 
2.40575438639716e-21 1:63.306417 2:1 3:3 4:0.0012567156 5:0.0025839793 6:0.0145058 
1.941876181805029e-18 1:51099.786 2:1 3:2 4:0.0026754453 5:0.0025839793 6:0.04776 
2.405755012855154e-21 1:63.306417 2:1 3:3 4:0.0017181438 5:0.00051679587 6:0.121782 
2.405754070419627e-21 1:63.306417 2:1 3:3 4:0.0016379419 5:0.037726098 6:-0.0405955 
1.941876186523185e-18 1:51099.786 2:1 3:2 4:0.01050838 5:0.0041343669 6:0.853089 
1.94187618322553e-18 1:51099.786 2:1 3:2 4:0.0072676586 5:0.00051679587 6:0.289101 
2.405759302714397e-21 1:63.306417 2:1 3:3 4:0.01050838 5:0.0041343669 6:0.853089 
1.941876182797837e-18 1:51099.786 2:1 3:2 4:0.022378562 5:0.026356589 6:0.207301 
2.405755302649191e-21 1:63.306417 2:1 3:3 4:0.0011512078 5:0.00051679587 6:0.171797 
2.236861422918471e-18 1:58862.218 2:0 3:0 4:0.13724712 5:0.034625323 6:0.900193 
2.014452049425657e-22 1:5.3009597 2:0 3:0 4:0.00024157648 5:0.00051679587 6:-0.00189427 
2.014451067432597e-22 1:5.3009597 2:0 3:0 4:0.00023443745 5:0.0010335917 6:-0.0187481 
2.014461334960384e-22 1:5.3009597 2:0 3:0 4:0.00019536424 5:0.0025839793 6:0.157395 
2.236861423097997e-18 1:58862.218 2:0 3:0 4:0.3513153 5:0.034625323 6:0.818862 
2.014456455996307e-22 1:5.3009597 2:0 3:0 4:0.00016531847 5:0.0025839793 6:0.0737056 
2.01445649787869e-22 1:5.3009597 2:0 3:0 4:0.00033431424 5:0.00051679587 6:0.0743763 
2.236861420446161e-18 1:58862.218 2:0 3:0 4:0.029360998 5:0.034625323 6:0.532547 
2.236861419447579e-18 1:58862.218 2:0 3:0 4:0.019563592 5:0.049612403 6:0.366064 
2.236861419750023e-18 1:58862.218 2:0 3:0 4:0.012812684 5:0.013953488 6:0.42219 
8.958467987476209e-19 1:23573.892 2:1 3:2 4:0.12497295 5:0.024806202 6:0.899625 
8.958467986212506e-19 1:23573.892 2:1 3:2 4:0.083912876 5:0.016020672 6:0.899625 
8.958467940257545e-19 1:23573.892 2:1 3:2 4:0.00095566393 5:0.0010335917 6:0.154955 
8.958467937039813e-19 1:23573.892 2:1 3:2 4:0.00043771953 5:0.00051679587 6:0.100032 
8.958467934869729e-19 1:23573.892 2:1 3:2 4:0.00042368117 5:0.0010335917 6:0.0627985 
7.622481215650499e-20 1:2005.8288 2:1 3:1 4:0.0059096929 5:0.016020672 6:0.899625 
7.62248078266202e-20 1:2005.8288 2:1 3:1 4:0.0028329635 5:0.0010335917 6:0.158682 
7.62248087566409e-20 1:2005.8288 2:1 3:1 4:0.0015060582 5:0.0025839793 6:0.318904 
7.622480779409106e-20 1:2005.8288 2:1 3:1 4:0.002208739 5:0.0015503876 6:0.153418 
7.622480719202245e-20 1:2005.8288 2:1 3:1 4:0.00070806253 5:0.00051679587 6:0.0509315 
4.020610800443354e-19 1:10580.095 2:2 3:2 4:0.29605421 5:0.022222222 6:0.906958 
4.020610735851276e-19 1:10580.095 2:2 3:2 4:0.010919621 5:0.037726098 6:-0.0521541 
4.020610759121163e-19 1:10580.095 2:2 3:2 4:0.042203056 5:0.026356589 6:0.330909 
6.396505435166805e-23 1:1.6830586 2:2 3:2 4:0.00092556893 5:0.00051679587 6:0.0344559 
6.396484466180641e-23 1:1.6830586 2:2 3:2 4:0.0008850577 5:0.0015503876 6:-0.00151831 
4.020610735385366e-19 1:10580.095 2:2 3:2 4:0.0069112225 5:0.016020672 6:-0.0576207 
6.396481493514561e-23 1:1.6830586 2:2 3:2 4:0.00049111304 5:0.0025839793 6:-0.0064323 
4.020610723977743e-19 1:10580.095 2:2 3:2 4:0.014635874 5:0.037726098 6:-0.257807 
4.413489248625678e-23 1:1.1612244 2:2 3:2 4:0.00082515071 5:0.00051679587 6:0.102824 
4.413552716090473e-23 1:1.1612244 2:2 3:2 4:0.00044751281 5:0.01498708 6:0.211624 
6.427127084178577e-19 1:16912.758 2:1 3:1 4:0.89297132 5:0.013953488 6:0.900133 
6.427127023981734e-19 1:16912.758 2:1 3:1 4:0.00035716389 5:0.034625323 6:0.334529 
6.427127006849247e-19 1:16912.758 2:1 3:1 4:0.00030148734 5:0.0010335917 6:0.0412884 
2.759014889397591e-22 1:7.2601624 2:1 3:1 4:0.00028290371 5:0.0051679587 6:0.0708357 
1.116245087813215e-22 1:2.9372097 2:0 3:1 4:2.4219314e-07 5:0.037726098 6:0.714271 
2.759052422348291e-22 1:7.2601624 2:1 3:1 4:2.4219314e-07 5:0.037726098 6:0.714271 
6.42712702144896e-19 1:16912.758 2:1 3:1 4:0.0016104397 5:0.0020671835 6:0.29106 
1.11621846814064e-22 1:2.9372097 2:0 3:1 4:0.0059222432 5:0.037726098 6:0.254473 
6.427127025598238e-19 1:16912.758 2:1 3:1 4:0.00068049681 5:0.00051679587 6:0.362764 
1.116216259985808e-22 1:2.9372097 2:0 3:1 4:0.00085119044 5:0.014470284 6:0.219703 
1.067286931955425e-18 1:28085.278 2:2 3:2 4:0.0032028495 5:0.00051679587 6:0.899883 
1.067286927277365e-18 1:28085.278 2:2 3:2 4:0.0039292872 5:0.00051679587 6:0.096919 
1.067286927587417e-18 1:28085.278 2:2 3:2 4:0.0028948898 5:0.007751938 6:0.150512 
1.067286926951138e-18 1:28085.278 2:2 3:2 4:0.00096601733 5:0.00051679587 6:0.0425026 
9.581046028596705e-19 1:25212.184 2:2 3:2 4:0.036886494 5:0.0015503876 6:0.435178 
9.581046014431154e-19 1:25212.184 2:2 3:2 4:0.032666012 5:0.037726098 6:0.193648 
9.581046059078882e-19 1:25212.184 2:2 3:2 4:0.14808292 5:0.00051679587 6:0.899915 
1.060844033006564e-22 1:2.7915576 2:0 3:0 4:0.0017785891 5:0.0015503876 6:0.103057 
1.060838436744254e-22 1:2.7915576 2:0 3:0 4:0.00077873491 5:0.0025839793 6:0.00754905 
9.581046040297327e-19 1:25212.184 2:2 3:2 4:0.073492758 5:0.026356589 6:0.616255 
9.581046028894755e-19 1:25212.184 2:2 3:2 4:0.012316662 5:0.0025839793 6:0.453141 
2.238280057780981e-19 1:5889.9545 2:2 3:3 4:0.3989166 5:0.090956072 6:0.834674 
2.238280022824857e-19 1:5889.9545 2:2 3:3 4:0.042837793 5:0.00051679587 6:0.423252 
2.238280018133642e-19 1:5889.9545 2:2 3:3 4:0.004973611 5:0.02377261 6:0.362144 
2.238280029218876e-19 1:5889.9545 2:2 3:3 4:0.11397196 5:0.0010335917 6:0.495679 
2.238280014891899e-19 1:5889.9545 2:2 3:3 4:0.0085130211 5:0.0010335917 6:0.305121 
1.31450013676663e-18 1:34590.607 2:0 3:0 4:0.083117023 5:0.0010335917 6:0.663259 
4.921420616554491e-23 1:1.2950572 2:0 3:0 4:2.601397e-05 5:0.00051679587 6:-0.0182763 
4.015820738253859e-23 1:1.0567412 2:0 3:0 4:0.00053241174 5:0.00051679587 6:0.0509816 
1.314500134475098e-18 1:34590.607 2:0 3:0 4:0.0020534447 5:0.0010335917 6:0.312578 
1.314500135048925e-18 1:34590.607 2:0 3:0 4:0.0036671724 5:0.090956072 6:0.408411 
1.314500134859697e-18 1:34590.607 2:0 3:0 4:0.075383763 5:0.00051679587 6:0.34016 
1.314500134093062e-18 1:34590.607 2:0 3:0 4:0.0072321635 5:0.00051679587 6:0.244332 
4.921552725835445e-23 1:1.2950572 2:0 3:0 4:0.00029010745 5:0.090956072 6:0.206457 
4.921532054642167e-23 1:1.2950572 2:0 3:0 4:0.00032457355 5:0.016537468 6:0.172439 
4.921459752050231e-23 1:1.2950572 2:0 3:0 4:0.00052065181 5:0.0010335917 6:0.0485966 
1.500536272263432e-18 1:39486.081 2:2 3:3 4:0.75728122 5:0.038242894 6:0.899874 
1.500536265441498e-18 1:39486.081 2:2 3:3 4:0.0075035102 5:0.038242894 6:0.122221 
8.021763637425904e-23 1:2.1107627 2:0 3:1 4:0.0075187394 5:0.011369509 6:0.620942 
8.021471741697073e-23 1:2.1107627 2:0 3:1 4:0.0025668976 5:0.038242894 6:0.122221 
1.500536268333277e-18 1:39486.081 2:2 3:3 4:0.003553608 5:0.011369509 6:0.620942 
8.021372820508342e-23 1:2.1107627 2:0 3:1 4:0.0026774106 5:0.0020671835 6:-0.0468376 
1.500536265231463e-18 1:39486.081 2:2 3:3 4:0.0020431097 5:0.00051679587 6:0.0897891 
8.021623776565097e-23 1:2.1107627 2:0 3:1 4:0.0037760981 5:0.00051679587 6:0.383166 
1.500536265653111e-18 1:39486.081 2:2 3:3 4:0.004235267 5:0.038242894 6:0.160238 
8.021463592342327e-23 1:2.1107627 2:0 3:1 4:0.0091452543 5:0.0041343669 6:0.105465 
4.669286394319101e-23 1:1.2287055 2:0 3:0 4:0.0008364796 5:0.0025839793 6:0.00412415 
1.121645813941069e-22 1:2.9515517 2:0 3:0 4:0.0018932299 5:0.0025839793 6:0.126635 
8.106837907062781e-19 1:21332.857 2:2 3:4 4:0.7553117 5:0.019121447 6:0.900081 
8.106837870664449e-19 1:21332.857 2:2 3:4 4:0.00018731055 5:0.0020671835 6:0.671496 
8.106837827824173e-19 1:21332.857 2:2 3:4 4:0.00021392288 5:0.0041343669 6:-0.0635407 
8.106837832345059e-19 1:21332.857 2:2 3:4 4:0.00030727285 5:0.00051679587 6:0.0140434 
8.106837839352065e-19 1:21332.857 2:2 3:4 4:0.00024567849 5:0.010335917 6:0.134097 
7.861781724392784e-23 1:2.0686897 2:1 3:1 4:0.00044283247 5:0.024806202 6:0.217498 
7.861519182885771e-23 1:2.0686897 2:1 3:1 4:0.00023460652 5:0.00051679587 6:-0.23234 
6.817478304312018e-19 1:17939.953 2:1 3:3 4:0.87960396 5:0.038242894 6:1.07635 
6.817478241445503e-19 1:17939.953 2:1 3:3 4:0.0082336132 5:0.0020671835 6:0.454935 
6.817478232401251e-19 1:17939.953 2:1 3:3 4:0.0019431423 5:0.038242894 6:0.302352 
6.81747821706958e-19 1:17939.953 2:1 3:3 4:0.00086416538 5:0.038242894 6:0.0398819 
6.817478227344116e-19 1:17939.953 2:1 3:3 4:0.0017123821 5:0.038242894 6:0.215711 
1.679208089888014e-18 1:44187.767 2:2 3:2 4:0.033883609 5:0.0036175711 6:0.900173 
1.679208087417975e-18 1:44187.767 2:2 3:2 4:0.00072597778 5:0.0010335917 6:0.493824 
1.679208085452298e-18 1:44187.767 2:2 3:2 4:0.0025717075 5:0.0010335917 6:0.155619 
1.679208085042755e-18 1:44187.767 2:2 3:2 4:0.0016335408 5:0.0020671835 6:0.0858277 
1.679208086111507e-18 1:44187.767 2:2 3:2 4:0.0012770728 5:0.0020671835 6:0.269373 
2.09529572189992e-22 1:5.5134718 2:0 3:2 4:0.080017226 5:0.00051679587 6:0.900137 
2.095258686594735e-22 1:5.5134718 2:0 3:2 4:0.0038497751 5:0.0010335917 6:0.304634 
2.095246740509047e-22 1:5.5134718 2:0 3:2 4:0.0027878871 5:0.007751938 6:0.100107 
2.095264013279538e-22 1:5.5134718 2:0 3:2 4:0.031404415 5:0.0010335917 6:0.381587 
2.095256166601535e-22 1:5.5134718 2:0 3:2 4:0.0079870501 5:0.0041343669 6:0.259172 
3.466538314507625e-19 1:9122.0728 2:2 3:2 4:0.25951165 5:0.010335917 6:0.729404 
3.466538290152202e-19 1:9122.0728 2:2 3:2 4:0.0092029314 5:0.011369509 6:0.442648 
3.466538257462501e-19 1:9122.0728 2:2 3:2 4:0.0016249565 5:0.0020671835 6:-0.114035 
3.466538278931684e-19 1:9122.0728 2:2 3:2 4:0.0025804045 5:0.0020671835 6:0.253797 
3.466538283308827e-19 1:9122.0728 2:2 3:2 4:0.00053431523 5:0.00051679587 6:0.329995 
5.442065014609514e-19 1:14320.602 2:1 3:1 4:0.15373659 5:0.0020671835 6:0.899846 
5.44206496531741e-19 1:14320.602 2:1 3:1 4:0.010856719 5:0.011369509 6:0.128833 
5.442064965215078e-19 1:14320.602 2:1 3:1 4:0.0071103165 5:0.038242894 6:0.128511 
5.442064962605896e-19 1:14320.602 2:1 3:1 4:0.024406331 5:0.00051679587 6:0.0754295 
5.442064968699449e-19 1:14320.602 2:1 3:1 4:0.0049804251 5:0.00051679587 6:0.190148 
1.025965076893935e-18 1:26997.908 2:0 3:0 4:0.30937946 5:0.049612403 6:0.912634 
1.025965074461735e-18 1:26997.908 2:0 3:0 4:0.085033816 5:0.049612403 6:0.612872 
1.025965070511557e-18 1:26997.908 2:0 3:0 4:0.017566132 5:0.0015503876 6:-0.0285478 
7.23900924322063e-23 1:1.9049156 2:0 3:0 4:0.00052670805 5:0.016020672 6:0.0260773 
1.025965072337196e-18 1:26997.908 2:0 3:0 4:0.014910082 5:0.0082687339 6:0.285924 
7.239036369505518e-23 1:1.9049156 2:0 3:0 4:0.00061741218 5:0.00051679587 6:0.0728736 
